svm_type c_svc
kernel_type rbf
gamma 0.041666666666666664
nr_class 5
total_sv 101
rho 0.34979207332703266 0.0078647039891832898 0.031223725639021521 0.13256466142440623 -0.38514056643178618 -0.23563002304745506 0.0039333127339167655 0.036572630616393112 0.25611771018994561 -0.027950972318649292
label 1 3 0 2 4
nr_sv 10 27 13 16 35
SV
0 0.51975722036811745 0 0 1:-0.18850528 2:-0.99920673 3:-0.99744553 4:-0.99996049 5:-0.93742046 6:-0.99945168 7:-0.77943822 8:0.14286024 9:-0.99828207 10:0.13545564 11:-0.9995355 12:0.043400717 13:-0.99776864 14:-0.9999971 15:-0.19788927 16:-0.99896858 17:-0.99721527 18:-0.99893446 19:-0.92791914 20:-0.99975691 21:-0.75562369 22:-0.99791894 23:0.33754445 24:-0.41862277 
0.56846525617802401 0 0 1 1:-0.19909334 2:-0.99328511 3:-0.99739996 4:-0.99856493 5:-0.90936785 6:-0.99733245 7:-0.76719878 8:0.14095387 9:-0.98969899 10:0.13220622 11:-0.99498125 12:0.037983437 13:-0.98369374 14:-0.99991113 15:-0.20880775 16:-0.99264532 17:-0.99686195 18:-0.99417288 19:-0.89616739 20:-0.9973852 21:-0.75760205 22:-0.9999175 23:0.32511673 24:-0.34651387 
1 0 0 1 1:-0.19593672 2:-0.97906241 3:-0.99815129 4:-0.99459946 5:-0.9052503 6:-0.98357205 7:-0.78492887 8:0.12507327 9:-0.96574602 10:0.12760742 11:-0.98734037 12:0.049841848 13:-0.9513375 14:-0.99933069 15:-0.20535619 16:-0.97730818 17:-0.99799947 18:-0.98616809 19:-0.89370171 20:-0.98853539 21:-0.75514072 22:-0.99977853 23:0.33854663 24:-0.33228071 
0.99705838973661964 0 0 0 1:-0.19276301 2:-0.99270275 3:-1 4:-0.99913957 5:-0.88068548 6:-0.98489532 7:-0.8745819 8:0.13264663 9:-0.9708638 10:0.13660109 11:-0.98463494 12:0.036796154 13:-0.96127757 14:-0.99949183 15:-0.20182356 16:-0.9771602 17:-1 18:-0.98676157 19:-0.86804454 20:-0.98240334 21:-0.7544974 22:-0.99985048 23:0.33396662 24:-0.33639781 
0 0 0 0.072378874426993381 1:-0.19478332 2:-0.99673155 3:-0.99814944 4:-0.99952885 5:-0.90934252 6:-0.99816377 7:-0.79936465 8:0.13685887 9:-0.99326595 10:0.13271267 11:-0.99798039 12:0.042064422 13:-0.99404404 14:-0.9999719 15:-0.20413279 16:-0.99688149 17:-0.99780619 18:-0.99484952 19:-0.89664296 20:-0.99860189 21:-0.75686109 22:-0.99978562 23:0.33257878 24:-0.3538839 
1 1 0.8216414971846433 1 1:-0.20085241 2:-0.9784063 3:-0.99912639 4:-0.99665056 5:-0.86861209 6:-0.97714568 7:-0.76303453 8:0.12834753 9:-0.97270868 10:0.1355644 11:-0.98604381 12:0.02351012 13:-0.95994886 14:-0.99948156 15:-0.20980882 16:-0.97451725 17:-0.99904714 18:-0.98671563 19:-0.85557263 20:-0.98063533 21:-0.75495359 22:-1 23:0.31129068 24:-0.33670603 
0 0 0.77473402589466511 0 1:-0.22912195 2:-0.99652755 3:-0.98865794 4:-0.99939953 5:-0.95505109 6:-0.99831761 7:-0.77283867 8:0.14476226 9:-0.99823525 10:0.13555761 11:-0.99954326 12:0.045813737 13:-0.99846937 14:-0.99999735 15:-0.23740779 16:-0.99870603 17:-0.98844745 18:-0.99911522 19:-0.94862997 20:-0.99955314 21:-0.75521779 22:-0.99527579 23:0.39341212 24:-0.43586424 
0 1 0 1 1:-0.1966112 2:-0.99567465 3:-0.9978545 4:-0.99903103 5:-0.90900369 6:-0.99797667 7:-0.79264369 8:0.13843087 9:-0.99281867 10:0.13181874 11:-0.99686485 12:0.037094177 13:-0.9913813 14:-0.99995815 15:-0.20622215 16:-0.99512795 17:-0.99749842 18:-0.99513535 19:-0.89601743 20:-0.99843489 21:-0.75674154 22:-0.99990382 23:0.32528317 24:-0.34854841 
0 0 1 0 1:-0.23037417 2:-0.99883096 3:-0.98844823 4:-0.9998877 5:-0.95438522 6:-0.99911484 7:-0.77136755 8:0.14440617 9:-0.99822066 10:0.13540805 11:-0.99943866 12:0.044073671 13:-0.99779083 14:-0.99999687 15:-0.23853539 16:-0.99939978 17:-0.98821232 18:-0.99902931 19:-0.94810513 20:-0.99973827 21:-0.75541556 22:-0.99548067 23:0.39072277 24:-0.43445599 
0 1 0 0 1:-0.18363522 2:-0.99774807 3:-0.99912473 4:-0.99938313 5:-0.9237063 6:-0.99175968 7:-0.79144183 8:0.13628132 9:-0.99768444 10:0.13573095 11:-0.99873366 12:0.042131718 13:-0.99465947 14:-0.99998404 15:-0.19306445 16:-0.99750252 17:-0.99885139 18:-0.99847474 19:-0.91309723 20:-0.99575474 21:-0.75608518 22:-0.99815283 23:0.34393416 24:-0.4107715 
-0 0 0 1 1:-0.66768979 2:-0.54204176 3:0.25445136 4:-0.6587584 5:0.46598201 6:-0.29580543 7:0.48964871 8:0.069836411 9:-0.46759448 10:-0.0064546592 11:-0.10117179 12:-0.082042712 13:-0.26999756 14:-0.51582263 15:-0.67059477 16:-0.014403529 17:0.24343336 18:-0.48097083 19:0.29037304 20:-0.34984152 21:-0.56773494 22:0.72846675 23:-0.2350715 24:0.39156959 
-0 0 0.28241302843842547 0 1:-0.55892348 2:-0.44496113 3:0.58554693 4:-0.72765533 5:0.2089197 6:-0.075134685 7:0.33194918 8:0.064942391 9:-0.5660454 10:-0.20747978 11:0.18689103 12:0.039002483 13:-0.21616477 14:-0.23461768 15:-0.53031186 16:0.37612059 17:0.53169427 18:-0.71085301 19:-0.026955354 20:-0.023204372 21:-0.25504436 22:0.67390366 23:-0.54768535 24:0.12230319 
-0 0 0 1 1:-0.62523886 2:-0.47433157 3:-0.083272528 4:-0.76620663 5:0.58342915 6:-0.19170982 7:0.64223262 8:0.19035004 9:-0.61536511 10:0.040491888 11:-0.093048223 12:0.025072333 13:-0.76236577 14:-0.59380324 15:-0.63291994 16:-0.073845307 17:-0.083078445 18:-0.66612456 19:0.4788867 20:-0.33442868 21:-0.57093899 22:0.70038309 23:0.15464184 24:0.60483603 
-0 0 0 1 1:-0.68642622 2:-0.43283264 3:0.086074909 4:-0.74477436 5:0.476899 6:-0.12737817 7:0.5106074 8:-0.015333448 9:-0.62611607 10:0.27968062 11:-0.032629663 12:-0.010873021 13:-0.55305851 14:-0.52147164 15:-0.64382091 16:-0.062806635 17:0.1032097 18:-0.75756107 19:0.29015454 20:-0.21179884 21:-0.81606837 22:0.67715336 23:-0.22351423 24:0.48308813 
-0 0 0 0.46597422827370999 1:-0.66837341 2:-0.44571641 3:-0.11201346 4:-0.75533771 5:0.4905023 6:-0.035860082 7:0.56861004 8:0.20095014 9:-0.76561194 10:0.16605653 11:-0.022616403 12:0.034378326 13:-0.80385209 14:-0.55144485 15:-0.66756774 16:-0.0029230227 17:-0.11366166 18:-0.76918571 19:0.32429242 20:-0.20387887 21:-0.61418278 22:0.41307402 23:0.4000227 24:0.87760559 
-0 0.038395844302063407 0 0 1:-0.69031861 2:-0.79313014 3:0.02747915 4:0.86862832 5:0.13328741 6:0.11916421 7:0.21738467 8:0.19412804 9:0.99999999 10:0.13092481 11:-0.035004304 12:-0.25464098 13:0.42348521 14:0.30940785 15:-0.63153885 16:-0.23201743 17:0.017146474 18:0.95227988 19:-0.12674269 20:-0.11703507 21:-0.16642307 22:0.5480411 23:-0.00070543922 24:0.735785 
-0 0.19001772682453807 0 1 1:-0.25865772 2:-0.10492077 3:-0.20790809 4:-0.085503462 5:0.76786269 6:-0.46407149 7:0.8048593 8:0.62017708 9:0.0643681 10:-0.23132014 11:-0.087090873 12:0.2694796 13:-0.28599802 14:-0.3364635 15:-0.16942495 16:-0.26584926 17:-0.22471879 18:-0.21882317 19:0.67945562 20:-0.60250101 21:-1 22:0.89049005 23:0.23914557 24:0.26900687 
-0 0 0 1 1:-0.56582512 2:-0.37707056 3:0.13903328 4:-0.77482851 5:0.63458278 6:-0.25424441 7:0.6668941 8:0.26222745 9:-0.81458696 10:0.012399423 11:-0.1740468 12:0.10916274 13:-0.81764293 14:-0.67603708 15:-0.55608633 16:-0.029191237 17:0.14465559 18:-0.77128763 19:0.54095893 20:-0.43774919 21:-0.66376011 22:0.27864571 23:0.20655433 24:0.94281058 
-0 0 0 0.45924677901812244 1:-0.62449319 2:-0.43517591 3:-0.037025351 4:-0.85074309 5:0.58868791 6:-0.20323042 7:0.63278418 8:0.031613543 9:-0.73921175 10:-0.03732747 11:-0.053391555 12:0.055297584 13:-0.29909947 14:-0.51374584 15:-0.63299886 16:-0.00080093597 17:-0.028290304 18:-0.69827643 19:0.42116047 20:-0.20495653 21:-0.55803011 22:0.72370723 23:-0.19871777 24:0.42657573 
-0 0 0 0.43544997033463245 1:-0.58927035 2:-0.4705012 3:-0.029270805 4:-0.77667233 5:0.64667805 6:-0.30412144 7:0.70843741 8:0.18084427 9:-0.62469819 10:-0.15214799 11:0.044436281 12:0.074616167 13:-0.82755379 14:-0.46596113 15:-0.6169597 16:0.015328595 17:-0.01706322 18:-0.69474309 19:0.44412463 20:-0.35207347 21:-0.64167466 22:0.87690202 23:-0.13273577 24:0.1219936 
-0 0 0 1 1:-0.61337725 2:-0.37519689 3:-0.20881238 4:-0.6722828 5:0.52878209 6:-0.1064781 7:0.57542976 8:0.31420742 9:-0.4954772 10:-0.21823072 11:-0.1407307 12:-0.11631049 13:-0.85757015 14:-0.59923762 15:-0.64523639 16:-0.12064901 17:-0.19646403 18:-0.62700552 19:0.31974265 20:-0.1912667 21:-0.69517243 22:0.88862443 23:-0.11562632 24:0.097973405 
-0 0 1 1 1:-0.98133 2:-0.89550721 3:0.031891874 4:-0.5701998 5:-0.2183124 6:-0.47626282 7:-0.18871781 8:-0.090354835 9:-0.47136556 10:0.22416528 11:-0.46206758 12:0.097155317 13:-0.58376719 14:-0.79597031 15:-0.94095284 16:-0.35538086 17:0.063050298 18:-0.53542262 19:-0.22081409 20:-0.54274601 21:-0.67576868 22:0.85022766 23:0.22559894 24:0.36310765 
-0 0.18301714382662512 0 0 1:-0.0003910364 2:0.89601032 3:-0.052304204 4:-0.73839052 5:0.50011578 6:0.23777487 7:0.62894364 8:-0.027297091 9:-0.79530652 10:-0.87931287 11:0.3251638 12:-0.14251724 13:-0.70005877 14:-0.030819515 15:-0.041503944 16:0.85075144 17:-0.034255091 18:-0.72552578 19:0.21606294 20:0.28792807 21:-0.24381878 22:0.89506305 23:-0.23219727 24:-0.11092295 
-0 0 0 1 1:-0.6407659 2:-0.42585313 3:-0.16362503 4:-0.70448082 5:0.5161673 6:-0.081181709 7:0.57478323 8:0.27154649 9:-0.72139543 10:0.14537043 11:-0.088640618 12:0.095554649 13:-0.83729257 14:-0.60484 15:-0.64980986 16:-0.10649215 17:-0.15357361 18:-0.732427 19:0.33744931 20:-0.15541184 21:-0.67307889 22:0.77873519 23:0.054746925 24:0.46131547 
-1 0.14099655822954521 1 1 1:-0.98927219 2:-0.87266308 3:-0.026481168 4:-0.89689019 5:-0.19953486 6:-0.6379706 7:-0.17200048 8:0.34271172 9:-0.76954051 10:-0.11696188 11:-0.7023841 12:-0.027562279 13:-0.80500615 14:-0.93309867 15:-1 16:-0.85672526 17:-0.013777132 18:-0.89222708 19:-0.1930779 20:-0.80108113 21:-0.71453592 22:0.88731878 23:0.68989511 24:0.14651058 
-0 0 0 0.13177357585459024 1:-0.64910841 2:-0.59909823 3:0.060922758 4:0.71345438 5:0.29757977 6:-0.11743127 7:0.42644901 8:0.43961941 9:0.26621497 10:-0.025601038 11:-0.091192943 12:0.65946604 13:0.26360396 14:-0.13325959 15:-0.57713532 16:-0.25491694 17:0.094406172 18:0.5837919 19:0.09795119 20:-0.0014590325 21:-0.42297971 22:0.79906807 23:0.58902918 24:0.41683925 
-0.48934252906830644 0 0 0 1:-0.19283006 2:0.30668669 3:-0.10643156 4:-0.77936819 5:0.71169656 6:0.15581668 7:0.77672919 8:-0.081001046 9:-0.59565861 10:0.77688497 11:0.89798723 12:0.114282 13:-0.65973814 14:0.74005855 15:-0.18065081 16:0.94480654 17:-0.096812952 18:-0.77832333 19:0.28966236 20:0.27193755 21:0.10244085 22:-0.56930188 23:0.35928303 24:0.76099138 
-0 0 0 0.45354958720852817 1:-0.83065974 2:-0.69121459 3:-0.16592425 4:0.426224 5:-0.042544085 6:-0.19416665 7:0.08035195 8:0.20848007 9:-0.14557514 10:-0.18578417 11:-0.029817969 12:0.73522624 13:-0.074978711 14:-0.2996748 15:-0.81794953 16:-0.10230694 17:-0.16687493 18:0.25827837 19:-0.19543727 20:-0.36211506 21:-0.36177534 22:0.94958639 23:0.30143832 24:0.085350698 
-0 0 1 0 1:-0.69353199 2:-0.54611795 3:0.490217 4:-0.76103746 5:0.14996394 6:-0.13744608 7:0.23513573 8:0.30804972 9:-0.66060359 10:-0.1369886 11:-0.047440172 12:-0.10591816 13:-0.23234279 14:-0.47960992 15:-0.60405534 16:-0.010988775 17:0.47792439 18:-0.69555405 19:0.045389546 20:-0.28478522 21:-0.73546138 22:0.74504798 23:-0.2693274 24:0.33164749 
-1 1 1 1 1:-0.98434989 2:-0.80843244 3:-0.042744607 4:-0.68062177 5:-0.6324111 6:0.2655461 7:-0.58669712 8:0.13700652 9:-0.87200759 10:0.10282555 11:-0.28950452 12:-0.005931615 13:-0.63824093 14:-0.75036926 15:-0.94192151 16:-0.51005489 17:-0.023651709 18:-0.69647316 19:-0.74454675 20:0.11144111 21:-0.57345755 22:0.76639162 23:-0.22552666 24:-1 
-0 0 0 1 1:-0.54836565 2:-0.35754759 3:-0.098393719 4:-0.78742437 5:0.66681667 6:-0.28027015 7:0.7262589 8:0.14656006 9:-0.85022796 10:0.097169661 11:0.059264828 12:0.072736703 13:-0.69387903 14:-0.47391991 15:-0.54791682 16:0.012505544 17:-0.11481149 18:-0.82875126 19:0.49139503 20:-0.34118004 21:-0.72986287 22:0.7837891 23:0.010272565 24:0.43594875 
-0 0 0 1 1:-0.49994798 2:-0.50305922 3:-0.079923646 4:-0.70191731 5:0.75227862 6:-0.49418073 7:0.79034275 8:0.14411523 9:-0.72715674 10:0.22879468 11:0.031089378 12:0.13311509 13:-0.74414418 14:-0.49455607 15:-0.4870869 16:0.034681866 17:-0.054591474 18:-0.74162486 19:0.57549313 20:-0.45089377 21:-0.75127568 22:0.77515899 23:0.17318942 24:0.49713794 
-0 0 0 0.0097574299172904465 1:-0.66631911 2:-0.82200691 3:-0.022016545 4:1 5:0.1337331 6:0.094280207 7:0.25574129 8:0.38158598 9:0.95619548 10:0.058791922 11:-0.16415418 12:0.23276516 13:-0.067635572 14:0.032226444 15:-0.62694097 16:-0.29954806 17:-0.046330242 18:1 19:-0.096072759 20:-0.16210043 21:-0.1579356 22:0.71470937 23:0.57301608 24:0.56033031 
-0.076181116846337216 0.47636840925744534 0.15005740095466863 0 1:0.13154273 2:0.72697556 3:-0.10470021 4:-0.8133255 5:0.56393222 6:0.15159065 7:0.59876934 8:0.03138339 9:-0.868434 10:0.99999999 11:0.27820763 12:0.25053595 13:-0.62372203 14:-0.12491842 15:0.075727821 16:0.91526194 17:-0.093791857 18:-0.84652105 19:0.32468767 20:0.11352489 21:-0.096564982 22:0.12917567 23:0.60137026 24:0.95549767 
-1 1 1 1 1:-1 2:-0.97734761 3:-0.053234451 4:-0.81324945 5:-0.24133709 6:-0.90677529 7:-0.2468791 8:-0.097276812 9:-0.62435332 10:0.12211129 11:-0.8745092 12:0.015425057 13:-0.74526683 14:-0.95697587 15:-0.97752187 16:-0.87228298 17:-0.055582502 18:-0.80729108 19:-0.19492127 20:-0.91258379 21:-0.82845446 22:0.93877325 23:0.22827053 24:0.11883263 
-0 0.036478488631330984 0 0 1:-0.50762863 2:-0.53393651 3:0.026749405 4:0.9613823 5:0.39920914 6:-0.012515287 7:0.46563324 8:-0.47826786 9:0.44430151 10:0.15381006 11:0.25475859 12:-0.49940395 13:-0.35154863 14:0.14911677 15:-0.54124876 16:0.32931856 17:-0.014584268 18:0.83197009 19:0.10218446 20:-0.13380497 21:0.24359065 22:0.2539246 23:-0.23679063 24:0.82951638 
-0 0 0 1 1:-0.55929879 2:-0.4262478 3:-0.082586202 4:0.55697541 5:0.46498773 6:-0.19114597 7:0.51418472 8:-0.22379615 9:-0.092627287 10:0.14664164 11:-0.072568026 12:-0.42185562 13:-0.15402416 14:-0.36194021 15:-0.54645267 16:0.0020985455 17:-0.11333357 18:0.31836494 19:0.28372069 20:-0.32480387 21:-0.51099684 22:0.38604859 23:-0.17629856 24:0.79216884 
-0 -0 0.95958220336775868 0 1:0.98749938 2:-0.99810254 3:0.12468569 4:-0.98835858 5:-0.92771511 6:-0.9863288 7:-0.74489857 8:0.13196485 9:-0.96118922 10:0.13718571 11:-0.98164776 12:0.04774127 13:-0.98702874 14:-0.9995218 15:0.98718132 16:-0.97436385 17:0.13083291 18:-0.96467768 19:-0.92535492 20:-0.97216709 21:-0.64204677 22:0.29742524 23:-0.91812821 24:-0.092487316 
-0.59736574847809853 -0 0 0 1:0.99195944 2:-0.99874332 3:0.051772937 4:-0.99522674 5:-0.96141535 6:-0.98632269 7:-0.85949913 8:0.14369834 9:-0.96155321 10:0.12705679 11:-0.98394891 12:0.040199378 13:-0.97799815 14:-0.99952379 15:0.99187962 16:-0.97375008 17:0.055152853 18:-0.97316476 19:-0.96031354 20:-0.96515072 21:-0.64131122 22:0.27985068 23:-0.90090738 24:0.011712584 
-0 -1 0 0.3513481893724148 1:1 2:-0.99841206 3:0.046709443 4:-0.96088497 5:-0.79586992 6:-0.97884022 7:-0.66465189 8:0.13145244 9:-0.91951452 10:0.13074807 11:-0.96290484 12:0.0661033 13:-0.90408847 14:-0.99698439 15:0.99886872 16:-0.94876215 17:0.050382377 18:-0.93735244 19:-0.78640087 20:-0.94319634 21:-0.64490719 22:0.26116143 23:-0.9395186 24:-0.13505639 
-0 -0.29866388982225739 0 0 1:0.99346377 2:-0.98844869 3:0.097888319 4:-0.90148786 5:-0.86434415 6:-0.92061693 7:-0.71156687 8:0.16152005 9:-0.90528594 10:0.17335072 11:-0.93400172 12:0.10568261 13:-0.90463424 14:-0.99474456 15:0.99383141 16:-0.92028781 17:0.10381786 18:-0.89917435 19:-0.85718142 20:-0.91312869 21:-0.63271496 22:0.18197326 23:-0.95956169 24:-0.11150705 
-0 -1 0 1 1:0.99943367 2:-0.99757669 3:0.045865185 4:-0.96375084 5:-0.81745923 6:-0.93494404 7:-0.61339853 8:0.15712542 9:-0.95665461 10:0.11991896 11:-0.96742989 12:0.050620551 13:-0.93173402 14:-0.99846286 15:0.99767848 16:-0.9621609 17:0.050495638 18:-0.95243369 19:-0.81020504 20:-0.94418076 21:-0.6497749 22:0.26659284 23:-0.92995935 24:-0.091163066 
-1 -0 0 0 1:0.99680045 2:-0.99922237 3:0.095769445 4:-0.98914126 5:-0.76350475 6:-0.98838269 7:-0.6836009 8:0.13177378 9:-0.9717813 10:0.13641075 11:-0.98566047 12:0.054028582 13:-0.98060935 14:-0.99966415 15:0.99495286 16:-0.98236291 17:0.10285761 18:-0.96988103 19:-0.7568406 20:-0.98132609 21:-0.65053312 22:-0.034373002 23:-0.99962625 24:-0.3385305 
-0 -0 0 1 1:0.99574643 2:-0.9998711 3:0.1067807 4:-0.99786455 5:-0.74330214 6:-0.99867045 7:-0.51837082 8:0.14144892 9:-0.98860405 10:0.13511234 11:-0.99475931 12:0.044756238 13:-0.99467879 14:-0.99994696 15:0.99405742 16:-0.99083223 17:0.11416148 18:-0.99061539 19:-0.73456596 20:-0.98986941 21:-0.65009347 22:-0.011453892 23:-0.99817307 24:-0.26012078 
-0 -0 1 0 1:0.9892847 2:-0.99976708 3:0.11830717 4:-0.99814842 5:-0.91209459 6:-0.99737415 7:-0.71886383 8:0.14311645 9:-0.99120433 10:0.13563238 11:-0.9936891 12:0.046683771 13:-0.99111489 14:-0.99993957 15:0.98844648 16:-0.99225904 17:0.12590732 18:-0.99383999 19:-0.90829012 20:-0.99428074 21:-0.64533562 22:0.29412722 23:-0.91229631 24:-0.057461728 
-1 -0 0 0 1:0.99711966 2:-0.99950125 3:0.092502018 4:-0.9938299 5:-0.76385256 6:-0.98469599 7:-0.64732708 8:0.12611114 9:-0.97830966 10:0.13500018 11:-0.98712466 12:0.05036579 13:-0.98778211 14:-0.99976243 15:0.99548349 16:-0.98378659 17:0.098696522 18:-0.98379284 19:-0.7565664 20:-0.98502359 21:-0.6502627 22:-0.02480025 23:-1 24:-0.33993424 
-0 -0 1 0 1:0.98756376 2:-0.99833159 3:0.12299076 4:-0.98711453 5:-0.93015692 6:-0.99156423 7:-0.67974486 8:0.17227647 9:-0.95905467 10:0.13649572 11:-0.9845313 12:0.042458581 13:-0.98618602 14:-0.99948411 15:0.98735697 16:-0.9776893 17:0.13046727 18:-0.96553718 19:-0.92862178 20:-0.98011157 21:-0.6405489 22:0.29482424 23:-0.90855058 24:-0.042172521 
-0 -0 1 0 1:0.98902635 2:-0.99848438 3:0.1175734 4:-0.99559359 5:-0.91771515 6:-0.9811403 7:-0.70709539 8:0.14466238 9:-0.98553796 10:0.12837219 11:-0.98657455 12:0.045587817 13:-0.98587483 14:-0.99981598 15:0.98836295 16:-0.98051225 17:0.12528931 18:-0.98701107 19:-0.91471245 20:-0.98423666 21:-0.64381501 22:0.29506343 23:-0.91141117 24:-0.055205624 
-0 -0.76661028124929076 0 1 1:0.99915637 2:-0.99809579 3:0.039591699 4:-0.96791077 5:-0.84044949 6:-0.976571 7:-0.57363285 8:0.14761964 9:-0.94947767 10:0.12678147 11:-0.971443 12:0.048534394 13:-0.94132871 14:-0.99867323 15:1 16:-0.96068945 17:0.043945005 18:-0.95540752 19:-0.83622639 20:-0.95932472 21:-0.63545941 22:0.29045028 23:-0.92435624 24:-0.11085106 
-0.92239147189001891 -0 0 0 1:0.99686774 2:-0.99839484 3:0.095262089 4:-0.97933923 5:-0.75820222 6:-0.9769854 7:-0.64718018 8:0.1193976 9:-0.94179039 10:0.13334488 11:-0.96138625 12:0.048409417 13:-0.96382433 14:-0.99846238 15:0.99629664 16:-0.94130313 17:0.10492953 18:-0.95404799 19:-0.76303157 20:-0.95604269 21:-0.63899557 22:-0.032557339 23:-0.99889581 24:-0.38372814 
-0.98267196598218876 -1 -0.94125500137397722 1 1:-0.2115142 2:-0.84145018 3:0.98937923 4:-0.96027397 5:-0.6901309 6:-0.95714028 7:-0.2699712 8:0.10883225 9:-0.81460047 10:0.18940745 11:-0.88017459 12:0.15459675 13:-0.69997409 14:-0.97485452 15:-0.2392495 16:-0.7924411 17:0.9842248 18:-0.7834281 19:-0.69334996 20:-0.88524063 21:-0.75492406 22:0.86380598 23:0.45990841 24:0.3212414 
-0 -1 -0 1 1:-0.28394265 2:-0.94184799 3:0.97354567 4:-0.98072004 5:-0.65122751 6:-0.98807051 7:-0.2071951 8:0.14894845 9:-0.97339083 10:0.13479964 11:-0.98260461 12:0.08045164 13:-0.90807401 14:-0.99847255 15:-0.29109737 16:-0.92843655 17:0.97102135 18:-0.97653112 19:-0.64455699 20:-0.97204925 21:-0.79571301 22:0.98234341 23:0.39802973 24:-0.57645611 
-0.29068653944344464 -0 -0 0 1:-0.18293094 2:-0.99680758 3:0.99617344 4:-0.99948378 5:-0.71729432 6:-0.99972447 7:-0.36708466 8:0.14388073 9:-0.99848485 10:0.13462289 11:-0.99876445 12:0.047174066 13:-0.99485534 14:-0.99998918 15:-0.19172928 16:-0.99082205 17:0.99435053 18:-0.99772619 19:-0.70906517 20:-0.99681556 21:-0.79372733 22:0.90375156 23:0.79813941 24:-0.62599728 
-0 -1 -1 1 1:-0.3043847 2:-0.90988173 3:0.96698276 4:-0.96411028 5:-0.63323986 6:-0.95752387 7:-0.21016521 8:0.10838497 9:-0.84694403 10:0.20746956 11:-0.88529888 12:0.1434161 13:-0.77326344 14:-0.98189393 15:-0.33081949 16:-0.83826388 17:0.95762709 18:-0.85953158 19:-0.62899602 20:-0.93414335 21:-0.783517 22:0.99628894 23:0.20643592 24:-0.40476195 
-1 -0 -0 0 1:-0.18462036 2:-0.99657598 3:0.99590638 4:-0.99943766 5:-0.71752176 6:-0.99905725 7:-0.37979699 8:0.14314684 9:-0.99787799 10:0.13602326 11:-0.9981443 12:0.043943887 13:-0.99340346 14:-0.9999847 15:-0.19355455 16:-0.9902984 17:0.994092 18:-0.99763457 19:-0.70918513 20:-0.99604156 21:-0.7935344 22:0.9033576 23:0.80076234 24:-0.62358683 
-0 -1 -0 1 1:-0.18816955 2:-0.920499 3:0.99484157 4:-0.98466741 5:-0.70855021 6:-0.96086874 7:-0.32113896 8:0.16049087 9:-0.96299512 10:0.14798083 11:-0.97463911 12:0.043102694 13:-0.86120138 14:-0.99685415 15:-0.20735342 16:-0.90168506 17:0.99318961 18:-0.97660626 19:-0.70724215 20:-0.95646656 21:-0.78001622 22:0.886616 23:0.62705234 24:0.19342402 
-0 -0.30196238056598634 -0 1 1:-0.20311016 2:-0.9751599 3:0.99279803 4:-0.99446802 5:-0.7280667 6:-0.99522365 7:-0.27918587 8:0.14546141 9:-0.9859001 10:0.13668606 11:-0.98960688 12:0.067314617 13:-0.96066974 14:-0.9996294 15:-0.21035665 16:-0.96194925 17:0.99226753 18:-0.99467858 19:-0.71910139 20:-0.98592007 21:-0.78752591 22:0.89548242 23:0.62518028 24:0.16734175 
-0 -0 -0 1 1:-0.23054967 2:-0.97613084 3:0.98663239 4:-0.99356738 5:-0.66537997 6:-0.9854359 7:-0.27700937 8:0.16096855 9:-0.97220114 10:0.13304917 11:-0.97889904 12:0.060767736 13:-0.93934281 14:-0.99907294 15:-0.2373992 16:-0.95172184 17:0.98478865 18:-0.98179923 19:-0.65644408 20:-0.97420762 21:-0.79371234 22:0.97715116 23:0.46618004 24:-0.57864991 
-0 -0.1305080488271077 -0 0 1:-0.21457262 2:-0.95851645 3:0.99017505 4:-0.98873877 5:-0.69279348 6:-0.94039881 7:-0.26098041 8:0.1658452 9:-0.96260892 10:0.12981335 11:-0.97722198 12:0.053725753 13:-0.91186218 14:-0.99839235 15:-0.2203281 16:-0.93574704 17:0.9885841 18:-0.97901089 19:-0.68628497 20:-0.95114819 21:-0.7929083 22:0.9764083 23:0.47690082 24:-0.57661961 
-0.32301701765367508 -0 -0.7503779510673495 0 1:-0.24509283 2:-0.99707301 3:0.9844336 4:-0.99929281 5:-0.72609978 6:-0.99821902 7:-0.3914106 8:0.14223926 9:-0.99808171 10:0.1355678 11:-0.99803634 12:0.044809113 13:-0.99073924 14:-0.99997682 15:-0.25285753 16:-0.99035998 17:0.98271919 18:-0.99828712 19:-0.71822309 20:-0.99615433 21:-0.79331176 22:0.97815237 23:0.45995465 24:-0.5754643 
-0 -0 -1 0 1:-0.15792433 2:-0.99700113 3:0.99979586 4:-0.99962285 5:-0.76152807 6:-0.99947203 7:-0.34992726 8:0.14510966 9:-0.99861973 10:0.13565618 11:-0.99943048 12:0.044876409 13:-0.99271913 14:-0.99998695 15:-0.16749097 16:-0.99239448 17:0.99964052 18:-0.99892221 19:-0.75176572 20:-0.99772929 21:-0.7848141 22:0.91421025 23:0.62620211 24:0.10251415 
-0 -0 -0.26794925092643185 0 1:-0.15710137 2:-0.99918898 3:0.99990593 4:-0.99999219 5:-0.76147481 6:-0.99874126 7:-0.34483567 8:0.14392416 9:-0.99912125 10:0.13579213 11:-0.99956357 12:0.043069046 13:-0.99613004 14:-0.99999547 15:-0.16616685 16:-0.99458384 17:0.99981533 18:-0.99902541 19:-0.75138226 20:-0.99804086 21:-0.78486764 22:0.91390125 23:0.62908783 24:0.10150214 
-0 -0 -0 1 1:-0.25138862 2:-0.99848012 3:0.9830053 4:-0.99968501 5:-0.72328798 6:-0.99713874 7:-0.29125238 8:0.14190923 9:-0.99884496 10:0.13513613 11:-0.99866566 12:0.044299591 13:-0.99517352 14:-0.9999908 15:-0.2589389 16:-0.99406315 17:0.98125543 18:-0.99871158 19:-0.71567601 20:-0.99575529 21:-0.79369003 22:0.97739511 23:0.46169349 24:-0.57982801 
-0 -1 -0 1 1:-0.25877686 2:-0.9361161 3:0.97991519 4:-0.97983359 5:-0.65561859 6:-0.99339287 7:-0.26459903 8:0.1459304 9:-0.98271225 10:0.13369497 11:-0.98895566 12:0.094968218 13:-0.93908683 14:-0.99916224 15:-0.26423907 16:-0.9425118 17:0.9780989 18:-0.98087264 19:-0.64705908 20:-0.98229644 21:-0.79573857 22:0.98228869 23:0.37987437 24:-0.58287753 
-0 -0 -0 1 1:-0.25394211 2:-0.99364839 3:0.982434 4:-0.99826766 5:-0.72711525 6:-0.9975553 7:-0.27007344 8:0.14391981 9:-0.99768214 10:0.13584992 11:-0.99786271 12:0.04003114 13:-0.9870596 14:-0.99996267 15:-0.26159697 16:-0.98884075 17:0.98066943 18:-0.99745946 19:-0.71931133 20:-0.99587262 21:-0.79353761 22:0.97814264 23:0.45790689 24:-0.57684647 
-0 -0 -0 0.13388054732786489 1:-0.25516802 2:-0.99565672 3:0.98215253 4:-0.9988562 5:-0.7273653 6:-0.99813173 7:-0.31421681 8:0.14210464 9:-0.99893276 10:0.13555421 11:-0.99866367 12:0.046746259 13:-0.99105604 14:-0.99997962 15:-0.26251575 16:-0.99113117 17:0.98048354 18:-0.99814817 19:-0.7197312 20:-0.99698759 21:-0.79343032 22:0.97804011 23:0.45502746 24:-0.57938603 
-0 -0 -0 -1 1:-0.95657281 2:-0.9455895 3:0.27677814 4:-0.61844527 5:-0.24993549 6:-0.97639504 7:-0.17025875 8:-0.055206472 9:-0.75035724 10:0.14124068 11:-0.9711704 12:-0.28112653 13:-0.56993244 14:-0.95506019 15:-0.94372605 16:-0.95755453 17:0.27483602 18:-0.69458838 19:-0.24532732 20:-0.97575517 21:-0.83535999 22:0.97068811 23:0.044469289 24:-0.1578636 
-0 -0 -0 -1 1:-0.96170466 2:-0.99582643 3:0.2842909 4:-0.98477013 5:-0.25927686 6:-0.98215374 7:-0.23936584 8:0.16117265 9:-0.97447648 10:0.12328393 11:-0.98201763 12:0.036325086 13:-0.96725434 14:-0.9995034 15:-0.95441484 16:-0.98149997 17:0.28306093 18:-0.98497636 19:-0.25093347 20:-0.98335679 21:-0.81211092 22:0.97562535 23:0.079750025 24:-0.15478761 
-0 -0 -0.17610510607699914 -0 1:-0.066507175 2:-0.8669537 3:-0.18508084 4:-0.67582351 5:0.97199995 6:-0.94486032 7:0.97591166 8:0.17946769 9:-0.59542743 10:0.14235554 11:-0.7814244 12:0.31113064 13:0.12836599 14:-0.78547248 15:-0.059566446 16:-0.82051491 17:-0.20275321 18:-0.70504544 19:0.97353093 20:-0.9639403 21:-0.79208246 22:0.20530491 23:-0.079978454 24:0.90942312 
-0 -1 -0 -0 1:-0.77356253 2:-0.87078132 3:-0.47829092 4:-0.83330203 5:0.10323937 6:-0.68745382 7:0.20818747 8:0.33123878 9:-0.82462563 10:-0.033663385 11:-0.88419552 12:0.052956662 13:-0.85269612 14:-0.97882866 15:-0.77673317 16:-0.8787191 17:-0.47696783 18:-0.86308015 19:0.12420123 20:-0.81252202 21:-0.74851132 22:0.91292073 23:0.5823517 24:0.136372 
-0 -1 -0 -1 1:-0.77896289 2:-0.8443255 3:0.4913696 4:-0.84471308 5:0.057261132 6:-0.83646031 7:0.11273865 8:0.22950655 9:-0.91095546 10:0.007328161 11:-0.90358034 12:0.1113931 13:-0.83628812 14:-0.98751522 15:-0.77088149 16:-0.81247428 17:0.48984966 18:-0.86581684 19:0.067194768 20:-0.90515182 21:-0.81427551 22:0.92831313 23:-0.026789467 24:0.024999159 
-1 -0 -0.055162754042066497 -0 1:-0.81926719 2:-0.9611102 3:-0.56232431 4:-0.94021961 5:-0.21683781 6:-0.97511254 7:-0.0075174031 8:0.14636465 9:-0.92573224 10:0.12403171 11:-0.94795897 12:0.0077389629 13:-0.91479454 14:-0.99671191 15:-0.81814207 16:-0.94942465 17:-0.55924622 18:-0.93998429 19:-0.20266105 20:-0.97143473 21:-0.77691173 22:0.92041657 23:0.67166454 24:0.038411506 
-0 -1 -0 -0 1:-0.94528208 2:-0.89946509 3:-0.16195496 4:-0.62568669 5:-0.064892733 6:-0.81337925 7:-0.027841239 8:0.25606107 9:-0.88048708 10:0.20541998 11:-0.90438818 12:0.18908083 13:-0.80828761 14:-0.98529373 15:-0.94683492 16:-0.86962765 17:-0.15076672 18:-0.70043542 19:-0.071684581 20:-0.86320174 21:-0.77621027 22:0.91613313 23:0.47363242 24:0.17539676 
-1 -0 -0 -0 1:-0.7326979 2:-0.93985002 3:-0.61873023 4:-0.92758996 5:-0.063694414 6:-0.96627074 7:0.076570544 8:0.16774722 9:-0.9304143 10:0.15855842 11:-0.95031485 12:0.082633933 13:-0.92040779 14:-0.99691722 15:-0.7346315 16:-0.93207717 17:-0.61466991 18:-0.91891112 19:-0.049951918 20:-0.96529846 21:-0.77204271 22:0.83254454 23:0.78104691 24:0.23013195 
-0.30802797690667877 -0.49494843572336755 -0.38040050398008501 -0 1:-0.94222711 2:-0.88982927 3:-0.073670234 4:0.23134344 5:-0.24430912 6:-0.95314783 7:-0.13280567 8:-0.22471676 9:-0.76066967 10:0.12239001 11:-0.94354359 12:-0.54822196 13:-0.60847259 14:-0.93270467 15:-0.92791521 16:-0.90776398 17:-0.10252475 18:-0.06286801 19:-0.23931416 20:-0.96073853 21:-0.78696326 22:0.96349363 23:0.010280875 24:-0.14524196 
-0 -1 -0 -0 1:-0.6727271 2:-0.7564056 3:-0.33086342 4:-0.4594748 5:0.42844376 6:-0.43986173 7:0.50273431 8:0.40061489 9:-0.81388958 10:-0.097234273 11:-0.88041678 12:0.28035742 13:-0.86519697 14:-0.96783357 15:-0.6721254 16:-0.76687289 17:-0.31836891 18:-0.59690219 19:0.44947907 20:-0.66627377 21:-0.77909026 22:0.83350874 23:0.58901486 24:0.34703475 
-0 -0 -0 -1 1:-0.83538328 2:-0.94786377 3:0.4479571 4:-0.93906071 5:-0.022221182 6:-0.94278133 7:0.029599124 8:0.192695 9:-0.90194879 10:0.063791807 11:-0.89495841 12:0.096919786 13:-0.81173983 14:-0.98752113 15:-0.83081581 16:-0.85202666 17:0.4383296 18:-0.93574711 19:-0.0091750708 20:-0.95991373 21:-0.81309161 22:0.92801424 23:-0.025130699 24:0.0279619 
-0 -0.055805855212794561 -0 -0 1:-0.27360371 2:-0.5388063 3:-0.14561104 4:-0.73512609 5:0.91205828 6:-0.89652362 7:0.92676443 8:0.28279362 9:-0.67991115 10:-0.089606988 11:-0.85023255 12:-0.33673656 13:-0.70657558 14:-0.94311904 15:-0.27810919 16:-0.61734577 17:-0.1489681 18:-0.72768526 19:0.91674111 20:-0.92465335 21:-0.79593208 22:0.43559833 23:0.19518773 24:0.86105589 
-0 -0 -0 -1 1:-0.84550538 2:-0.94250756 3:0.42880355 4:-0.87249483 5:-0.022682268 6:-0.94635637 7:0.01390781 8:0.14721579 9:-0.89778104 10:0.11507883 11:-0.91051342 12:0.15408722 13:-0.80897259 14:-0.98885501 15:-0.83337807 16:-0.90517298 17:0.42630323 18:-0.9024018 19:-0.010743165 20:-0.96057527 21:-0.83582683 22:0.94078211 23:-0.0018748277 24:-0.010993275 
-0 -1 -0 -0 1:-0.28936285 2:-0.59135614 3:0.087110889 4:-0.03141451 5:0.85331316 6:-0.57035502 7:0.87460945 8:-0.31234449 9:-0.63579006 10:-0.063400952 11:-0.6840034 12:-0.1067257 13:-0.78230175 14:-0.90169791 15:-0.27257932 16:-0.58561739 17:0.062712979 18:-0.26019203 19:0.85179162 20:-0.72415747 21:-0.81207705 22:0.76492947 23:-0.22951901 24:0.32623176 
-0 -0.15240670813663509 -0 -0 1:-0.82424466 2:-0.89330673 3:-0.49189105 4:-0.93563626 5:-0.061873838 6:-0.80736747 7:0.077763195 8:0.15976133 9:-0.96709738 10:0.02669208 11:-0.92983801 12:-0.00012017838 13:-0.90996647 14:-0.99453351 15:-0.82019704 16:-0.89145485 17:-0.4911066 18:-0.94059242 19:-0.044836599 20:-0.87862459 21:-0.77886622 22:0.91868313 23:0.58926291 24:0.11165427 
-0 -1 -0 -0.13388054732786489 1:-0.85290814 2:-0.6422831 3:0.39538849 4:-0.5127674 5:-0.074188804 6:-0.60207827 7:0.033952692 8:0.005554078 9:-0.76067717 10:0.35922326 11:-0.81374867 12:-0.1610427 13:-0.66741737 14:-0.9488776 15:-0.85496076 16:-0.64703642 17:0.37085076 18:-0.59474213 19:-0.083481147 20:-0.76513986 21:-0.80749612 22:0.79210388 23:-0.37969366 24:0.077880513 
-1 -0 -0 -0 1:-0.80813316 2:-0.93562635 3:-0.5692341 4:-0.94319292 5:-0.19272691 6:-0.89839994 7:-0.0005209906 8:0.10437682 9:-0.92078013 10:0.049604519 11:-0.91485996 12:0.018607169 13:-0.92563466 14:-0.99357856 15:-0.80869511 16:-0.92331734 17:-0.56528103 18:-0.93616913 19:-0.17744946 20:-0.92985585 21:-0.77070851 22:0.91183975 23:0.67582953 24:0.070261496 
-0 -1 -0 -0 1:-0.43531477 2:-0.61908337 3:0.38636422 4:-0.39441704 5:0.65262132 6:-0.52998595 7:0.70798015 8:-0.074765183 9:-0.45984205 10:-0.025189761 11:-0.67679913 12:-0.06520444 13:-0.73291326 14:-0.88860414 15:-0.42854671 16:-0.56226848 17:0.39825068 18:-0.46425187 19:0.61603139 20:-0.68085302 21:-0.81453169 22:0.51940533 23:-0.20747978 24:0.676398 
-0 -0.061867206591649265 -0 -0 1:-0.20684248 2:-0.77443356 3:0.029585988 4:-0.64744024 5:0.96745827 6:-0.95890526 7:0.97661713 8:0.24983389 9:-0.72735064 10:0.17536631 11:-0.80986798 12:-1 13:0.20232612 14:-0.70883539 15:-0.21508274 16:-0.71301293 17:0.032124075 18:-0.63430556 19:0.96324193 20:-0.9275176 21:-0.79612088 22:0.12480955 23:0.19291228 24:0.98412519 
-0 -1 -0 -0 1:-0.5564692 2:-0.56647022 3:-0.3479117 4:-0.57705504 5:0.57219296 6:-0.47454689 7:0.64500031 8:-0.12918565 9:-0.80029234 10:0.36128983 11:-0.8499489 12:0.025346323 13:-0.54903636 14:-0.9433142 15:-0.57752853 16:-0.61807727 17:-0.36753759 18:-0.69503554 19:0.53860787 20:-0.67574713 21:-0.78085524 22:0.5130568 23:0.070559801 24:0.78461877 
-0 -0 -1 -1 1:-0.95500172 2:-0.9959216 3:0.30345531 4:-0.98395646 5:-0.25650642 6:-0.99357625 7:-0.26808055 8:0.14470581 9:-0.99104179 10:0.13715852 11:-0.99615844 12:0.057551977 13:-0.98553409 14:-0.99991842 15:-0.94659661 16:-0.99348674 17:0.30348965 18:-0.98799969 19:-0.24690185 20:-0.99382645 21:-0.81529825 22:0.96881001 23:0.039415566 24:-0.1478724 
-0.43196365944626747 -0.066255400595229441 -0 -0 1:-0.76128319 2:-0.87357315 3:-0.59993398 4:-0.8856417 5:-0.11249666 6:-0.84545177 7:0.046077518 8:0.092608588 9:-0.92530882 10:0.029717161 11:-0.92561117 12:-0.012266998 13:-0.94419378 14:-0.99398563 15:-0.75818318 16:-0.89078726 17:-0.60040527 18:-0.90612177 19:-0.095664403 20:-0.90437467 21:-0.77260486 22:0.91391414 23:0.67323726 24:0.064316938 
-0 -0 -0.39553716550619944 -1 1:-0.95866761 2:-0.99242035 3:0.29871447 4:-0.97876899 5:-0.26854849 6:-0.98919039 7:-0.21288178 8:0.14650361 9:-0.97176068 10:0.13798447 11:-0.98879063 12:0.034873428 13:-0.98526595 14:-0.99974535 15:-0.95058003 16:-0.98658687 17:0.298356 18:-0.96940213 19:-0.25966081 20:-0.98660732 21:-0.81425761 22:0.96938355 23:0.040211176 24:-0.15198219 
-0 -0.22885532017775942 -0 -0 1:-0.19764268 2:-0.50198922 3:-0.10928144 4:-0.70343186 5:0.94333567 6:-0.86090207 7:0.95538469 8:-0.015038155 9:-0.79257844 10:-0.19032859 11:-0.8506953 12:0.52640862 13:-0.28987862 14:-0.88437929 15:-0.19879623 16:-0.57987368 17:-0.11591086 18:-0.74068385 19:0.9459672 20:-0.91146001 21:-0.80729396 22:0.54081288 23:0.0087433242 24:0.74510199 
-0 -1 -0 -0 1:-0.15420546 2:-0.70547642 3:0.049251515 4:-0.65312582 5:0.97682195 6:-0.93737132 7:0.98468252 8:0.12282819 9:-0.53397923 10:0.11409652 11:-0.7792254 12:-0.078879832 13:0.99999999 14:-0.43587333 15:-0.14639054 16:-0.64069747 17:0.025692858 18:-0.6077308 19:0.97328029 20:-0.91267739 21:-0.7898422 22:0.24651435 23:0.1205388 24:0.9442504 
-0 -0 -0.47571564377874115 -1 1:-0.66549301 2:-0.96718109 3:0.58860012 4:-0.9554386 5:0.15573992 6:-0.98627104 7:0.25362034 8:0.17357054 9:-0.95223142 10:0.12008551 11:-0.97053445 12:0.042477808 13:-0.95361033 14:-0.9987673 15:-0.65830902 16:-0.96705916 17:0.58421027 18:-0.95483627 19:0.1620928 20:-0.97098621 21:-0.84003916 22:0.8115345 23:-0.3247942 24:0.10139939 
-0.16501905498165317 -0.42018844642605502 -0 -0 1:-0.30070674 2:-0.59217172 3:-0.013770939 4:-0.75322983 5:0.92236701 6:-0.88323993 7:0.93248299 8:-0.14627781 9:-0.70513795 10:0.36253045 11:-0.80547468 12:0.99999998 13:0.2287864 14:-0.69660867 15:-0.31502246 16:-0.69193658 17:-0.019214859 18:-0.81499084 19:0.92545774 20:-0.92475315 21:-0.81576499 22:0.016314323 23:-0.2021656 24:0.89315167 
-0 -0.47542419774338351 -0 -0 1:-0.87076129 2:-0.83545385 3:-0.46947759 4:-0.56897174 5:-0.22881376 6:-0.94411171 7:-0.028279022 8:-0.012684508 9:-0.8043937 10:0.089049535 11:-0.94344122 12:-0.25756353 13:-0.75220741 14:-0.9755335 15:-0.86145486 16:-0.86942437 17:-0.49635366 18:-0.7728299 19:-0.21501085 20:-0.95684419 21:-0.75200678 22:0.97151159 23:0.39597956 24:-0.027489322 
-0 -0 -0 -1 1:-0.96135474 2:-0.99318337 3:0.29002994 4:-0.97009951 5:-0.26797208 6:-0.97489184 7:-0.27034573 8:0.16617957 9:-0.973391 10:0.12478288 11:-0.96268527 12:0.030109876 13:-0.96336314 14:-0.99892109 15:-0.9540316 16:-0.9748465 17:0.28829799 18:-0.97556632 19:-0.26220575 20:-0.98108442 21:-0.81493873 22:0.97549719 23:0.086433602 24:-0.1451119 
-0 -1 -0 -0 1:-0.59243223 2:-0.75158225 3:0.14093084 4:-0.15347971 5:0.62356853 6:-0.70827046 7:0.65996857 8:-0.25381165 9:-0.70384054 10:0.016947238 11:-0.82677835 12:-0.20554418 13:-0.78948944 14:-0.94622669 15:-0.58746666 16:-0.73609598 17:0.13516142 18:-0.28824795 19:0.61018532 20:-0.80226757 21:-0.80774564 22:0.65622594 23:-0.32712932 24:0.43505252 
-0 -1 -0 -0 1:-0.59962271 2:-0.723458 3:0.265433 4:-0.33372271 5:0.5652433 6:-0.50520123 7:0.59665965 8:0.37781232 9:-0.54288176 10:0.26915062 11:-0.83620198 12:0.090536334 13:-0.70746554 14:-0.93632693 15:-0.60664278 16:-0.70356023 17:0.28292382 18:-0.46834914 19:0.54177832 20:-0.66115898 21:-0.7814792 22:0.52432089 23:0.014051082 24:0.76099765 
-0 -1 -0 -0 1:-0.78122782 2:-0.68127709 3:-0.3489665 4:-0.70195179 5:0.23378976 6:-0.66287811 7:0.33621937 8:0.10323908 9:-0.84503132 10:0.31835747 11:-0.89964064 12:0.32914659 13:-0.80855423 14:-0.97584227 15:-0.80552975 16:-0.78023504 17:-0.35018521 18:-0.74197769 19:0.20679577 20:-0.81391954 21:-0.74535409 22:0.71784697 23:0.40483774 24:0.58995557 
-0 -1 -0 -0 1:-0.49624919 2:-0.64418618 3:-0.10680761 4:-0.55559419 5:0.76652899 6:-0.68068941 7:0.80786102 8:0.33420473 9:-0.73401131 10:-0.14536365 11:-0.88090615 12:0.35837202 13:-0.60678748 14:-0.9407735 15:-0.47620834 16:-0.67474002 17:-0.088599116 18:-0.67506533 19:0.78022704 20:-0.81779244 21:-0.84198907 22:0.76382931 23:0.27557908 24:0.52636479 
-0.16736818309239399 -0 -0.86842701598832361 -0 1:-0.02923027 2:-0.72150557 3:-0.03136216 4:-0.82142078 5:1 6:-0.98004791 7:0.99999977 8:0.12309743 9:-0.84472523 10:0.30032935 11:-0.89451931 12:0.20584219 13:-0.88743512 14:-0.98342412 15:-0.048656567 16:-0.72249065 17:-0.023321776 18:-0.83433994 19:1 20:-0.96707385 21:-0.81954125 22:0.0081227888 23:-0.085558562 24:0.93731429 
-0 -1 -0 -0 1:-0.96061497 2:-0.91856158 3:0.059488764 4:-0.41717385 5:-0.11079023 6:-0.86077077 7:-0.083059611 8:0.36233557 9:-0.81435386 10:0.14392926 11:-0.86734711 12:0.35694439 13:-0.75096635 14:-0.96704965 15:-0.96049253 16:-0.84846179 17:0.083571344 18:-0.56463238 19:-0.13010461 20:-0.90098481 21:-0.77734713 22:0.93014265 23:0.38084943 24:0.15159101 
