svm_type c_svc
kernel_type rbf
gamma 0.047619047619047616
nr_class 5
total_sv 115
rho 0.14989511746421816 -0.074851585358045827 -0.069269510092016998 -0.1036070591700252 -0.37960353433745619 -0.19211800059562745 -0.0059690656493283098 -0.0053958296775817871 0.22613863923592784 0.05470883846282959
label 1 3 0 2 4
nr_sv 17 25 19 17 37
SV
0 0 0 1 1:-0.19393421 2:-0.99856777 3:-0.99819139 4:-0.99985324 5:-0.91116369 6:-0.99944973 7:0.99834584 8:0.14018113 9:-0.99721185 10:0.13172854 11:-0.99931515 12:0.042696103 13:-0.99721878 14:-0.99999147 15:-0.20216216 16:-0.99894437 17:-0.99799459 18:-0.99812934 19:-0.8981148 20:-0.99954288 21:-0.76824234 
1 0 0 1 1:-0.19117484 2:-0.98488716 3:-0.99964645 4:-0.99600854 5:-0.89269294 6:-0.97652955 7:0.99833087 8:0.12764085 9:-0.96388435 10:0.12770764 11:-0.98476448 12:0.051705221 13:-0.95234351 14:-0.99929014 15:-0.19953801 16:-0.97651556 17:-0.9996516 18:-0.98503543 19:-0.88095399 20:-0.97999595 21:-0.76605227 
0.74999320598440955 0 0 1 1:-0.19909763 2:-0.99332638 3:-0.99739881 4:-0.9985775 5:-0.90941766 6:-0.99730304 7:0.998423 8:0.14317686 9:-0.98972365 10:0.12943854 11:-0.99490672 12:0.039715463 13:-0.98351695 14:-0.99991002 15:-0.20766329 16:-0.99264339 17:-0.99684477 18:-0.99406195 19:-0.8962447 20:-0.99734768 21:-0.76966655 
1 0 0 1 1:-0.19587399 2:-0.97906128 3:-0.99817151 4:-0.99458263 5:-0.90511832 6:-0.98305346 7:0.99840439 8:0.12714011 9:-0.96580824 10:0.12494558 11:-0.98734508 12:0.050687675 13:-0.95150331 14:-0.99933198 15:-0.20420698 16:-0.97732241 17:-0.99791456 18:-0.98610579 19:-0.89353487 20:-0.98813607 21:-0.7676479 
1 0 0 1 1:-0.19279055 2:-0.99257745 3:-1 4:-0.99913699 5:-0.88063413 6:-0.98464108 7:0.99832641 8:0.13480362 9:-0.97092136 10:0.13403193 11:-0.98459712 12:0.038237142 13:-0.96151822 14:-0.99949341 15:-0.20071385 16:-0.97709475 17:-1 18:-0.98677493 19:-0.86804536 20:-0.98235139 21:-0.7664974 
0 0 0.75194784503875323 0.44883059765246602 1:-0.23087147 2:-0.99818707 3:-0.98874013 4:-0.99973516 5:-0.94898118 6:-0.9991637 7:0.99832371 8:0.14580139 9:-0.99772326 10:0.13219139 11:-0.99913924 12:0.042715902 13:-0.99757224 14:-0.99999544 15:-0.2397176 16:-0.9987626 17:-0.98801802 18:-0.99892528 19:-0.94209327 20:-0.99985432 21:-0.76811366 
0 0 0 1 1:-0.19476884 2:-0.99672943 3:-0.99815431 4:-0.99953023 5:-0.90934496 6:-0.99813054 7:0.99838926 8:0.13899242 9:-0.9932781 10:0.13004117 11:-0.99795265 12:0.043382467 13:-0.99406384 14:-0.99997198 15:-0.20300046 16:-0.99688304 17:-0.99775576 18:-0.99484115 19:-0.89661315 20:-0.99866974 21:-0.76912719 
0 1 0 0 1:-0.18506916 2:-0.9930283 3:-0.99853399 4:-0.99806175 5:-0.92939036 6:-0.99346142 7:0.9984203 8:0.13903596 9:-0.99721552 10:0.13112925 11:-0.99843972 12:0.047870226 13:-0.98890875 14:-0.99996577 15:-0.19348334 16:-0.99432471 17:-0.99811031 18:-0.99736092 19:-0.91908651 20:-0.99696328 21:-0.76869117 
0.80539474597135685 0.47464240796214413 0.5121964896805602 0.66940565997260637 1:-0.20088595 2:-0.97846842 3:-0.99912506 4:-0.99665973 5:-0.86856384 6:-0.9771193 7:-1 8:0.13050819 9:-0.97268944 10:0.13274525 11:-0.986019 12:0.024691738 13:-0.96014321 14:-0.99948421 15:-0.20871285 16:-0.97449358 17:-0.99897498 18:-0.98665359 19:-0.8555074 20:-0.98062729 21:-0.78060747 
0 1 0 0 1:-0.1846086 2:-0.99875492 3:-0.99950469 4:-0.99974842 5:-0.91502878 6:-0.99826899 7:0.99830268 8:0.13946703 9:-0.99752851 10:0.13133348 11:-0.99872635 12:0.044505606 13:-0.99567683 14:-0.99998708 15:-0.19297152 16:-0.99765105 17:-0.99929459 18:-0.99866649 19:-0.90195783 20:-0.99930616 21:-0.76834522 
0 0 0 1 1:-0.19662161 2:-0.99565902 3:-0.99785363 4:-0.99902331 5:-0.90903083 6:-0.99794978 7:0.99839879 8:0.14055124 9:-0.99282245 10:0.12925775 11:-0.99681517 12:0.038803512 13:-0.99115484 14:-0.99995769 15:-0.20512383 16:-0.99507653 17:-0.99743938 18:-0.9951059 19:-0.89602834 20:-0.99846941 21:-0.76900878 
0 1 0 0 1:-0.18463038 2:-0.99877606 3:-0.9992526 4:-0.99982829 5:-0.91914702 6:-0.99955592 7:0.99830935 8:0.13986327 9:-0.99815804 10:0.131377 11:-0.99896773 12:0.042849695 13:-0.99631462 14:-0.99998992 15:-0.19307217 16:-0.99844536 17:-0.99909762 18:-0.99863746 19:-0.90584156 20:-0.99972218 21:-0.76812601 
0 0 1 0 1:-0.23097363 2:-0.99902355 3:-0.98867634 4:-0.99990443 5:-0.94957225 6:-0.99855661 7:0.99832479 8:0.14663687 9:-0.99747787 10:0.13238725 11:-0.99933738 12:0.044763592 13:-0.99815936 14:-0.99999648 15:-0.2395335 16:-0.99949929 17:-0.98794169 18:-0.99903319 19:-0.94222822 20:-0.9996267 21:-0.76865358 
0 0 0 1 1:-0.19464685 2:-0.99881567 3:-0.99810066 4:-0.99991122 5:-0.91063902 6:-0.99946322 7:0.99837291 8:0.14028563 9:-0.99617436 10:0.13112256 11:-0.99863962 12:0.043195277 13:-0.99695076 14:-0.99998782 15:-0.20300783 16:-0.99807108 17:-0.99771021 18:-0.99733414 19:-0.89762211 20:-0.99925784 21:-0.76908683 
0 0 0.98869350214251184 0 1:-0.23206109 2:-0.9992187 3:-0.9880216 4:-0.99992539 5:-0.95541328 6:-0.9989552 7:0.9983243 8:0.14639031 9:-0.9977073 10:0.13281327 11:-0.99919584 12:0.043843242 13:-0.99849488 14:-0.99999688 15:-0.24065778 16:-0.99926544 17:-0.98735693 18:-0.99880299 19:-0.94838049 20:-0.99932955 21:-0.76814943 
0 0.32127779614109919 0 0 1:-0.184761 2:-0.99907161 3:-0.99922609 4:-0.99990751 5:-0.91923836 6:-0.99925217 7:0.9983449 8:0.14047178 9:-0.9980107 10:0.13170636 11:-0.99905592 12:0.044314217 13:-0.99733723 14:-0.99999245 15:-0.19335201 16:-0.9985369 17:-0.99917764 18:-0.99850398 19:-0.90623571 20:-0.99969916 21:-0.76736207 
0 1 0 0 1:-0.18362255 2:-0.99773676 3:-0.99913206 4:-0.99939311 5:-0.92366652 6:-0.99175671 7:0.99839968 8:0.13843507 9:-0.99767688 10:0.13302754 11:-0.99870496 12:0.043579256 13:-0.99465265 14:-0.99998406 15:-0.19193438 16:-0.9975027 17:-0.99880586 18:-0.99847769 19:-0.9130542 20:-0.99578656 21:-0.76834471 
-0 0 0 1 1:-0.66851708 2:-0.54237369 3:0.25507756 4:-0.66169568 5:0.46442381 6:-0.29428862 7:0.99954349 8:0.083205602 9:-0.46726254 10:-0.019896903 11:-0.10197782 12:-0.069425887 13:-0.27318946 14:-0.51637443 15:-0.67014129 16:-0.015072758 17:0.24448466 18:-0.48138512 19:0.2881226 20:-0.34909174 21:-0.58196683 
-0 0 0 0.20619079730351267 1:-0.58995226 2:-0.42114893 3:-0.066989221 4:-0.93023203 5:0.6366766 6:-0.27859967 7:0.9997115 8:0.094104322 9:-0.82302515 10:-0.27830863 11:0.050049651 12:0.013172887 13:-0.81700138 14:-0.4642291 15:-0.61390493 16:-0.00070883022 17:-0.056448797 18:-0.9002495 19:0.43424626 20:-0.30538935 21:-0.69098796 
-0 0 0.48282039706342272 0 1:-0.56072791 2:-0.44411503 3:0.58578723 4:-0.72792432 5:0.20474082 6:-0.069595497 7:0.99939913 8:0.064290685 9:-0.56847648 10:-0.22750679 11:0.18663586 12:0.0483742 13:-0.21736462 14:-0.23274422 15:-0.533734 16:0.37679898 17:0.53339796 18:-0.70996459 19:-0.032660646 20:-0.020415306 21:-0.25992197 
-0 0 0 1 1:-0.62589231 2:-0.47539885 3:-0.083494992 4:-0.76690645 5:0.58257818 6:-0.18938353 7:0.99967963 8:0.19222328 9:-0.61613689 10:0.037969121 11:-0.094219381 12:0.025551421 13:-0.76394348 14:-0.59500543 15:-0.63227408 16:-0.074387339 17:-0.083358261 18:-0.66630587 19:0.47796659 20:-0.33376169 21:-0.58496185 
-0 0 0 1 1:-0.68560043 2:-0.43386621 3:0.087076106 4:-0.75021142 5:0.47819018 6:-0.12408964 7:0.99956461 8:-0.0026517536 9:-0.64712592 10:0.25277711 11:-0.040402803 12:-0.00056877708 13:-0.56718319 14:-0.53341832 15:-0.64226943 16:-0.062947495 17:0.10314938 18:-0.75758729 19:0.29639802 20:-0.21537302 21:-0.82068437 
-0.16737757598602288 0.13967079385880923 0 1 1:-0.26048345 2:-0.096091386 3:-0.21114518 4:-0.10239112 5:0.76425071 6:-0.44118171 7:0.99982666 8:0.60812505 9:0.05578625 10:-0.26158226 11:-0.098373771 12:0.27153343 13:-0.28996769 14:-0.34658355 15:-0.17249464 16:-0.25542466 17:-0.22700518 18:-0.22328076 19:0.67838104 20:-0.59698665 21:-1 
-0 0 0 1 1:-0.56687651 2:-0.37946484 3:0.1380274 4:-0.7758148 5:0.6339383 6:-0.25208498 7:0.99970272 8:0.26575807 9:-0.81525938 10:0.0038769188 11:-0.17556376 12:0.11192279 13:-0.81899292 14:-0.67705373 15:-0.55667684 16:-0.032038283 17:0.14360968 18:-0.77197207 19:0.54036945 20:-0.43707939 21:-0.67635566 
-0 0 0 0.18771711164680449 1:-0.62583599 2:-0.4358697 3:-0.036483851 4:-0.85082187 5:0.58694139 6:-0.20099606 7:0.99967052 8:0.032861614 9:-0.73962907 10:-0.048960472 11:-0.055712201 12:0.057532111 13:-0.30322109 14:-0.51554656 15:-0.63310656 16:-0.0018852245 17:-0.027692115 18:-0.69807995 19:0.41914058 20:-0.20400455 21:-0.57261101 
-0 0 0 1 1:-0.6161814 2:-0.37804939 3:-0.20924478 4:-0.67484762 5:0.5253893 6:-0.10503271 7:0.99961833 8:0.31719498 9:-0.4963454 10:-0.22686733 11:-0.14223039 12:-0.11706813 13:-0.85873772 14:-0.59952126 15:-0.64717957 16:-0.1233773 17:-0.19650669 18:-0.6271466 19:0.315317 20:-0.19111619 21:-0.70816674 
-0.70846921056456602 0 1 1 1:-0.98112042 2:-0.89558788 3:0.031708313 4:-0.57007492 5:-0.21755989 6:-0.47382358 7:0.9989383 8:-0.083192553 9:-0.46668997 10:0.21510595 11:-0.46117565 12:0.10962371 13:-0.5707947 14:-0.79349971 15:-0.93743818 16:-0.35477391 17:0.063389563 18:-0.53618698 19:-0.22045245 20:-0.54171847 21:-0.69674061 
-0 0.07441244927082985 0 0 1:-0.0079604137 2:0.90012786 3:-0.051594251 4:-0.73865833 5:0.49747284 6:0.24385741 7:0.9996667 8:-0.02526344 9:-0.79553066 10:-0.86434431 11:0.32430286 12:-0.14045728 13:-0.70150845 14:-0.033418954 15:-0.048204373 16:0.85036473 17:-0.03351153 18:-0.72608685 19:0.21316054 20:0.29010854 21:-0.26611642 
-0 0 0 1 1:-0.64067234 2:-0.42612964 3:-0.16467288 4:-0.70991151 5:0.51600785 6:-0.077698553 7:0.9996195 8:0.27289035 9:-0.72191965 10:0.13109912 11:-0.089013026 12:0.0949797 13:-0.83743211 14:-0.60537185 15:-0.64834712 16:-0.10663509 17:-0.15454402 18:-0.73519102 19:0.33775983 20:-0.15352086 21:-0.6850733 
-0.16212224637558689 0 0 0 1:-0.79936413 2:-0.37306727 3:0.12360943 4:-0.84677316 5:0.20481865 6:0.072374424 7:-0.99904902 8:0.17511422 9:-0.72884519 10:0.70664029 11:0.093016011 12:0.062885266 13:-0.72619851 14:-0.39004354 15:-0.84212713 16:0.27963155 17:0.016469535 18:-0.75830967 19:0.03096744 20:-0.22309147 21:-0.17434388 
-0.16247786265060196 0 0 0 1:-0.54980035 2:-0.5768141 3:-0.54540346 4:-0.51427181 5:0.30409036 6:-0.03617893 7:0.99947085 8:0.17139249 9:0.23668908 10:0.12586628 11:0.13778893 12:-0.25051058 13:-0.48402157 14:-0.13291803 15:-0.62083412 16:0.021435517 17:-0.54641451 18:-0.12042887 19:0.059056014 20:-0.29603331 21:-0.23271041 
-1 1 1 1 1:-0.9902855 2:-0.87942695 3:-0.026736635 4:-0.89616169 5:-0.20288783 6:-0.65043551 7:0.9989516 8:0.34291561 9:-0.77115346 10:-0.10842346 11:-0.70663408 12:-0.02307957 13:-0.8082475 14:-0.93519967 15:-1 16:-0.8633538 17:-0.014805444 18:-0.89063717 19:-0.19579972 20:-0.80811431 21:-0.72295142 
-0 0 0 0.17454699995469541 1:-0.83171285 2:-0.69092524 3:-0.16998221 4:0.41523464 5:-0.045401603 6:-0.19078856 7:0.9991765 8:0.20795959 9:-0.14614298 10:-0.18320333 11:-0.031653293 12:0.73788124 13:-0.081713155 14:-0.30227913 15:-0.81924616 16:-0.09870681 17:-0.17209491 18:0.25636264 19:-0.19786101 20:-0.36064425 21:-0.36226573 
-0 0 1 0 1:-0.69455519 2:-0.5439133 3:0.48981616 4:-0.75885785 5:0.14746857 6:-0.13312235 7:0.99931388 8:0.31216145 9:-0.6611548 10:-0.1567813 11:-0.048749709 12:-0.083561132 13:-0.24614684 14:-0.48168701 15:-0.60596223 16:-0.014389012 17:0.47788324 18:-0.69519099 19:0.044012191 20:-0.28314472 21:-0.74280387 
-0.094604302040776009 0 0 0 1:-0.049575583 2:0.78912984 3:-0.19487746 4:-0.90625567 5:0.59133388 6:-0.28187875 7:0.99966871 8:0.15540363 9:-0.85795513 10:0.30721148 11:0.50461685 12:0.082380376 13:-0.54923922 14:0.062041675 15:-0.11578451 16:1 17:-0.15653466 18:-0.87086544 19:0.29130825 20:-0.22727402 21:-0.27584373 
-1 0.12838833352609294 0.70048487067840037 1 1:-0.98429761 2:-0.8085623 3:-0.042616395 4:-0.68062246 5:-0.63257819 6:0.27071783 7:0.99857392 8:0.13890098 9:-0.87202216 10:0.10699052 11:-0.28820577 12:-0.0017543123 13:-0.63959144 14:-0.74968261 15:-0.94187593 16:-0.50527264 17:-0.023096691 18:-0.69538183 19:-0.74573952 20:0.11541481 21:-0.57552367 
-0 0 0 1 1:-0.54884517 2:-0.35700887 3:-0.099029336 4:-0.78923684 5:0.66588247 6:-0.27702517 7:0.99975483 8:0.14573282 9:-0.84882687 10:0.069299255 11:0.069924246 12:0.07482558 13:-0.69561815 14:-0.46339341 15:-0.54721265 16:0.012398549 17:-0.1155844 18:-0.82914297 19:0.48863854 20:-0.33819557 21:-0.74470739 
-0 0 0 1 1:-0.49951065 2:-0.5048149 3:-0.080374963 4:-0.70053485 5:0.75263319 6:-0.49337679 7:0.99981252 8:0.1535313 9:-0.72960231 10:0.18799758 11:0.029223097 12:0.13279687 13:-0.74590355 14:-0.49755201 15:-0.48596596 16:0.034409714 17:-0.054825018 18:-0.74122121 19:0.57679869 20:-0.45315812 21:-0.76163371 
-0 0.13964988592617336 0 0.091175243934291217 1:-0.66670535 2:-0.82285934 3:-0.024604546 4:1 5:0.13200308 6:0.095164856 7:0.99933474 8:0.37609945 9:0.9566682 10:0.06054436 11:-0.16401614 12:0.22957888 13:-0.068198194 14:0.032816681 15:-0.62515189 16:-0.29868173 17:-0.046833537 18:1 19:-0.099595783 20:-0.16429857 21:-0.18318745 
-0.26033675433821224 0.77644165139298238 0.036427596400839632 0 1:0.13806202 2:0.70920466 3:-0.10524443 4:-0.81644132 5:0.57064598 6:0.14586459 7:0.99964673 8:0.034760073 9:-0.86990953 10:0.99999999 11:0.26505449 12:0.25382239 13:-0.6281129 14:-0.13704604 15:0.083055126 16:0.90404684 17:-0.094262297 18:-0.84813404 19:0.3347327 20:0.1093664 21:-0.11962596 
-1 1 1 1 1:-1 2:-0.97724088 3:-0.052530053 4:-0.8070604 5:-0.24198551 6:-0.90313084 7:0.99888824 8:-0.10327877 9:-0.61900952 10:0.11590276 11:-0.87189977 12:0.011915352 13:-0.74229777 14:-0.95543726 15:-0.97452691 16:-0.86744933 17:-0.054832404 18:-0.80377521 19:-0.19524999 20:-0.91179402 21:-0.84553884 
-0 0 0 1 1:-0.55921125 2:-0.42655406 3:-0.078643498 4:0.55740439 5:0.46495506 6:-0.18797586 7:0.99956835 8:-0.22227206 9:-0.09424974 10:0.12880578 11:-0.073721016 12:-0.41805039 13:-0.15817129 14:-0.3638792 15:-0.54513699 16:0.0018808963 17:-0.11058934 18:0.32022789 19:0.28383749 20:-0.32341036 21:-0.52510097 
-0 -0.25856311397488779 0 0 1:0.99536568 2:-0.99898743 3:0.11003444 4:-0.98802588 5:-0.74834342 6:-0.9954868 7:0.99859769 8:0.14169641 9:-0.97074144 10:0.13194615 11:-0.98901018 12:0.044544004 13:-0.98614967 14:-0.99974657 15:0.9935231 16:-0.98119232 17:0.11707154 18:-0.97009993 19:-0.73942606 20:-0.9807583 21:-0.66510584 
-0 -1 0 0 1:1 2:-0.99840074 3:0.046840589 4:-0.96075607 5:-0.79584879 6:-0.9788437 7:0.99851379 8:0.13348427 9:-0.91963945 10:0.12775452 11:-0.96281675 12:0.06608045 13:-0.90501155 14:-0.99700321 15:0.99936299 16:-0.94868483 17:0.05055075 18:-0.9371507 19:-0.78661132 20:-0.94306252 21:-0.65682877 
-0 -0 0 0.73954226530112566 1:0.99668766 2:-0.99951504 3:0.097971796 4:-0.99295461 5:-0.7450656 6:-0.9914244 7:0.99862039 8:0.14216232 9:-0.98766424 10:0.13455756 11:-0.99387918 12:0.043440063 13:-0.99077888 14:-0.99992605 15:0.99490391 16:-0.98970674 17:0.10455157 18:-0.98902033 19:-0.73607358 20:-0.98879832 21:-0.66563452 
-0 -1 0 0 1:0.99340049 2:-0.98838303 3:0.098320596 4:-0.90105325 5:-0.86490735 6:-0.92078144 7:0.99847098 8:0.16376817 9:-0.90546667 10:0.16973784 11:-0.93383092 12:0.10824619 13:-0.90522792 14:-0.99474109 15:0.99434422 16:-0.91914393 17:0.10417609 18:-0.89906528 19:-0.85745026 20:-0.91308814 21:-0.64443873 
-0 -0 1 0 1:0.9934707 2:-0.99971278 3:0.12449331 4:-0.99665909 5:-0.76817421 6:-0.99764636 7:0.99855854 8:0.14670817 9:-0.99125897 10:0.13126317 11:-0.9951185 12:0.046391905 13:-0.99252547 14:-0.99995396 15:0.99189436 16:-0.9912046 17:0.13205856 18:-0.98983294 19:-0.76006359 20:-0.99391428 21:-0.66397342 
-0.79592020410324327 -0 0 0 1:0.99703643 2:-0.99969038 3:0.033400582 4:-0.99197397 5:-0.89609163 6:-0.99684333 7:0.99837354 8:0.14619001 9:-0.98341418 10:0.13099533 11:-0.99151212 12:0.038510728 13:-0.99015801 14:-0.99988302 15:0.99662102 16:-0.98826642 17:0.036282666 18:-0.98623458 19:-0.89255805 20:-0.9901798 21:-0.65915691 
-0 -0 0 1 1:0.99575344 2:-0.99986981 3:0.10677211 4:-0.99785262 5:-0.74333107 6:-0.99867526 7:0.99863982 8:0.14361664 9:-0.98862891 10:0.1322776 11:-0.99468758 12:0.046315109 13:-0.99466839 14:-0.99994675 15:0.99427058 16:-0.9908559 17:0.11423515 18:-0.99068428 19:-0.73467476 20:-0.98994005 21:-0.66353049 
-1 -0 0 0 1:0.99537627 2:-0.99928676 3:0.033084044 4:-0.99534363 5:-0.92489035 6:-0.98996654 7:0.99838626 8:0.13941043 9:-0.97522931 10:0.13118952 11:-0.98789281 12:0.043891239 13:-0.98727262 14:-0.9997751 15:0.99524758 16:-0.9847911 17:0.036404542 18:-0.98223597 19:-0.92243256 20:-0.9825357 21:-0.65718672 
-1 -0 0 0 1:0.99720277 2:-0.99907619 3:0.027088452 4:-0.99200197 5:-0.89698097 6:-0.98695958 7:0.99837257 8:0.13867456 9:-0.97874311 10:0.13027218 11:-0.98755167 12:0.037987556 13:-0.98783137 14:-0.99979561 15:0.9966873 16:-0.98243479 17:0.030442477 18:-0.98113642 19:-0.89447742 20:-0.98557917 21:-0.65908854 
-0 -0 1 0 1:0.98250641 2:-0.99965008 3:0.13830191 4:-0.99757123 5:-0.97130403 6:-0.99727511 7:0.99841344 8:0.14265871 9:-0.99060873 10:0.13378753 11:-0.9946213 12:0.046737487 13:-0.99472176 14:-0.9999529 15:0.98193047 16:-0.99052273 17:0.14531471 18:-0.98919546 19:-0.96954284 20:-0.99418323 21:-0.65878096 
-1 -0 0 0 1:0.99519763 2:-0.99912281 3:0.035472882 4:-0.98590451 5:-0.92616736 6:-0.99194441 7:0.99833958 8:0.13907515 9:-0.97595862 10:0.13776824 11:-0.98905729 12:0.051018857 13:-0.98541328 14:-0.9997796 15:0.99443873 16:-0.98539993 17:0.038549063 18:-0.98059499 19:-0.92326585 20:-0.98258429 21:-0.66077163 
-0 -0 1 0 1:0.99337315 2:-0.99982838 3:0.12508902 4:-0.99793714 5:-0.77008444 6:-0.99533134 7:0.99857974 8:0.14491421 9:-0.98802443 10:0.13098529 11:-0.99440854 12:0.047923023 13:-0.99047047 14:-0.99993065 15:0.99181581 16:-0.9892458 17:0.13256453 18:-0.98642471 19:-0.76225715 20:-0.99130973 21:-0.66384126 
-0 -0 0 1 1:0.99627359 2:-0.99982837 3:0.10192538 4:-0.99731185 5:-0.74593789 6:-0.99117364 7:0.99864455 8:0.13969781 9:-0.98406377 10:0.13616457 11:-0.98914767 12:0.046319909 13:-0.99210324 14:-0.9998649 15:0.99397969 16:-0.98365145 17:0.10883938 18:-0.98698286 19:-0.73571584 20:-0.98842831 21:-0.66804461 
-0 -0 1 0 1:0.98499334 2:-0.99762254 3:0.14103286 4:-0.98437073 5:-0.93094939 6:-0.9675388 7:0.9984764 8:0.1462771 9:-0.9727223 10:0.13790216 11:-0.97577052 12:0.040805005 13:-0.9736466 14:-0.99945647 15:0.98434719 16:-0.96720207 17:0.14898821 18:-0.97470047 19:-0.92811141 20:-0.96207032 21:-0.65727765 
-0 -0 1 0 1:0.9852514 2:-0.9976805 3:0.14406543 4:-0.98749924 5:-0.91983101 6:-0.96658728 7:0.99843506 8:0.14553687 9:-0.95769908 10:0.1336603 11:-0.96300829 12:0.045235167 13:-0.95937309 14:-0.9987853 15:0.98375804 16:-0.94845212 17:0.15245737 18:-0.9592071 19:-0.91825964 20:-0.95597778 21:-0.65946673 
-0 -0 0 1 1:0.99565928 2:-0.9999067 3:0.1076059 4:-0.99833378 5:-0.74382026 6:-0.99837771 7:0.99862383 8:0.14321605 9:-0.99016843 10:0.13192607 11:-0.99513163 12:0.046223914 13:-0.99480058 14:-0.99995533 15:0.99391096 16:-0.99173336 17:0.11512768 18:-0.99097968 19:-0.73488469 20:-0.99143043 21:-0.66493411 
-0 -1 0 0 1:0.99688053 2:-0.99837793 3:0.095193884 4:-0.97914292 5:-0.75807641 6:-0.97635645 7:0.99853102 8:0.12029086 9:-0.94046855 10:0.13097525 11:-0.96126931 12:0.049482939 13:-0.96389872 14:-0.99842936 15:0.99633627 16:-0.94098855 17:0.10519296 18:-0.95327378 19:-0.76318899 20:-0.95601954 21:-0.65330489 
-0 -0 0.53633923397315342 0 1:0.99062436 2:-0.99989202 3:0.13318077 4:-0.99896865 5:-0.84236015 6:-0.99736745 7:0.99850626 8:0.14670382 9:-0.9910689 10:0.13106564 11:-0.99497034 12:0.046569496 13:-0.99395809 14:-0.99995588 15:0.98973539 16:-0.99164398 17:0.14137898 18:-0.99262725 19:-0.83625149 20:-0.99398093 21:-0.65991404 
-1 -0 0 0 1:0.99820999 2:-0.99701283 3:0.023044695 4:-0.98721701 5:-0.87775673 6:-0.95059642 7:0.99843041 8:0.14096925 9:-0.97137281 10:0.13269944 11:-0.96181989 12:0.044116827 13:-0.97157363 14:-0.99901459 15:0.99728012 16:-0.97141744 17:0.026357792 18:-0.97652189 19:-0.87319939 20:-0.96319486 21:-0.66123743 
-0 -1 -0 1 1:-0.21211646 2:-0.83964521 3:0.98922697 4:-0.95967702 5:-0.69030268 6:-0.95651096 7:0.99886932 8:0.10850387 9:-0.81454398 10:0.1855134 11:-0.88023239 12:0.15990102 13:-0.69979443 14:-0.97468259 15:-0.23845141 16:-0.79191634 17:0.98394933 18:-0.78316153 19:-0.69363962 20:-0.88485549 21:-0.76820698 
-0 -1 -0 1 1:-0.28411187 2:-0.94242977 3:0.97349629 4:-0.9809199 5:-0.65115823 6:-0.98782977 7:0.99892307 8:0.15126708 9:-0.97333011 10:0.13228095 11:-0.98252477 12:0.082413974 13:-0.9084845 14:-0.99846918 15:-0.29011148 16:-0.92879733 17:0.97094431 18:-0.97678253 19:-0.64460354 20:-0.97198723 21:-0.80785722 
-1 -1 -0 1 1:-0.30471478 2:-0.90876472 3:0.96686893 4:-0.96371497 5:-0.63327473 6:-0.9573705 7:0.99892001 8:0.11009753 9:-0.84721965 10:0.20480095 11:-0.88537168 12:0.14255955 13:-0.77332271 14:-0.98187847 15:-0.33044295 16:-0.83631042 17:0.95741241 18:-0.85942719 19:-0.62939638 20:-0.93351158 21:-0.79510368 
-0 -0.2197328641426626 -0 1 1:-0.23061996 2:-0.97616742 3:0.98661009 4:-0.99359011 5:-0.66525573 6:-0.98581629 7:0.99885948 8:0.16267525 9:-0.97268445 10:0.13022865 11:-0.97893161 12:0.061338304 13:-0.94022528 14:-0.99909269 15:-0.23631899 16:-0.95165812 17:0.9847643 18:-0.98183337 19:-0.65623545 20:-0.97441965 21:-0.80576102 
-0 -1 -0 0 1:-0.21463968 2:-0.9584082 3:0.99015392 4:-0.98872115 5:-0.69257468 6:-0.94019727 7:0.99887734 8:0.1679831 9:-0.96265577 10:0.12689744 11:-0.97716517 12:0.055386623 13:-0.9124703 14:-0.99839799 15:-0.21923505 16:-0.93580201 17:0.98864462 18:-0.97903521 19:-0.68628132 20:-0.95106003 21:-0.80459259 
-0 -0 -0.53633923397315342 0 1:-0.16304161 2:-0.99518706 3:0.99912167 4:-0.9992643 5:-0.75829226 6:-0.99825633 7:0.99887847 8:0.1469433 9:-0.99799906 10:0.13335564 11:-0.99917063 12:0.042307324 13:-0.99345138 14:-0.99998775 15:-0.17047974 16:-0.99234296 17:0.99921581 18:-0.99930069 19:-0.74823674 20:-0.99693814 21:-0.79634901 
-0 -0 -1 0 1:-0.15791525 2:-0.99701077 3:0.99979431 4:-0.99962484 5:-0.76155168 6:-0.99947049 7:0.99879849 8:0.14728729 9:-0.99862249 10:0.13296058 11:-0.99939858 12:0.046041524 13:-0.99245164 14:-0.99998628 15:-0.1664392 16:-0.992451 17:0.99968484 18:-0.9989711 19:-0.75177773 20:-0.99771933 21:-0.79667483 
-0 -0 -1 0 1:-0.15708797 2:-0.99918706 3:0.99990485 4:-0.99999226 5:-0.76151205 6:-0.99875659 7:0.99880157 8:0.14609857 9:-0.99912742 10:0.13312798 11:-0.99952366 12:0.044457609 13:-0.996145 14:-0.99999549 15:-0.1650498 16:-0.99459247 17:0.99983257 18:-0.99898745 19:-0.75141785 20:-0.99805342 21:-0.7969122 
-0 -0 -1 0 1:-0.16255241 2:-0.99528513 3:0.99914631 4:-0.99926369 5:-0.76384648 6:-0.99587226 7:0.99890827 8:0.14562831 9:-0.99506508 10:0.13334225 11:-0.9974015 12:0.046545497 13:-0.98422986 14:-0.99994429 15:-0.16999738 16:-0.98432255 17:0.99910008 18:-0.9984704 19:-0.75399914 20:-0.99464499 21:-0.79695291 
-1 -0 -0 1 1:-0.25565721 2:-0.99821902 3:0.98203927 4:-0.99959329 5:-0.72858744 6:-0.99902719 7:0.99881357 8:0.1450579 9:-0.99877095 10:0.13327194 11:-0.99889542 12:0.045110374 13:-0.99354342 14:-0.99998818 15:-0.26197619 16:-0.99293499 17:0.98035463 18:-0.99806545 19:-0.72083215 20:-0.99625588 21:-0.80538964 
-0 -0 -1 0 1:-0.15643359 2:-0.99774518 3:1 4:-0.99972994 5:-0.76029743 6:-0.99759647 7:0.99880197 8:0.1458678 9:-0.99868246 10:0.13355652 11:-0.99958293 12:0.042681704 13:-0.99403182 14:-0.99999075 15:-0.16429619 16:-0.99293928 17:1 18:-0.99939662 19:-0.7499569 20:-0.99753666 21:-0.79660501 
-0 -0 -0 1 1:-0.25137837 2:-0.99850758 3:0.98300304 4:-0.99969308 5:-0.72334114 6:-0.99710944 7:0.99884387 8:0.14405207 9:-0.99885089 10:0.13251196 11:-0.99867061 12:0.045686343 13:-0.9951863 14:-0.99999094 15:-0.25778223 16:-0.99407103 17:0.98126684 18:-0.99870191 19:-0.71569312 20:-0.99576662 21:-0.80564436 
-0 -1 -0 1 1:-0.25908904 2:-0.93558221 3:0.97983124 4:-0.97966312 5:-0.6556288 6:-0.99333141 7:0.99887111 8:0.14807105 9:-0.98274998 10:0.13093172 11:-0.98892407 12:0.096573215 13:-0.93945937 14:-0.99916319 15:-0.2633619 16:-0.94196225 17:0.97807836 18:-0.98086677 19:-0.64706059 20:-0.98226438 21:-0.80745683 
-0.25283783686182515 -0 -0 0.62551898096732572 1:-0.25390143 2:-0.99364251 3:0.9824386 4:-0.99826754 5:-0.72713898 6:-0.99755616 7:0.99886556 8:0.14613776 9:-0.99768154 10:0.13315476 11:-0.99783487 12:0.041347376 13:-0.98711595 14:-0.99996274 15:-0.26042478 16:-0.98883303 17:0.98070794 18:-0.99744691 19:-0.71936477 20:-0.99584935 21:-0.8053724 
-0 -0 -0 1 1:-0.25059957 2:-0.99774241 3:0.98317291 4:-0.99947706 5:-0.7219179 6:-0.99933157 7:0.99879193 8:0.14488809 9:-0.99931984 10:0.13303089 11:-0.99833121 12:0.046809483 13:-0.99561205 14:-0.99999102 15:-0.25692306 16:-0.99344911 17:0.98152413 18:-0.99884614 19:-0.71437998 20:-0.99702028 21:-0.80531565 
-0 -0 -1 0 1:-0.16011211 2:-0.99453274 3:0.99949585 4:-0.99916962 5:-0.76184585 6:-0.99782685 7:0.99886113 8:0.1452582 9:-0.99683129 10:0.13338242 11:-0.99808461 12:0.046468701 13:-0.98395364 14:-0.99994843 15:-0.16834041 16:-0.98524065 17:0.9994177 18:-0.99858039 19:-0.75216546 20:-0.99607812 21:-0.79659465 
-1 -0 -0 1 1:-0.25517086 2:-0.99572168 3:0.98214718 4:-0.99887627 5:-0.727413 6:-0.99812664 7:0.9988232 8:0.14427849 9:-0.99893796 10:0.13279653 11:-0.99863 12:0.048239806 13:-0.99109995 14:-0.99997965 15:-0.26132813 16:-0.99112892 17:0.98050358 18:-0.99811997 19:-0.71977392 20:-0.99699756 21:-0.80537708 
-0 -0 -0 -0.62551898096732572 1:-0.95634662 2:-0.9462294 3:0.27888043 4:-0.63326888 5:-0.25015594 6:-0.97628103 7:0.99895653 8:-0.048628415 9:-0.75396295 10:0.13917773 11:-0.97190534 12:-0.27095268 13:-0.57802667 14:-0.95663504 15:-0.94173984 16:-0.95870881 17:0.27741943 18:-0.7082158 19:-0.24577059 20:-0.97658614 21:-0.84793925 
-0 -0 -0 -1 1:-0.96169175 2:-0.99584953 3:0.28430592 4:-0.98468312 5:-0.25944168 6:-0.98184698 7:0.99889757 8:0.16346337 9:-0.97453575 10:0.12074725 11:-0.98201672 12:0.03697481 13:-0.96759707 14:-0.9995057 15:-0.9526304 16:-0.98137187 17:0.28309958 18:-0.98493855 19:-0.25105957 20:-0.98326337 21:-0.82427794 
-0 -1 -0 -0 1:-0.77428714 2:-0.87094638 3:-0.47898956 4:-0.83777714 5:0.10043152 6:-0.68942909 7:0.99928973 8:0.33138987 9:-0.82589143 10:-0.03215375 11:-0.88467219 12:0.053769109 13:-0.85385851 14:-0.97916403 15:-0.77589471 16:-0.87882047 17:-0.47769119 18:-0.86622964 19:0.12141443 20:-0.81401501 21:-0.7607679 
-0 -0.69931577304235149 -0 -1 1:-0.77967531 2:-0.84482514 3:0.49078826 4:-0.84529179 5:0.056255127 6:-0.83599554 7:0.99920864 8:0.23161194 9:-0.91102578 10:0.0072583486 11:-0.90340677 12:0.11051647 13:-0.83668597 14:-0.98755774 15:-0.77021438 16:-0.81279383 17:0.48929232 18:-0.86620388 19:0.066204384 20:-0.90483591 21:-0.82539531 
-1 -0 -1 -0 1:-0.81940498 2:-0.9602808 3:-0.56213402 4:-0.9390621 5:-0.21706687 6:-0.97420334 7:0.99910672 8:0.14934685 9:-0.92579073 10:0.12134988 11:-0.94798175 12:0.0083203462 13:-0.91489125 14:-0.99670595 15:-0.81656893 16:-0.94937332 17:-0.5590682 18:-0.93994822 19:-0.2027561 20:-0.97137655 21:-0.78928871 
-0 -0.8797487560466235 -0 -0 1:-0.94489962 2:-0.8998343 3:-0.16306511 4:-0.62721506 5:-0.064141254 6:-0.81342323 7:0.99908506 8:0.25670556 9:-0.88125957 10:0.20198532 11:-0.90460974 12:0.18913625 13:-0.80919718 14:-0.98541608 15:-0.94459228 16:-0.87021687 17:-0.15154884 18:-0.70030982 19:-0.070900011 20:-0.86320769 21:-0.78938997 
-1 -0 -0 -0 1:-0.73247161 2:-0.94074921 3:-0.61896009 4:-0.9289283 5:-0.063702398 6:-0.96634429 7:0.99917673 8:0.16939823 9:-0.92994076 10:0.15500016 11:-0.95003763 12:0.083460318 13:-0.92058096 14:-0.99690208 15:-0.73288231 16:-0.93264326 17:-0.61481221 18:-0.91933853 19:-0.049951865 20:-0.9652776 21:-0.78434334 
-0 -0 -0.0059852427365609286 -0 1:-0.94260208 2:-0.89124661 3:-0.069407604 4:0.22870517 5:-0.24427962 6:-0.95300656 7:0.99898262 8:-0.22419229 9:-0.76169563 10:0.12022832 11:-0.94361165 12:-0.54498439 13:-0.61005223 14:-0.93294798 15:-0.92664918 16:-0.90890221 17:-0.098066913 18:-0.062936949 19:-0.23946408 20:-0.96075666 21:-0.79953969 
-0 -1 -0 -0 1:-0.67382031 2:-0.75876061 3:-0.33290733 4:-0.46035745 5:0.42506726 6:-0.43876599 7:0.99955454 8:0.40449795 9:-0.81488737 10:-0.095343011 11:-0.88011813 12:0.27848826 13:-0.86754141 14:-0.96811254 15:-0.67160816 16:-0.76835304 17:-0.32038172 18:-0.59622899 19:0.44621182 20:-0.66618494 21:-0.7912927 
-0 -0 -0 -1 1:-0.83577968 2:-0.95063027 3:0.44760632 4:-0.94211226 5:-0.022882848 6:-0.94506215 7:0.99913211 8:0.19276756 9:-0.90106498 10:0.063601045 11:-0.89511854 12:0.099246672 13:-0.81257834 14:-0.98756139 15:-0.83007873 16:-0.8547583 17:0.43763284 18:-0.93895953 19:-0.0095700919 20:-0.96038905 21:-0.8238335 
-0 -0 -0 -1 1:-0.8458469 2:-0.9407219 3:0.42818813 4:-0.86933853 5:-0.023078791 6:-0.94494567 7:0.99911723 8:0.14980405 9:-0.8978588 10:0.11144999 11:-0.9104667 12:0.15776033 13:-0.81073337 14:-0.98886162 15:-0.83225242 16:-0.90340787 17:0.42556498 18:-0.89919804 19:-0.010857529 20:-0.96040916 21:-0.84667462 
-0 -1 -0 -0 1:-0.29046217 2:-0.58743132 3:0.090435478 4:-0.027454549 5:0.85067093 6:-0.5624764 7:0.99988668 8:-0.3128625 9:-0.63729425 10:-0.065847548 11:-0.68562921 12:-0.10735345 13:-0.78473524 14:-0.90220428 15:-0.27256251 16:-0.58178458 17:0.066496933 18:-0.25429747 19:0.84887948 20:-0.71893953 21:-0.82289461 
-0 -0.028026283357875034 -0 -0 1:-0.82479987 2:-0.89514697 3:-0.4916872 4:-0.93672078 5:-0.063272638 6:-0.80898399 7:0.99917282 8:0.16126447 9:-0.96781215 10:0.02541095 11:-0.93002481 12:0.0010439361 13:-0.91063835 14:-0.99456326 15:-0.81926181 16:-0.89301961 17:-0.4907696 18:-0.9413161 19:-0.046257179 20:-0.87979596 21:-0.79087859 
-0 -1 -0 -1 1:-0.85144475 2:-0.64123059 3:0.39686218 4:-0.5116823 5:-0.072216114 6:-0.60013721 7:0.99913999 8:0.0071453393 9:-0.76116219 10:0.35326591 11:-0.81404233 12:-0.15947866 13:-0.66939632 14:-0.94904866 15:-0.85182549 16:-0.6463137 17:0.37234804 18:-0.59325038 19:-0.08144074 20:-0.7641564 21:-0.81976957 
-1 -0 -0.35126641015995758 -0 1:-0.80843359 2:-0.93716968 3:-0.56906617 4:-0.94444448 5:-0.19348361 6:-0.89976756 7:0.99910565 8:0.10752416 9:-0.92105159 10:0.049050844 11:-0.9148218 12:0.020334102 13:-0.92613876 14:-0.99362411 15:-0.80735743 16:-0.92393806 17:-0.56510905 18:-0.93651465 19:-0.17825627 20:-0.93054131 21:-0.78300662 
-0 -1 -0 -0 1:-0.4363546 2:-0.62314616 3:0.38767108 4:-0.40381675 5:0.65175579 6:-0.53041161 7:0.99973886 8:-0.063123753 9:-0.45799451 10:-0.023713563 11:-0.67675611 12:-0.058813654 13:-0.73098732 14:-0.88865083 15:-0.42869384 16:-0.5657178 17:0.39965376 18:-0.47054107 19:0.61479758 20:-0.68224134 21:-0.82754304 
-0 -0.251436138788805 -0 -0 1:-0.20611805 2:-0.77241825 3:0.030206958 4:-0.6480281 5:0.96740701 6:-0.95845416 7:0.99997934 8:0.25671862 9:-0.72576156 10:0.1721852 11:-0.81013044 12:-1 13:0.19414658 14:-0.70946941 15:-0.21300931 16:-0.71123226 17:0.0327495 18:-0.6344936 19:0.96321705 20:-0.92734493 21:-0.80822376 
-1 -0 -0 -0 1:-0.8352649 2:-0.99434309 3:-0.50199736 4:-0.99081636 5:-0.11584943 6:-0.99659236 7:0.9991349 8:0.14930331 9:-0.9938259 10:0.13626501 11:-0.99562479 12:0.052583573 13:-0.99252962 14:-0.99995672 15:-0.83344054 16:-0.99376959 17:-0.49851349 18:-0.99217046 19:-0.1040563 20:-0.99560829 21:-0.79079567 
-0 -1 -0 -0 1:-0.55458453 2:-0.5686771 3:-0.3464604 4:-0.57116941 5:0.57524891 6:-0.47329985 7:0.99968759 8:-0.13025342 9:-0.8016351 10:0.35377815 11:-0.85033356 12:0.021015666 13:-0.55002797 14:-0.94335992 15:-0.57486481 16:-0.61917496 17:-0.36604697 18:-0.69003724 19:0.54151015 20:-0.67573521 21:-0.79218429 
-0 -0 -0 -1 1:-0.95500042 2:-0.99581265 3:0.3033711 4:-0.98359363 5:-0.2565495 6:-0.99359846 7:0.99886504 8:0.14686492 9:-0.99106098 10:0.13448055 11:-0.99613911 12:0.05935601 13:-0.98526771 14:-0.99991628 15:-0.9449433 16:-0.99338457 17:0.3034196 18:-0.98769993 19:-0.24696163 20:-0.99381662 21:-0.82695384 
-1 -0.51777422795022543 -0 -0 1:-0.76182192 2:-0.87327871 3:-0.59953641 4:-0.88552991 5:-0.11344236 6:-0.84412672 7:0.99914523 8:0.094287199 9:-0.92549471 10:0.028266753 11:-0.92584987 12:-0.010936222 13:-0.94458236 14:-0.99400444 15:-0.75716485 16:-0.89026782 17:-0.60003323 18:-0.9061742 19:-0.096438782 20:-0.90374126 21:-0.78439547 
-0 -0 -0.17898456109121677 -1 1:-0.95862144 2:-0.99238653 3:0.29875752 4:-0.97871306 5:-0.26857487 6:-0.98908852 7:0.99891995 8:0.14857179 9:-0.97183567 10:0.13531085 11:-0.98880572 12:0.036302846 13:-0.98533946 14:-0.99974678 15:-0.94885497 16:-0.98656754 17:0.29843008 18:-0.96931864 19:-0.25966461 20:-0.98654895 21:-0.82598084 
-0 -1 -0.2033060513133905 -0 1:-0.15442693 2:-0.70488638 3:0.050063878 4:-0.65494733 5:0.97655861 6:-0.93691084 7:0.99998687 8:0.11897587 9:-0.53397445 10:0.11141316 11:-0.77952869 12:-0.054345099 13:0.99999999 14:-0.43205581 15:-0.14583712 16:-0.6397994 17:0.026531373 18:-0.60815938 19:0.97295314 20:-0.91241166 21:-0.80192266 
-0 -0 -1 -1 1:-0.66558746 2:-0.9666383 3:0.58844752 4:-0.95467206 5:0.15568745 6:-0.98629335 7:0.99933383 8:0.17625184 9:-0.95235219 10:0.11716159 11:-0.97047307 12:0.044846388 13:-0.95261699 14:-0.99874966 15:-0.65682388 16:-0.96706603 17:0.58417953 18:-0.95466049 19:0.16202382 20:-0.97093095 21:-0.85171417 
-0 -0.12220075007648867 -0 -0 1:-0.29888546 2:-0.58966789 3:-0.012815961 4:-0.75174458 5:0.92283306 6:-0.88241418 7:0.99994097 8:-0.14527998 9:-0.70586865 10:0.35649 11:-0.80577252 12:0.99999998 13:0.22163895 14:-0.69762181 15:-0.31198588 16:-0.6895729 17:-0.018157643 18:-0.81317515 19:0.92603352 20:-0.92429656 21:-0.82741401 
-1 -0 -0 -0 1:-0.80349921 2:-0.94590977 3:-0.5433086 4:-0.91199014 5:-0.1017285 6:-0.98312529 7:0.99916661 8:0.20665766 9:-0.94869763 10:0.17163948 11:-0.97800612 12:0.077950213 13:-0.96568647 14:-0.99851314 15:-0.80349485 16:-0.94974662 17:-0.5387565 18:-0.92422186 19:-0.091419713 20:-0.98574771 21:-0.78850284 
-1 -0 -0 -0 1:-0.83775874 2:-0.99794827 3:-0.49910093 4:-0.99694206 5:-0.11848825 6:-0.99760226 7:0.9991272 8:0.14894626 9:-0.99338592 10:0.13359335 11:-0.99627146 12:0.041553765 13:-0.99113406 14:-0.99996173 15:-0.83557251 16:-0.99589289 17:-0.49577159 18:-0.99484892 19:-0.10577216 20:-0.99539277 21:-0.79078375 
-0.11823625762507237 -0 -0 -0 1:-0.84340711 2:-0.99227975 3:-0.49259863 4:-0.98239589 5:-0.12505123 6:-0.98618217 7:0.99911639 8:0.15643124 9:-0.99217436 10:0.12999095 11:-0.9873033 12:0.063435791 13:-0.98264022 14:-0.99980721 15:-0.84172415 16:-0.99323735 17:-0.48927525 18:-0.9890824 19:-0.11281342 20:-0.991175 21:-0.78882219 
-1 -0.16112822357693452 -0 -0 1:-0.87168308 2:-0.83407032 3:-0.46715017 4:-0.56042304 5:-0.22898681 6:-0.94394421 7:0.99907685 8:-0.016084652 9:-0.80035043 10:0.086022285 11:-0.94343513 12:-0.26386346 13:-0.74383375 14:-0.97419309 15:-0.86083939 16:-0.86774781 17:-0.49441741 18:-0.76685031 19:-0.21485928 20:-0.95660853 21:-0.76337414 
-0 -0 -0 -1 1:-0.9613215 2:-0.99318415 3:0.29007666 4:-0.97023409 5:-0.26807492 6:-0.97487238 7:0.99886274 8:0.16844465 9:-0.97344532 10:0.12219022 11:-0.96271305 12:0.031541501 13:-0.96355461 14:-0.99892446 15:-0.95239843 16:-0.97471838 17:0.28836117 18:-0.97560759 19:-0.26232731 20:-0.98113722 21:-0.82631856 
-0 -1 -0 -0 1:-0.59311585 2:-0.75411157 3:0.14399012 4:-0.16210411 5:0.62276051 6:-0.70826079 7:0.99969664 8:-0.24984761 9:-0.70179355 10:0.018648083 11:-0.82563887 12:-0.20569058 13:-0.79240383 14:-0.94626237 15:-0.58639852 16:-0.73693646 17:0.13920245 18:-0.29339555 19:0.60842681 20:-0.80299771 21:-0.82256703 
-0 -1 -0 -0 1:-0.59844447 2:-0.72262374 3:0.26365006 4:-0.33030141 5:0.56703865 6:-0.50152524 7:0.99964221 8:0.38837847 9:-0.54809058 10:0.26851249 11:-0.8384364 12:0.092853413 13:-0.70926066 14:-0.93698008 15:-0.60411532 16:-0.70303591 17:0.28144949 18:-0.4654815 19:0.54389437 20:-0.65918971 21:-0.79259961 
-0 -1 -0 -0 1:-0.77938174 2:-0.67847004 3:-0.34996067 4:-0.70240147 5:0.23628055 6:-0.65876802 7:0.99941192 8:0.10274753 9:-0.84339406 10:0.31700759 11:-0.89719058 12:0.33292214 13:-0.81072668 14:-0.97528617 15:-0.80240003 16:-0.77842197 17:-0.35129862 18:-0.74197976 19:0.20921523 20:-0.81109618 21:-0.75707246 
-0 -1 -0 -0 1:-0.49805201 2:-0.64359285 3:-0.10906281 4:-0.55591528 5:0.76403419 6:-0.67607034 7:0.99982749 8:0.34005921 9:-0.73415879 10:-0.14569287 11:-0.88133473 12:0.36096704 13:-0.60970656 14:-0.9407069 15:-0.47708662 16:-0.67475122 17:-0.09097165 18:-0.67558269 19:0.778002 20:-0.81519723 21:-0.85251521 
-1 -0 -0 -0 1:-0.83924402 2:-0.99235554 3:-0.49790169 4:-0.99142186 5:-0.12140522 6:-0.98928755 7:0.99911843 8:0.15512496 9:-0.99364806 10:0.14192305 11:-0.9957302 12:0.047486246 13:-0.99292926 14:-0.9999453 15:-0.83738167 16:-0.99360529 17:-0.4944839 18:-0.9923387 19:-0.10938384 20:-0.99275282 21:-0.79028095 
-0 -0 -1 -0 1:-0.02777037 2:-0.7238766 3:-0.031219531 4:-0.82176158 5:1 6:-0.98040977 7:1 8:0.12873377 9:-0.84076301 10:0.2922863 11:-0.89194908 12:0.2087576 13:-0.89003909 14:-0.98316887 15:-0.046156947 16:-0.72384417 17:-0.023070838 18:-0.83413543 19:1 20:-0.96715969 21:-0.83148283 
-0 -1 -0 -0 1:-0.96061628 2:-0.91872341 3:0.056850621 4:-0.41772708 5:-0.11031288 6:-0.85873178 7:0.99903604 8:0.36731254 9:-0.81406149 10:0.14323545 11:-0.86737686 12:0.3598967 13:-0.75172204 14:-0.96688027 15:-0.95877346 16:-0.84848183 17:0.081494886 18:-0.56445342 19:-0.12991425 20:-0.90033617 21:-0.79006109 
