svm_type c_svc
kernel_type rbf
gamma 0.047619047619047616
nr_class 5
total_sv 219
rho -0.41753967582116286 1.0322218889142785 -0.31509256355885706 -0.16364680219992819 0.22792188083621676 0.077972059114306408 -0.090968066324922006 -0.22729197422468514 -0.32661279867609366 -0.13758846137978606
label 3 2 4 0 1
nr_sv 66 38 69 32 14
SV
0 1 0 0 1:-0.61667002 2:-0.73915017 3:-0.052869724 4:-0.91333026 5:0.83416578 6:-0.78312459 7:0.9998827 8:0.10384289 9:-0.76975623 10:-0.42070806 11:-0.51391423 12:-0.11219971 13:-0.86889644 14:-0.90303035 15:-0.63099308 16:-0.49915672 17:-0.047803229 18:-0.8499622 19:0.81083259 20:-0.86747825 21:-0.25093656 
0 1 0 0 1:-0.41910552 2:-0.45986738 3:-0.046247952 4:-0.9430401 5:0.93479887 6:-0.73465377 7:0.99995098 8:0.19274347 9:-0.85041137 10:-0.28299983 11:-0.54853438 12:-0.14301968 13:-0.858735 14:-0.92212019 15:-0.54056201 16:-0.46735029 17:-0.058690911 18:-0.94418815 19:0.85758386 20:-0.7603979 21:-0.34020931 
0 1 0 0 1:-0.42791095 2:-0.51208942 3:0.024241148 4:-0.94022676 5:0.93379451 6:-0.7283486 7:0.99995382 8:0.15656857 9:-0.75543603 10:-0.32605787 11:-0.4815959 12:-0.14350124 13:-0.91380697 14:-0.89916398 15:-0.40720507 16:-0.68756713 17:0.02846718 18:-0.90722986 19:0.91409618 20:-0.85459235 21:-0.56384649 
0 1 0 0 1:-0.51961661 2:-0.61458586 3:-0.080833424 4:-0.97513182 5:0.88818413 6:-0.73621226 7:0.99991559 8:0.15776443 9:-0.7968272 10:-0.28078295 11:-0.54642523 12:-0.14658493 13:-0.90816793 14:-0.92260843 15:-0.53423799 16:-0.46817911 17:-0.055578033 18:-0.89736282 19:0.86100826 20:-0.75947739 21:-0.34247051 
0 1 0 0 1:-0.17638668 2:-0.45021082 3:-0.088933384 4:-0.90377845 5:0.98728992 6:-0.92391725 7:0.99998922 8:0.11666256 9:-0.57024441 10:-0.040196824 11:-0.22624734 12:-0.11435125 13:-0.90016489 14:-0.75850544 15:-0.19454264 16:-0.25587987 17:-0.081858941 18:-0.81577255 19:0.95339381 20:-0.86280865 21:-0.35162981 
0 1 0 0 1:-0.51818349 2:-0.56566065 3:-0.079618869 4:-0.96403751 5:0.88811754 6:-0.69909474 7:0.99990829 8:0.16482003 9:-0.78004295 10:-0.30915637 11:-0.568472 12:-0.14370682 13:-0.87964215 14:-0.92704609 15:-0.57320754 16:-0.48968032 17:-0.056267595 18:-0.9076097 19:0.84095477 20:-0.75745791 21:-0.32274195 
0 0.43016963166665295 0 0 1:-0.23620529 2:-0.076390733 3:-0.022886352 4:-0.91629052 5:0.97525845 6:-0.7910069 7:0.99998408 8:0.17527189 9:-0.80645422 10:-0.1426782 11:-0.45866965 12:-0.12695353 13:-0.85915194 14:-0.88466076 15:-0.19672144 16:-0.22057214 17:-0.058534528 18:-0.89037569 19:0.95585855 20:-0.90613246 21:-0.33265113 
0 0.28513668731159586 0 0 1:-0.55064783 2:-0.564501 3:-0.14255424 4:-0.95913357 5:0.858888 6:-0.6903847 7:0.99987757 8:0.12492599 9:-0.82748983 10:-0.15938595 11:-0.49800646 12:-0.15349013 13:-0.82503744 14:-0.89796938 15:-0.50034126 16:-0.42810439 17:-0.10773719 18:-0.91245206 19:0.86668065 20:-0.77526813 21:-0.38600695 
0 1 0 0 1:-0.38563498 2:-0.52810266 3:-0.092215727 4:-0.96607968 5:0.94380415 6:-0.81424056 7:0.99995859 8:0.13714773 9:-0.80661288 10:-0.42057288 11:-0.46915799 12:-0.14791133 13:-0.92248952 14:-0.89178764 15:-0.40477252 16:-0.45601615 17:-0.090095504 18:-0.90622041 19:0.91848373 20:-0.86509228 21:-0.31291696 
0 1 0 0 1:-0.6404301 2:-0.80310241 3:-0.059085495 4:-0.97278749 5:0.81788744 6:-0.81896253 7:0.99986201 8:0.14758762 9:-0.83986816 10:-0.28957839 11:-0.5783649 12:-0.15015017 13:-0.96280383 14:-0.93517835 15:-0.65845193 16:-0.54494228 17:-0.054429175 18:-0.92254058 19:0.79670146 20:-0.85604284 21:-0.20209158 
0 1 0.37503356256778936 0 1:-0.34515181 2:-0.22796882 3:-0.034923354 4:-0.93354838 5:0.95469162 6:-0.69021307 7:0.99996679 8:0.13356013 9:-0.85698344 10:-0.24861558 11:-0.63177901 12:-0.10124488 13:-0.77239636 14:-0.93723395 15:-0.25746184 16:-0.55673619 17:-0.034492233 18:-0.93650053 19:0.96136136 20:-0.92284185 21:-0.40537593 
0 1 0 0 1:-0.51305842 2:-0.79433558 3:-0.010279285 4:-0.9561355 5:0.89929175 6:-0.86027713 7:0.99993138 8:0.16169883 9:-0.70329329 10:-0.39485341 11:-0.52090441 12:-0.12227027 13:-0.90185327 14:-0.9063452 15:-0.54675465 16:-0.42008248 17:-0.0079318081 18:-0.84259761 19:0.86326148 20:-0.8237251 21:-0.23431971 
0 1 0 0 1:-0.51156064 2:-0.80851708 3:-0.0087279246 4:-0.95349053 5:0.90021985 6:-0.87163828 7:0.99992934 8:0.16935236 9:-0.70189271 10:-0.35091672 11:-0.512075 12:-0.1359624 13:-0.8741424 14:-0.90435907 15:-0.55339125 16:-0.36824164 17:-0.0051637118 18:-0.83477257 19:0.86389778 20:-0.82467927 21:-0.14110173 
0 1 0 0 1:-0.24628034 2:-0.52118701 3:-0.097357584 4:-0.90542115 5:0.97845109 6:-0.849958 7:0.99997838 8:0.046381597 9:-0.47561591 10:-0.33400622 11:-0.36504878 12:-0.12796735 13:-0.91726249 14:-0.83475522 15:-0.26723153 16:-0.37516227 17:-0.10012247 18:-0.7425648 19:0.95042739 20:-0.84641755 21:-0.29223218 
0 0 0 0.82124588703737822 1:-0.82873605 2:-0.62827971 3:-0.037364627 4:-0.97409074 5:0.64355698 6:-0.45107048 7:0.9997416 8:0.20833755 9:-0.79883102 10:-0.39395674 11:-0.35203779 12:-0.1481141 13:-0.87125048 14:-0.84364485 15:-0.84971711 16:-0.4441984 17:-0.03953465 18:-0.93718208 19:0.60894995 20:-0.62881965 21:-0.18370077 
1 1 1 0 1:-0.092624874 2:-0.89932661 3:0.92621602 4:-0.92113709 5:0.14769147 6:-0.63230027 7:0.99916049 8:0.16006049 9:-0.03440744 10:-0.33678183 11:-0.17760512 12:-0.17896785 13:-0.61010851 14:-0.65197854 15:-0.040450476 16:-0.6375027 17:0.74407023 18:-0.56704096 19:0.48235683 20:-0.40612247 21:-0.54320769 
1 0 0 1 1:-0.60817139 2:-0.63001807 3:-0.059487624 4:-0.95874179 5:0.83756999 6:-0.66915006 7:0.99987962 8:0.12358662 9:-0.85591529 10:-0.24900309 11:-0.65812951 12:-0.12415146 13:-0.94322993 14:-0.95585454 15:-0.84184848 16:-0.65607835 17:-0.049423699 18:-0.93162117 19:0.62032967 20:-0.72822418 21:-0.28402222 
0 1 0 0 1:-0.46401995 2:-0.78947813 3:-0.012291893 4:-0.93057552 5:0.92277108 6:-0.87396139 7:0.99994568 8:0.092183212 9:-0.66527764 10:-0.13945651 11:-0.48416539 12:-0.098845522 13:-0.88346414 14:-0.88775677 15:-0.49510557 16:-0.37289553 17:-0.014918542 18:-0.82526815 19:0.88972853 20:-0.84989679 21:-0.20871018 
1 0 1 0 1:-0.071084942 2:-0.76918027 3:0.86866853 4:-0.77127224 5:0.29166761 6:-0.22178734 7:0.99923373 8:0.21631397 9:-0.78431499 10:-0.34938473 11:-0.41170395 12:-0.11018898 13:-0.85383519 14:-0.86915292 15:-0.51606935 16:-0.33434678 17:-0.052970014 18:-0.87804145 19:0.86867341 20:-0.75264873 21:-0.27794612 
0 1 0 0 1:-0.52202035 2:-0.42751001 3:-0.054249935 4:-0.89162004 5:0.88516063 6:-0.60389639 7:0.99990515 8:0.18159801 9:-0.78336995 10:-0.2792915 11:-0.61234876 12:-0.14005709 13:-0.91505625 14:-0.94142954 15:-0.51867345 16:-0.56371258 17:-0.064605131 18:-0.90944448 19:0.87440873 20:-0.82500153 21:-0.32856068 
0 1 0 0 1:-0.5305556 2:-0.56269991 3:-0.056823552 4:-0.98157263 5:0.88392748 6:-0.69305083 7:0.99991379 8:0.14312705 9:-0.83067114 10:-0.22725778 11:-0.59111953 12:-0.13265906 13:-0.85359524 14:-0.93307788 15:-0.47931512 16:-0.56509837 17:-0.050190836 18:-0.92566647 19:0.89274913 20:-0.83918333 21:-0.36551314 
0 1 0 0 1:-0.31406935 2:-0.43817177 3:-0.077871216 4:-0.97119812 5:0.96523875 6:-0.80112516 7:0.99997459 8:0.14989564 9:-0.82504677 10:-0.28342338 11:-0.44132162 12:-0.12927404 13:-0.90930875 14:-0.88730855 15:-0.3321935 16:-0.40648393 17:-0.073654391 18:-0.92148718 19:0.93972241 20:-0.84605796 21:-0.33171629 
0 1 0 0 1:-0.47174672 2:-0.62356508 3:-0.14928654 4:-0.88550611 5:0.89949733 6:-0.78218484 7:0.99992127 8:0.1426487 9:-0.87419928 10:-0.25504995 11:-0.59056378 12:-0.13016395 13:-0.84158955 14:-0.93385443 15:-0.56324846 16:-0.49714136 17:-0.14298978 18:-0.95081264 19:0.83316902 20:-0.77389736 21:-0.32282791 
0 1 0 0 1:-0.15377439 2:-0.34984465 3:-0.073241268 4:-0.96752334 5:0.98879497 6:-0.87136093 7:0.99999067 8:0.14114191 9:-0.81400407 10:-0.49647416 11:-0.48899541 12:-0.14656803 13:-0.85112526 14:-0.8873251 15:-0.18210901 16:-0.20305561 17:-0.071696529 18:-0.91068112 19:0.96252206 20:-0.85602823 21:-0.22044193 
0.40170957583326239 1 1 0 1:-0.22906883 2:-0.74320994 3:-0.080112045 4:-0.97327278 5:0.98688277 6:-0.94635151 7:0.99999078 8:0.16025183 9:-0.92541856 10:-0.33371784 11:-0.77707248 12:-0.14285071 13:-0.94106387 14:-0.97989657 15:-0.23552744 16:-0.8158149 17:-0.078456693 18:-0.96479049 19:0.96678204 20:-0.96027788 21:-0.41873229 
0 1 0 1 1:-0.67198246 2:-0.65209701 3:-0.13345995 4:-0.91310798 5:0.77934215 6:-0.68076159 7:0.99982937 8:0.085103695 9:-0.80693534 10:-0.3155502 11:-0.61582655 12:-0.11363314 13:-0.86913593 14:-0.9401657 15:-0.62693889 16:-0.58825631 17:-0.13512878 18:-0.92742014 19:0.79791109 20:-0.78291363 21:-0.3162391 
0 1 0 0 1:-0.61451274 2:-0.55228203 3:-0.114001 4:-0.92574256 5:0.82371718 6:-0.62349828 7:0.99984641 8:0.091704868 9:-0.86011323 10:-0.32695454 11:-0.59478144 12:-0.12554264 13:-0.92172482 14:-0.93866632 15:-0.53476781 16:-0.52466631 17:-0.1501957 18:-0.93821614 19:0.85053402 20:-0.8032372 21:-0.30811065 
0 1 0 0 1:-0.29287881 2:-0.48086987 3:-0.051946185 4:-0.95855289 5:0.97378852 6:-0.83814115 7:0.99997892 8:0.19123668 9:-0.84742238 10:-0.29549009 11:-0.5164382 12:-0.14838726 13:-0.84617508 14:-0.91076054 15:-0.21576083 16:-0.47399257 17:-0.044904609 18:-0.91049488 19:0.96395545 20:-0.91911058 21:-0.39770548 
0 1 0 0 1:-0.52083514 2:-0.56464534 3:-0.085217686 4:-0.9795865 5:0.88604154 6:-0.70984435 7:0.99990458 8:0.10513443 9:-0.87639173 10:-0.29695449 11:-0.59679927 12:-0.13690018 13:-0.92756923 14:-0.94046262 15:-0.52672896 16:-0.49521528 17:-0.078131614 18:-0.9531244 19:0.86535738 20:-0.78224551 21:-0.32889245 
0 1 0 0 1:-0.36910542 2:-0.61339064 3:-0.054765242 4:-0.96092679 5:0.95497091 6:-0.84903513 7:0.99996679 8:0.14718103 9:-0.67731461 10:-0.43083724 11:-0.41625595 12:-0.13993881 13:-0.92437546 14:-0.8652355 15:-0.38433539 16:-0.34785522 17:-0.052106831 18:-0.86319358 19:0.92442708 20:-0.80102454 21:-0.30283779 
1 0 0 0 1:-0.62445273 2:-0.61075554 3:-0.063653798 4:-0.9466738 5:0.82559042 6:-0.65177508 7:0.99986215 8:0.098736553 9:-0.85913526 10:-0.40407691 11:-0.62067092 12:-0.12228717 13:-0.94045945 14:-0.942367 15:-0.80511375 16:-0.54301307 17:-0.054695149 18:-0.93986814 19:0.6536298 20:-0.61546271 21:-0.28183981 
0 1 0 0 1:-0.38155038 2:-0.33321036 3:-0.049993121 4:-0.96270302 5:0.94515005 6:-0.69180632 7:0.99995456 8:0.14498064 9:-0.84504018 10:-0.27678624 11:-0.54730953 12:-0.13456841 13:-0.89729575 14:-0.92400295 15:-0.31205995 16:-0.42998997 17:-0.051631526 18:-0.91046044 19:0.94621463 20:-0.87919654 21:-0.36236515 
0 1 0 0 1:-0.46266502 2:-0.13967049 3:-0.037789176 4:-0.82831955 5:0.90596388 6:-0.47408172 7:0.99992521 8:0.20558706 9:-0.61556655 10:-0.24275796 11:-0.64941025 12:-0.16520532 13:-0.80720715 14:-0.93393797 15:-0.32896805 16:-0.76450728 17:0.010965867 18:-0.8234172 19:0.94496303 20:-0.89937464 21:-0.502511 
0.79258161437798025 0.70277509110239167 0.79205034960696197 0.41087985537711941 1:-0.11233822 2:-0.75864026 3:0.90919032 4:-0.9805821 5:0.19959477 6:-0.91099853 7:0.99919624 8:-0.026362838 9:0.99999997 10:-0.18197384 11:-0.38733314 12:-0.079943511 13:-0.29089086 14:-0.41646606 15:-0.16803756 16:0.038820895 17:0.5102723 18:0.99999999 19:0.53201094 20:0.99999999 21:0.38592058 
0.26799935815491271 0 1 0 1:-0.090362884 2:-0.23580522 3:0.69001041 4:0.39585623 5:0.48146177 6:0.59806099 7:0.99947641 8:0.17707765 9:-0.87687761 10:-0.3571979 11:-0.40048008 12:-0.13946851 13:-0.8166489 14:-0.86479283 15:-0.46721092 16:-0.21369906 17:-0.03691678 18:-0.96658212 19:0.88575699 20:-0.71143895 21:-0.28034094 
0 1 0 0 1:-0.5020984 2:-0.75732158 3:-0.022763604 4:-0.96411081 5:0.90417452 6:-0.84845829 7:0.99993892 8:0.15101976 9:-0.75308201 10:-0.16189571 11:-0.62250758 12:-0.10944833 13:-0.88732361 14:-0.93694018 15:-0.52956663 16:-0.57346754 17:-0.020352532 18:-0.90637569 19:0.87320258 20:-0.84920584 21:-0.32064726 
0 1 0 0 1:-0.52841638 2:-0.58799026 3:-0.078114113 4:-0.96386487 5:0.88325864 6:-0.71198982 7:0.9999091 8:0.18519757 9:-0.80196462 10:-0.26969401 11:-0.57363869 12:-0.13946851 13:-0.86470394 14:-0.92861075 15:-0.5468405 16:-0.51982102 17:-0.055032541 18:-0.92329195 19:0.85672033 20:-0.78531789 21:-0.34392623 
0 1 0 0 1:-0.54994839 2:-0.52844506 3:0.010539696 4:-0.91450144 5:0.87450555 6:-0.61616845 7:0.99991708 8:0.22607222 9:-0.66707118 10:-0.45620976 11:-0.59138858 12:-0.14066256 13:-0.75648463 14:-0.90871629 15:-0.54998059 16:-0.63292032 17:0.015529285 18:-0.86111519 19:0.84595766 20:-0.70926049 21:-0.53290198 
0 1 0 0 1:-0.51885073 2:-0.59903365 3:-0.16149985 4:-0.94054913 5:0.872884 6:-0.76028568 7:0.99989154 8:0.18401366 9:-0.88767993 10:-0.31519423 11:-0.57163706 12:-0.14028801 13:-0.81494927 14:-0.92633391 15:-0.58640722 16:-0.49510472 17:-0.14164268 18:-0.95270085 19:0.82251473 20:-0.76758857 21:-0.27859916 
0 1 0 0 1:-0.43068093 2:-0.56184015 3:-0.077080708 4:-0.95585821 5:0.92937653 6:-0.78310318 7:0.99994662 8:0.16162707 9:-0.90480936 10:-0.23382733 11:-0.53289581 12:-0.12359386 13:-0.94808109 14:-0.92189697 15:-0.44834825 16:-0.47597289 17:-0.073756594 18:-0.92910074 19:0.90521789 20:-0.82878756 21:-0.29977217 
0 1 0 0 1:-0.49830719 2:-0.48650576 3:-0.0467672 4:-0.94522527 5:0.90017152 6:-0.71288038 7:0.9999215 8:0.17354985 9:-0.84123156 10:-0.11530958 11:-0.58360829 12:-0.13295475 13:-0.94411309 14:-0.92821501 15:-0.52247222 16:-0.49962475 17:-0.046494294 18:-0.91855998 19:0.87224816 20:-0.81206562 21:-0.31804174 
0 1 0 0 1:-0.51979554 2:-0.63291072 3:-0.07433606 4:-0.97870314 5:0.88919961 6:-0.74333795 7:0.99991385 8:0.095412048 9:-0.77662965 10:-0.27895356 11:-0.57083765 12:-0.1214564 13:-0.91171301 14:-0.92932119 15:-0.53481949 16:-0.51391538 17:-0.077461755 18:-0.88502883 19:0.86141731 20:-0.80058918 21:-0.33306211 
0 1 0 0 1:-0.249873 2:-0.24721666 3:-0.03681969 4:-0.91932566 5:0.97768641 6:-0.80755375 7:0.99998255 8:0.17967267 9:-0.84174932 10:-0.35094826 11:-0.34656465 12:-0.11660136 13:-0.84020622 14:-0.84279482 15:-0.1731919 16:-0.28871392 17:-0.0715069 18:-0.93739598 19:0.9596413 20:-0.90727647 21:-0.35055437 
0 0.39121489197283965 0 0 1:-0.05003772 2:-0.71796021 3:0.90707878 4:-0.96542027 5:0.20071069 6:-0.8600597 7:0.999184 8:-0.62875575 9:0.88805344 10:0.23137613 11:0.3543181 12:-0.026067712 13:-0.27586366 14:0.15374627 15:-0.28491919 16:-0.19279601 17:0.16642316 18:0.54945906 19:0.81022951 20:0.38571262 21:-0.19804249 
0 1 0 0 1:-0.34045636 2:-0.55482742 3:-0.083297659 4:-0.98178155 5:0.95977446 6:-0.83658991 7:0.99997164 8:0.1394677 9:-0.87314229 10:-0.23074532 11:-0.58507058 12:-0.13136644 13:-0.93736839 14:-0.93674762 15:-0.36317304 16:-0.49553295 17:-0.080194141 18:-0.93657245 19:0.93482091 20:-0.8655632 21:-0.32448198 
0 0 0 1 1:-0.70114224 2:-0.60468516 3:-0.14164878 4:-0.94333663 5:0.75245409 6:-0.59919552 7:0.99980421 8:0.14278025 9:-0.79582982 10:-0.29051111 11:-0.61548569 12:-0.11989344 13:-0.86265807 14:-0.93987269 15:-0.61645617 16:-0.55321744 17:-0.13695735 18:-0.92057151 19:0.80507454 20:-0.76643363 21:-0.29197779 
0.82514211406002813 1 0 0.83341871898046471 1:-0.63196189 2:-0.41587525 3:-0.11109474 4:-0.95376234 5:0.8080867 6:-0.46988686 7:0.99986173 8:0.11950872 9:-0.73812547 10:-1 11:-0.8676715 12:-0.18678268 13:-0.82493103 14:-0.82490883 15:-0.78436636 16:-0.66322837 17:-0.083400603 18:-0.92436969 19:0.68353174 20:-0.69923342 21:-0.22174572 
1 1 1 0.2088933257690018 1:-0.094708796 2:-0.90705741 3:0.94133396 4:-0.96124344 5:0.099582956 6:-0.79072184 7:0.99908169 8:0.17157667 9:-0.38643817 10:-0.25934855 11:-0.23696819 12:-0.19120967 13:-0.7343785 14:-0.74888876 15:-0.084300613 16:-0.75085195 17:0.81618511 18:-0.73660621 19:0.37272623 20:-0.59452808 21:-0.5827016 
0 1 0 0.09156299382753226 1:-0.5624773 2:-0.14563634 3:-0.11043403 4:-0.93278859 5:0.84477761 6:-0.35364178 7:0.99988429 8:0.044767179 9:-0.8730615 10:0.80483298 11:-0.47607266 12:-0.070560094 13:-0.93208498 14:-0.54854182 15:-0.4590352 16:-0.56866438 17:-0.066070448 18:-0.96052328 19:0.85112486 20:-0.74861913 21:-1 
0 0 0 0.010733238986836532 1:-0.58181356 2:-0.065817563 3:0.39278163 4:-0.77867459 5:0.70406557 6:0.10564029 7:-0.99873838 8:0.10246507 9:-0.53004341 10:-0.47822349 11:0.99999999 12:-0.14367533 13:-0.66598962 14:0.40874768 15:-0.43942011 16:1 17:-0.04516593 18:-0.72201775 19:0.84404792 20:-0.45944198 21:1 
0 0 0.067678529167002316 0.10728318003106341 1:-0.35768745 2:0.29799845 3:0.28190368 4:1 5:0.68102141 6:0.99999999 7:0.99970343 8:0.22932497 9:-0.85579917 10:-0.19587894 11:-0.45376092 12:-0.13239997 13:-0.81677666 14:-0.88435658 15:-0.48132038 16:-0.28843297 17:-0.044223667 18:-0.94312801 19:0.88276435 20:-0.72233136 21:-0.29198894 
0 1 0 0 1:-0.4267399 2:-0.36527968 3:-0.049298651 4:-0.96552803 5:0.92917353 6:-0.66043778 7:0.99993869 8:0.37231451 9:-0.78242688 10:-0.68764447 11:-0.85231567 12:-0.11234052 13:-0.75402785 14:-0.92173629 15:-0.4235145 16:-0.34012628 17:-0.022562822 18:-0.76963798 19:0.90094045 20:-0.70383327 21:-0.41604825 
1 0 0 0 1:-0.03775466 2:-0.68491428 3:0.76046253 4:-0.66864508 5:0.49789781 6:-0.28329291 7:0.99947721 8:0.041729685 9:-0.76652649 10:-0.24100067 11:-0.35077483 12:-0.10807968 13:-0.88953276 14:-0.84561114 15:-0.42083805 16:-0.23739217 17:-0.054525221 18:-0.86951132 19:0.90267975 20:-0.7526865 21:-0.3182775 
0.53646090200188024 0 0 0 1:-0.63219776 2:-0.62702346 3:-0.060058107 4:-0.95722699 5:0.82090349 6:-0.66667634 7:0.99986185 8:0.23874839 9:-0.80571481 10:-0.20085792 11:-0.52899292 12:-0.14382791 13:-0.91575784 14:-0.91538806 15:-0.8274016 16:-0.59932326 17:-0.049351049 18:-0.92246945 19:0.63801807 20:-0.72230771 21:-0.2456174 
0 1 0.43772985878497628 0 1:-0.2033783 2:-0.17116697 3:-0.021247555 4:-0.90560826 5:0.98294821 6:-0.8283832 7:0.99998842 8:0.20356605 9:-0.83332639 10:-0.33162712 11:-0.40793908 12:-0.12043696 13:-0.84020532 14:-0.86928998 15:-0.16030547 16:-0.26462102 17:-0.065790929 18:-0.92174635 19:0.96294509 20:-0.9147181 21:-0.30422752 
0 1 0 0 1:-0.52172908 2:-0.60045011 3:-0.060205276 4:-0.95961561 5:0.889103 6:-0.72870439 7:0.99991908 8:0.1209318 9:-0.84310247 10:-0.3300771 11:-0.53302414 12:-0.12519907 13:-0.86689359 14:-0.91699463 15:-0.46321975 16:-0.51865727 17:-0.053526588 18:-0.92683389 19:0.89689199 20:-0.82394548 21:-0.37752677 
0.8949574064795438 1 0 0 1:-0.55468513 2:-0.19393721 3:-0.088524865 4:-0.93390908 5:0.85478929 6:-0.37126405 7:0.99989984 8:0.14732453 9:-0.91860636 10:0.065506248 11:-0.69802429 12:-0.11117182 13:-0.95328272 14:-0.93043749 15:-0.37967353 16:-0.95629661 17:-0.075663969 18:-0.96106556 19:0.92153757 20:-0.94491438 21:-0.59384642 
0 1 0 0 1:-0.2429983 2:-0.47851039 3:-0.099288956 4:-0.93764789 5:0.97812349 6:-0.85893272 7:0.99998417 8:0.21377873 9:-0.83694998 10:-0.16369806 11:-0.49477773 12:-0.12314046 13:-0.93312595 14:-0.90352701 15:-0.2704633 16:-0.36023506 17:-0.096121778 18:-0.884465 19:0.94961805 20:-0.85734318 21:-0.31490121 
0 1 0 0 1:-0.35494034 2:-0.4439347 3:0.062022253 4:-0.78795105 5:0.95452501 6:-0.7490934 7:0.99996875 8:0.13481579 9:-0.39585442 10:-0.37460405 11:-0.37211186 12:-0.054423545 13:-0.78054404 14:-0.81426182 15:-0.36091255 16:-0.52178197 17:0.066719363 18:-0.66385194 19:0.91293897 20:-0.73974142 21:-0.6265098 
0 1 0 0 1:-0.38563744 2:-0.59620106 3:-0.033760899 4:-0.92281051 5:0.95033551 6:-0.78150971 7:0.99996454 8:0.12029799 9:-0.84230247 10:-0.19368909 11:-0.50169136 12:-0.12815321 13:-0.88856593 14:-0.90631125 15:-0.48776475 16:-0.41296723 17:-0.039492784 18:-0.92548453 19:0.88528152 20:-0.78031902 21:-0.32530507 
0 1 0 0 1:-0.49507816 2:-0.69118249 3:-0.06478095 4:-0.97394822 5:0.90386184 6:-0.80114305 7:0.99992425 8:0.13346446 9:-0.78884669 10:-0.23893248 11:-0.49224649 12:-0.13484721 13:-0.8560363 14:-0.90118008 15:-0.53408345 16:-0.4556775 17:-0.078406208 18:-0.90790345 19:0.85860821 20:-0.76715988 21:-0.33520713 
1 0.79856337261465227 1 0 1:-0.089101348 2:-0.83867214 3:0.91030911 4:-0.95149837 5:0.19676306 6:-0.79440471 7:0.99919643 8:0.51049668 9:0.12888828 10:-0.17414716 11:-0.34822156 12:-0.059168759 13:-0.57953078 14:-0.69226555 15:-0.0092613686 16:-0.46622779 17:0.80152793 18:-0.35343914 19:0.35276517 20:0.030203487 21:-0.29243503 
0 1 0 0 1:-0.62868306 2:-0.58233511 3:-0.12324336 4:-0.94240329 5:0.81258772 6:-0.61335812 7:0.99983947 8:0.13350034 9:-0.9069542 10:-0.32252077 11:-0.70605382 12:-0.12224493 13:-0.88315055 14:-0.9647404 15:-0.61185782 16:-0.64398499 17:-0.091733212 18:-0.95572861 19:0.82033492 20:-0.82982476 21:-0.30366737 
0 1 0 0 1:-0.55356539 2:-0.55936169 3:-0.055322168 4:-0.97035087 5:0.87095533 6:-0.67800992 7:0.99990728 8:0.17040472 9:-0.73434971 10:-0.34915944 11:-0.58151746 12:-0.1398684 13:-0.81783209 14:-0.92344014 15:-0.46984752 16:-0.56691582 17:-0.054242008 18:-0.88492618 19:0.89534321 20:-0.8361779 21:-0.38132845 
0 1 1 0 1:-0.12535994 2:-0.55325133 3:-0.060166283 4:-0.95692199 5:0.99544075 6:-0.96516593 7:0.99999754 8:0.17523602 9:-0.84261685 10:-0.39932322 11:-0.33934344 12:-0.13739019 13:-0.89050826 14:-0.84036039 15:-0.13957375 16:-0.28579475 17:-0.056041025 18:-0.92053744 19:0.97104375 20:-0.92079053 21:-0.23427479 
0 1 0 0 1:-0.61518596 2:-0.63528064 3:-0.097347609 4:-0.90429476 5:0.82777149 6:-0.6840629 7:0.99985165 8:0.1346962 9:-0.88268744 10:-0.34921801 11:-0.66858278 12:-0.13975294 13:-0.85952635 14:-0.95401054 15:-0.55565841 16:-0.56493043 17:-0.10021728 18:-0.96429589 19:0.84856573 20:-0.80117751 21:-0.33497569 
-0 0 1 0 1:-0.26539197 2:-0.95456918 3:0.93045049 4:-0.99678602 5:0.098611965 6:-0.97705273 7:0.99906466 8:0.14206273 9:-0.92840125 10:-0.27474058 11:-0.95867716 12:-0.13848567 13:-0.96903932 14:-0.99839471 15:-0.27274097 16:-0.93815414 17:0.9268166 18:-0.94529337 19:0.085449329 20:-0.94788242 21:-0.53201949 
-0 0 0.21290259253151103 0.11280426828060174 1:-0.33233837 2:-0.88004607 3:0.99490239 4:-0.98303087 5:-0.45224498 6:-0.71828709 7:-1 8:0.13565331 9:-0.47226647 10:-0.29975956 11:-0.90171367 12:-0.12702289 13:-0.82930762 14:-0.96556148 15:-0.33207519 16:-0.87229991 17:0.99659006 18:-0.75181859 19:-0.45691013 20:-0.7130963 21:-0.43517651 
-0 0 0 1 1:-0.58570904 2:-0.99833812 3:0.91512057 4:-0.99963798 5:-0.36557683 6:-0.99433998 7:0.99860604 8:0.1377337 9:-0.99543947 10:-0.28118847 11:-0.99055251 12:-0.13608631 13:-0.99491389 14:-0.99990869 15:-0.58646059 16:-0.98564334 17:0.91511498 18:-0.99663243 19:-0.36858951 20:-0.99071694 21:-0.46667066 
-0 0 1 0 1:-0.24545309 2:-0.84701109 3:0.97097052 4:-0.95095347 5:-0.062514401 6:-0.67932148 7:0.99888747 8:0.38213256 9:-0.70735033 10:-0.21193784 11:-0.79203502 12:-0.12256878 13:-0.83898935 14:-0.96657196 15:-0.25727912 16:-0.81385236 17:0.96854368 18:-0.84023854 19:-0.074001436 20:-0.76106542 21:-0.46368655 
-0 0 1 0 1:-0.26391563 2:-0.98150342 3:0.93434744 4:-0.9978998 5:0.085746939 6:-0.99561739 7:0.99903763 8:0.13401456 9:-0.97387053 10:-0.28318007 11:-0.98996591 12:-0.13218594 13:-0.98775333 14:-0.99976127 15:-0.26983479 16:-0.97724877 17:0.9305279 18:-0.98221251 19:0.074045131 20:-0.97884464 21:-0.5358974 
-0 1 0 0 1:-0.37073848 2:-0.99596632 3:0.9000407 4:-0.99909016 5:0.13137045 6:-0.99403062 7:0.99911693 8:0.13729123 9:-0.96296227 10:-0.28300434 11:-0.98936456 12:-0.13693397 13:-0.99501559 14:-0.99971824 15:-0.3738545 16:-0.98379043 17:0.89599322 18:-0.97715664 19:0.11782474 20:-0.96848234 21:-0.55562953 
-0 1 0 0 1:-0.36997476 2:-0.99572095 3:0.90020659 4:-0.99639143 5:0.13143486 6:-0.98100954 7:0.99906749 8:0.12520104 9:-0.95629619 10:-0.28140926 11:-0.98040984 12:-0.13579343 13:-0.98630875 14:-0.99947992 15:-0.3736371 16:-0.96868924 17:0.89595875 18:-0.96289737 19:0.11782649 20:-0.97144439 21:-0.55638377 
-0 0 1 0 1:-0.26055632 2:-0.98607096 3:0.93471292 4:-0.9984912 5:0.086141372 6:-0.99354053 7:0.99902062 8:0.13243602 9:-0.96914899 10:-0.28214822 11:-0.98896888 12:-0.13452335 13:-0.98537094 14:-0.99970574 15:-0.26653516 16:-0.97709381 17:0.93091209 18:-0.9792074 19:0.074742599 20:-0.97659216 21:-0.53368866 
-1 1 0 0.45977081365414063 1:-0.44358398 2:-0.80304748 3:0.91104946 4:-0.84076363 5:-0.021017843 6:0.25631762 7:0.99895204 8:-0.46464725 9:0.69608368 10:-0.37760496 11:-0.57286673 12:-0.18523943 13:-0.72517981 14:-0.66040304 15:-0.45218453 16:-0.62906335 17:0.90113707 18:-0.31083463 19:-0.033901889 20:-0.21609529 21:-0.313294 
-0 0 1 0 1:-0.23255623 2:-0.94963039 3:0.9421704 4:-0.98839572 5:0.07175418 6:-0.94550531 7:0.99903576 8:0.12077634 9:-0.86185636 10:-0.25380634 11:-0.92369591 12:-0.14585273 13:-0.94018328 14:-0.99462969 15:-0.23975934 16:-0.91323574 17:0.93791361 18:-0.89579388 19:0.061941715 20:-0.91368356 21:-0.52166703 
-0 0 1 0 1:-0.26550506 2:-0.98848462 3:0.93509369 4:-0.99684998 5:0.082267888 6:-0.98856992 7:0.99906888 8:0.13064222 9:-0.96079571 10:-0.2785931 11:-0.98733273 12:-0.13708323 13:-0.98941359 14:-0.99964376 15:-0.27289702 16:-0.98261707 17:0.9310734 18:-0.98264805 19:0.070559542 20:-0.96923088 21:-0.53571873 
-1 0 0 0 1:-0.32747251 2:-0.94082714 3:0.91671569 4:-0.98784724 5:0.10849602 6:-0.92652382 7:0.99906792 8:0.096404617 9:-0.78206714 10:-0.28049006 11:-0.92737172 12:-0.12398812 13:-0.89081281 14:-0.99053174 15:-0.32871598 16:-0.8519937 17:0.91256607 18:-0.83913294 19:0.095360703 20:-0.86331617 21:-0.53463876 
-0 0 1 0 1:-0.26279617 2:-0.95823533 3:0.93830918 4:-0.99309787 5:0.071898447 6:-0.98678222 7:0.99903294 8:0.12216354 9:-0.9417464 10:-0.27597068 11:-0.98150774 12:-0.14511771 13:-0.98351541 14:-0.99923262 15:-0.27076173 16:-0.9660027 17:0.93454585 18:-0.96044983 19:0.05997692 20:-0.95584826 21:-0.52996145 
-1 0 0 0 1:-0.46783291 2:-0.9008443 3:0.90524474 4:-0.98453951 5:0.011001786 6:-0.76044303 7:0.99896292 8:0.07631409 9:-0.660365 10:-0.22608175 11:-0.79442596 12:-0.12133249 13:-0.88556521 14:-0.97035632 15:-0.47362896 16:-0.83666694 17:0.90225468 18:-0.87462158 19:0.0017410388 20:-0.81852037 21:-0.47390999 
-0 0 1 0 1:-0.25816603 2:-0.97486335 3:0.93117257 4:-0.99559193 5:0.099710028 6:-0.97094479 7:0.99906045 8:0.12493795 9:-0.88440742 10:-0.27027076 11:-0.9398069 12:-0.13507531 13:-0.937969 14:-0.99617708 15:-0.26387972 16:-0.91840092 17:0.92745444 18:-0.88984845 19:0.086767348 20:-0.93342822 21:-0.5302262 
-0 0 1 0 1:-0.24880693 2:-0.91080639 3:0.96386586 4:-0.9814944 5:-0.026123121 6:-0.91518197 7:0.99891314 8:0.19055504 9:-0.79102491 10:-0.27412778 11:-0.86814138 12:-0.11588887 13:-0.84373593 14:-0.98330014 15:-0.25985988 16:-0.89473682 17:0.96007193 18:-0.86276481 19:-0.035749124 20:-0.85137621 21:-0.49838866 
-1 0 0 0 1:-0.49602073 2:-0.73157385 3:0.91595765 4:-0.98261276 5:-0.098529881 6:-0.29080523 7:0.99883057 8:0.42370082 9:-0.68982012 10:-0.22440557 11:-0.88789837 12:-0.17872003 13:-0.91142374 14:-0.97889838 15:-0.50215862 16:-0.79068411 17:0.91274339 18:-0.93001366 19:-0.11660636 20:-0.60269338 21:-0.51407279 
-1 1 0 0 1:-0.37164733 2:-0.98364681 3:0.89805254 4:-0.98774101 5:0.13680081 6:-0.92816246 7:0.99911492 8:0.18888083 9:-0.88296287 10:-0.27310495 11:-0.94894417 12:-0.1383167 13:-0.9697017 14:-0.99714021 15:-0.37540161 16:-0.93724362 17:0.89327929 18:-0.90515931 19:0.12225426 20:-0.92081576 21:-0.56355992 
-0 0 0.7400748900049483 0 1:-0.26829649 2:-0.94846495 3:0.93549068 4:-0.99602015 5:0.079242799 6:-0.97815257 7:0.99901698 8:0.14272046 9:-0.88529496 10:-0.3036457 11:-0.93264811 12:-0.13524992 13:-0.95784748 14:-0.99626085 15:-0.27475889 16:-0.93408189 17:0.93112143 18:-0.91244126 19:0.068171721 20:-0.92850586 21:-0.534656 
-0 0 0 1 1:-0.58646967 2:-0.99692276 3:0.91481285 4:-0.99915036 5:-0.36618217 6:-0.99428549 7:0.99860395 8:0.14139305 9:-0.98877303 10:-0.28087757 11:-0.99132979 12:-0.13665518 13:-0.98965102 14:-0.99986514 15:-0.58746622 16:-0.98641357 17:0.91486625 18:-0.99442055 19:-0.3691821 20:-0.98445588 21:-0.46350153 
-0 0 0.66553054710469128 0 1:-0.27288858 2:-0.95766422 3:0.93360175 4:-0.99855712 5:0.083621694 6:-0.97319446 7:0.99907 8:0.15447581 9:-0.90187526 10:-0.29260183 11:-0.95391509 12:-0.14702706 13:-0.96870482 14:-0.99766957 15:-0.277405 16:-0.94234124 17:0.93089363 18:-0.92253964 19:0.071291969 20:-0.93279937 21:-0.51707116 
-1 0 0 0 1:-0.42856286 2:-0.27873197 3:0.92537131 4:-0.93996565 5:-0.07070716 6:-0.2031856 7:0.99892447 8:-0.20530008 9:-0.53846227 10:-0.35215133 11:-0.8326225 12:0.0087709007 13:-0.67300658 14:-0.9243703 15:-0.42424521 16:-0.45929071 17:0.92027931 18:-0.81512475 19:-0.070863711 20:-0.51815568 21:-0.49416958 
-0.46052373189892842 0 0 0 1:-0.3958518 2:-0.94086073 3:0.9016286 4:-0.9930784 5:0.10495702 6:-0.95763301 7:0.99907531 8:0.15727413 9:-0.82357385 10:-0.29302988 11:-0.93149191 12:-0.11912463 13:-0.92122288 14:-0.99343359 15:-0.39842167 16:-0.91402513 17:0.89189648 18:-0.87496204 19:0.100437 20:-0.91388813 21:-0.59781288 
-1 1 0 0 1:-0.28548675 2:-0.89387906 3:0.92007075 4:-0.97769305 5:0.12257519 6:-0.91804531 7:0.99911784 8:0.09663183 9:-0.82493478 10:-0.27880036 11:-0.89254202 12:-0.15246787 13:-0.9139903 14:-0.99065614 15:-0.29304557 16:-0.86241242 17:0.91475174 18:-0.89215089 19:0.11227122 20:-0.89438919 21:-0.53146935 
-0 0 0 0.18503772246218064 1:-0.58472763 2:-0.9994866 3:0.9155518 4:-0.99995852 5:-0.36558096 6:-0.99686494 7:0.99864523 8:0.13605949 9:-0.99313202 10:-0.28084603 11:-0.99397216 12:-0.1358582 13:-0.99860602 14:-0.99994624 15:-0.58533226 16:-0.98912194 17:0.91550533 18:-0.99658637 19:-0.36875907 20:-0.98887283 21:-0.46882083 
-0 0 1 0 1:-0.26113769 2:-0.99011048 3:0.93412756 4:-0.99733301 5:0.087937959 6:-0.99037194 7:0.99898646 8:0.12876471 9:-0.96918335 10:-0.28054864 11:-0.99204663 12:-0.13733105 13:-0.99044462 14:-0.99976873 15:-0.26742609 16:-0.98320814 17:0.93034443 18:-0.98203348 19:0.076508117 20:-0.97632598 21:-0.53282832 
-0 1 0 0 1:-0.36990759 2:-0.99642259 3:0.89943088 4:-0.99903227 5:0.13394411 6:-0.99571715 7:0.99906303 8:0.13332096 9:-0.9634613 10:-0.28003948 11:-0.98454812 12:-0.13596522 13:-0.98844693 14:-0.9996263 15:-0.37356108 16:-0.97474597 17:0.89457963 18:-0.96603844 19:0.12099568 20:-0.97755624 21:-0.56365504 
-0 0 1 0 1:-0.26170503 2:-0.98231812 3:0.93591651 4:-0.99814854 5:0.081245105 6:-0.99359124 7:0.99904178 8:0.13360797 9:-0.94602803 10:-0.28265738 11:-0.97257745 12:-0.13675092 13:-0.97776239 14:-0.99913707 15:-0.26840237 16:-0.96605937 17:0.93198092 18:-0.95924643 19:0.06922404 20:-0.96060754 21:-0.53633551 
-1 1 0 0 1:-0.37029381 2:-0.99054576 3:0.89745692 4:-0.99477405 5:0.13980453 6:-0.97216707 7:0.99908869 8:0.1124292 9:-0.88245156 10:-0.26881537 11:-0.95470014 12:-0.13296038 13:-0.97512253 14:-0.99750067 15:-0.37357975 16:-0.9372485 17:0.89416341 18:-0.90400281 19:0.12617161 20:-0.93000367 21:-0.53416829 
-0 0 0.68424338307003618 0 1:-0.25122449 2:-0.92143739 3:0.99041116 4:-0.99405979 5:-0.18112547 6:-0.88559388 7:0.99877937 8:0.20064814 9:-0.7898545 10:-0.30283465 11:-0.89131154 12:-0.1560303 13:-0.9256545 14:-0.98947724 15:-0.26192848 16:-0.87490911 17:0.98859391 18:-0.85716361 19:-0.19150978 20:-0.85528981 21:-0.46251646 
-1 0 0 0 1:-0.31744381 2:-0.91347995 3:0.91568206 4:-0.98942339 5:0.11839362 6:-0.93087607 7:0.99911152 8:0.10948738 9:-0.76439299 10:-0.28522573 11:-0.91565786 12:-0.12416554 13:-0.88845896 14:-0.98908145 15:-0.31594158 16:-0.84008511 17:0.91263626 18:-0.82890162 19:0.10499239 20:-0.84854357 21:-0.52068311 
-0.25832723900867932 0 0 0.027376329128962415 1:-0.38941543 2:-0.46507576 3:0.96362213 4:-0.89087115 5:-0.43139395 6:0.70299517 7:0.99853681 8:0.17156471 9:-0.90275095 10:-0.26784661 11:-0.9374445 12:-0.15641893 13:-0.95629364 14:-0.99647359 15:-0.48613395 16:-0.78376361 17:0.92781769 18:-0.85390097 19:-0.15772196 20:-0.69171706 21:-0.48665394 
-0 0 1 0 1:-0.26043686 2:-0.9759133 3:0.93258329 4:-0.99443935 5:0.093679819 6:-0.96029719 7:0.99902769 8:0.11057561 9:-0.89476231 10:-0.27639423 11:-0.94719467 12:-0.13227888 13:-0.94355779 14:-0.99686427 15:-0.26569891 16:-0.92862591 17:0.928623 18:-0.89406727 19:0.081892072 20:-0.93891509 21:-0.53161741 
-0 0 0 1 1:-0.58510992 2:-0.99768136 3:0.91533585 4:-0.99938201 5:-0.36451402 6:-0.99666269 7:0.9986274 8:0.13688464 9:-0.99805257 10:-0.28073789 11:-0.99402824 12:-0.13605252 13:-0.99869095 14:-0.99995974 15:-0.58588443 16:-0.98895838 17:0.91523565 18:-0.99741408 19:-0.36749349 20:-0.99223419 21:-0.46827458 
-1 0 0 0 1:-0.43300989 2:-0.80376851 3:0.90225566 4:-0.98691275 5:0.062252826 6:-0.68744362 7:0.99902042 8:-0.037460475 9:-0.76293137 10:-0.29866222 11:-0.91667953 12:-0.096677085 13:-0.89929231 14:-0.98730733 15:-0.43535779 16:-0.841359 17:0.89612004 18:-0.85226136 19:0.057433525 20:-0.81008753 21:-0.53555282 
-0 1 0 0 1:-0.3701052 2:-0.99909411 3:0.89972446 4:-0.99857448 5:0.13286472 6:-0.99262743 7:0.99909141 8:0.13996997 9:-0.97141209 10:-0.28247715 11:-0.98861309 12:-0.13628344 13:-0.99502876 14:-0.99977285 15:-0.3735344 16:-0.9838138 17:0.89548221 18:-0.98050337 19:0.11939972 20:-0.97386618 21:-0.55740166 
-0 0 0 1 1:-0.58571452 2:-0.99713668 3:0.91508529 4:-0.99935702 5:-0.36485375 6:-0.99144341 7:0.99862676 8:0.13915678 9:-0.99038442 10:-0.27991782 11:-0.99205067 12:-0.13621304 13:-0.99485753 14:-0.9999062 15:-0.58678469 16:-0.98493805 17:0.91498815 18:-0.99706593 19:-0.36791302 20:-0.98576581 21:-0.46572681 
-0 0.45987568775461951 0 0 1:-0.37011663 2:-0.99653765 3:0.90084748 4:-0.99878211 5:0.12929762 6:-0.99272656 7:0.99906585 8:0.1290876 9:-0.95925325 10:-0.28227439 11:-0.97854282 12:-0.13514009 13:-0.98999485 14:-0.99950114 15:-0.37403188 16:-0.9659009 17:0.89659905 18:-0.97123657 19:0.11564494 20:-0.97596475 21:-0.55583255 
-1 -0.67710634405433212 1 0.85973156106562454 1:0.48775527 2:0.99999999 3:0.054097548 4:-0.69331217 5:0.65196797 6:0.82913925 7:0.99963529 8:-0.048976653 9:-0.77295138 10:0.26020014 11:0.092077906 12:-0.29685478 13:-0.14103594 14:-0.30834176 15:0.4769291 16:0.54727993 17:0.053340643 18:-0.63804282 19:0.61509671 20:-0.012096358 21:-0.18211356 
-1 -0 0 0 1:0.10499472 2:-0.3101292 3:0.017685073 4:-0.85726602 5:0.96628295 6:-0.80985296 7:0.99997357 8:0.57756077 9:-0.57844676 10:-0.53680616 11:-0.71105737 12:0.2401234 13:-0.15628548 14:-0.65568582 15:0.10059871 16:-0.46667038 17:0.033339669 18:-0.71803817 19:0.93382977 20:-0.87423228 21:-0.49236964 
-1 -0 0 0 1:-0.48869703 2:-0.99386521 3:-0.10095494 4:-0.99805124 5:0.90445829 6:-0.99625317 7:0.99992774 8:0.138224 9:-0.98867263 10:-0.27934557 11:-0.99728446 12:-0.13639609 13:-0.99344101 14:-0.99993439 15:-0.49178093 16:-0.99094005 17:-0.096065134 18:-0.98902617 19:0.87877184 20:-0.98811655 21:-0.51970197 
-0 -0 0 0.15602877020944453 1:-0.025369395 2:-0.59679005 3:-0.052890515 4:-0.7160523 5:0.99064355 6:-0.95301454 7:0.99999254 8:0.44950758 9:-0.62442723 10:-0.45464623 11:-0.54261414 12:0.99999999 13:0.99999998 14:1 15:-0.038485902 16:-0.50845882 17:-0.049997513 18:-0.65439024 19:0.9639205 20:-0.88903249 21:-0.40353475 
-1 -0.35100100154730135 0 0 1:-0.47982447 2:-0.98723172 3:-0.08853287 4:-0.99900517 5:0.91053261 6:-0.99290322 7:0.99992891 8:0.13785329 9:-0.9910528 10:-0.27862914 11:-0.99667799 12:-0.13587229 13:-0.99386851 14:-0.99994113 15:-0.48321976 16:-0.98802546 17:-0.083774935 18:-0.9913255 19:0.88434634 20:-0.99100182 21:-0.5243407 
-0.38289546309774519 -0 0 0 1:0.17802175 2:-0.72790456 3:-0.006942255 4:-0.89822151 5:0.95263893 6:-0.88575739 7:0.9999623 8:0.14150067 9:-0.74327038 10:-0.24777749 11:-0.70375295 12:-0.094173526 13:-0.72617836 14:-0.94392396 15:0.1651869 16:-0.71700595 17:-0.011487974 18:-0.76244528 19:0.92759452 20:-0.87601596 21:-0.43523606 
-1 -0 0 0.31925543667525413 1:-0.48977811 2:-0.99694121 3:-0.10105495 4:-0.99870806 5:0.90391857 6:-0.99833411 7:0.99992004 8:0.1398145 9:-0.98914911 10:-0.2807514 11:-0.99767815 12:-0.13649184 13:-0.99256076 14:-0.99993493 15:-0.49302529 16:-0.99102554 17:-0.096162411 18:-0.98952597 19:0.87819673 20:-0.99035085 21:-0.51912331 
-0 -0 0.34790425927135987 0 1:0.24573803 2:-0.99277561 3:0.078554301 4:-0.99456603 5:0.92403654 6:-0.99715144 7:0.99993795 8:0.1393242 9:-0.98211654 10:-0.28083702 11:-0.99665171 12:-0.13771686 13:-0.9863299 14:-0.99985419 15:0.22887884 16:-0.98797396 17:0.08199684 18:-0.98182597 19:0.90198401 20:-0.98663852 21:-0.46845214 
-0 -0 1 0 1:0.24640602 2:-0.99686013 3:0.079854522 4:-0.99623578 5:0.92359936 6:-0.99870534 7:0.99993866 8:0.14098645 9:-0.98483965 10:-0.28261233 11:-0.99709179 12:-0.13672276 13:-0.98472793 14:-0.99985947 15:0.22969241 16:-0.99022302 17:0.083105063 18:-0.9848046 19:0.90147884 20:-0.98349267 21:-0.46885227 
-0.6837580185223846 -0 0 0 1:-0.020819395 2:-0.22494624 3:-0.043254254 4:-0.83455838 5:0.98463378 6:-0.91451487 7:0.99998655 8:0.69901278 9:-0.4727055 10:-0.15586236 11:-0.56742777 12:0.73632371 13:0.95949768 14:0.57021857 15:-0.013110493 16:-0.32086169 17:-0.021731654 18:-0.68999784 19:0.95165976 20:-0.80270333 21:-0.43394233 
-1 -0 0 0 1:-0.48683025 2:-0.99769877 3:-0.10034403 4:-0.9982182 5:0.90545706 6:-0.9986508 7:0.99992492 8:0.1394677 9:-0.98715773 10:-0.28146333 11:-0.99758715 12:-0.13581033 13:-0.99293972 14:-0.99993018 15:-0.4900791 16:-0.99196151 17:-0.095359565 18:-0.98858878 19:0.87945358 20:-0.9892811 21:-0.52307647 
-1 -0 0 0 1:-0.36960674 2:-0.83757091 3:-0.10609856 4:-0.94391586 5:0.95094881 6:-0.95061797 7:0.9999649 8:0.20309966 9:-0.91932708 10:-0.23166452 11:-0.90586883 12:-0.13445294 13:-0.95465908 14:-0.99443358 15:-0.3777463 16:-0.86983191 17:-0.1012627 18:-0.91693504 19:0.92312129 20:-0.95769242 21:-0.52122797 
-1 -0 0 0 1:0.070635791 2:0.065702514 3:-0.039285329 4:-0.84045992 5:0.96035763 6:-0.73018538 7:0.99997026 8:0.12737751 9:-0.79824993 10:-0.079145517 11:-0.49030523 12:-0.020528343 13:-0.48056117 14:-0.82137082 15:0.043107755 16:-0.14989745 17:-0.041977668 18:-0.8055525 19:0.93050501 20:-0.78609885 21:-0.45647424 
-1 -1 0 1 1:-0.49554679 2:-0.98749755 3:-0.10130067 4:-0.99842248 5:0.90104808 6:-0.99252019 7:0.99991833 8:0.1377337 9:-0.98897427 10:-0.27751619 11:-0.99533572 12:-0.13601872 13:-0.99448129 14:-0.99992418 15:-0.49871628 16:-0.98591112 17:-0.096297861 18:-0.9891151 19:0.87519711 20:-0.98993966 21:-0.52131308 
-1 -0 0 0 1:-0.48245787 2:-0.99631572 3:-0.10010994 4:-0.99751232 5:0.90758647 6:-0.99773201 7:0.99993024 8:0.13583227 9:-0.98889739 10:-0.28107132 11:-0.99698051 12:-0.13499365 13:-0.99604673 14:-0.9999475 15:-0.48568849 16:-0.99174143 17:-0.095245049 18:-0.99060582 19:0.88168407 20:-0.98943468 21:-0.52177207 
-1 -0 0 0 1:-0.16985223 2:0.19903097 3:-0.08251547 4:-0.86255647 5:0.96699357 6:-0.76769856 7:0.99997401 8:0.15917555 9:-0.5814233 10:-0.64342392 11:-0.65127735 12:-0.19043241 13:-0.60163241 14:-0.86395216 15:-0.16433732 16:-0.15891161 17:-0.072100416 18:-0.74038737 19:0.93814569 20:-0.84630091 21:-0.50902782 
-1 -0 0 0 1:-0.47268978 2:-0.98259388 3:-0.087728728 4:-0.99824585 5:0.91396606 6:-0.99024479 7:0.99993484 8:0.1345527 9:-0.988889 10:-0.27670514 11:-0.98279207 12:-0.13506405 13:-0.99068001 14:-0.99975773 15:-0.47643378 16:-0.97847649 17:-0.08316418 18:-0.98933446 19:0.8877113 20:-0.9889971 21:-0.52273105 
-1 -0 0 0 1:-0.28518424 2:-0.72764686 3:-0.10042466 4:-0.93752013 5:0.97366413 6:-0.94101349 7:0.99997804 8:0.011342762 9:-0.87572064 10:-0.36754787 11:-0.9159737 12:-0.090259075 13:-0.88222384 14:-0.98803945 15:-0.28832285 16:-0.80629146 17:-0.097514446 18:-0.91403688 19:0.94754488 20:-0.96507716 21:-0.5137591 
-1 -0 0 0 1:-0.03534423 2:-0.79746572 3:0.0018548663 4:-0.81317654 5:0.99750618 6:-0.96350238 7:0.99999942 8:0.13537785 9:-0.70959181 10:-0.31774906 11:-0.80524447 12:0.017326369 13:-0.57309707 14:-0.91831108 15:-0.042181648 16:-0.81245626 17:-0.028713463 18:-0.75694117 19:0.97986632 20:-0.62403142 21:-0.29703508 
-1 -0 0 0 1:-0.47898079 2:-0.98993493 3:-0.099648498 4:-0.99844559 5:0.90930148 6:-0.994631 7:0.99992984 8:0.14050811 9:-0.98807605 10:-0.27926447 11:-0.99593796 12:-0.13604407 13:-0.99299558 14:-0.99992084 15:-0.48250622 16:-0.98832358 17:-0.094736497 18:-0.98966178 19:0.88334646 20:-0.98932106 21:-0.52077164 
-0 -0 1 0 1:0.2453362 2:-0.99476475 3:0.081533915 4:-0.99244963 5:0.92386885 6:-0.99733074 7:0.99994657 8:0.14207469 9:-0.97531397 10:-0.2800575 11:-0.99297672 12:-0.13419386 13:-0.97180805 14:-0.99963005 15:0.22864143 16:-0.9870606 17:0.085204531 18:-0.97162165 19:0.90156449 20:-0.98563288 21:-0.47033889 
-0 -0 0.40398779547856201 0 1:0.21828871 2:-0.86703157 3:0.054517456 4:-0.81533593 5:0.93615989 6:-0.93585159 7:0.99994966 8:0.54486583 9:-0.59630301 10:-0.3473616 11:-0.79577853 12:0.096724952 13:-0.58454906 14:-0.88145157 15:0.21077488 16:-0.86283 17:0.073830465 18:-0.7642863 19:0.91254391 20:-0.90122449 21:-0.40341819 
-1 -0 0 0 1:0.056592599 2:-0.44052128 3:0.028217609 4:-0.81575678 5:0.97947831 6:-0.89274689 7:0.9999797 8:0.42999107 9:-0.18561601 10:-0.12782687 11:-0.48362727 12:0.35498015 13:-0.013190584 14:-0.43330561 15:0.038020437 16:-0.56261194 17:0.047640679 18:-0.60594217 19:1 20:-0.58368815 21:0.28473783 
-1 -0 0 0 1:-0.48212828 2:-0.97531035 3:-0.092309294 4:-0.97537193 5:0.90887901 6:-0.98974857 7:0.99992637 8:0.10429732 9:-0.94399266 10:-0.28947926 11:-0.97774182 12:-0.12996963 13:-0.97226686 14:-0.99908015 15:-0.48476288 16:-0.96847369 17:-0.088249696 18:-0.95478568 19:0.88316815 20:-0.98510446 21:-0.52025741 
-0 -1 0 0 1:0.11339418 2:-0.94275297 3:0.21905337 4:-0.92004748 5:0.93982053 6:-0.97845204 7:0.99995508 8:0.24336443 9:-0.93374504 10:-0.26242155 11:-0.97121592 12:-0.14226777 13:-0.92985512 14:-0.99722094 15:0.097311083 16:-0.94812911 17:0.22194824 18:-0.89393282 19:0.91275542 20:-0.97518953 21:-0.5360341 
-1 -0 0 1 1:-0.49048415 2:-0.99609939 3:-0.10114622 4:-0.99777815 5:0.9035603 6:-0.99748001 7:0.99992196 8:0.13550939 9:-0.98831982 10:-0.28175171 11:-0.99746687 12:-0.13526118 13:-0.9933373 14:-0.99993751 15:-0.49382152 16:-0.9917572 17:-0.096029424 18:-0.98862933 19:0.87779819 20:-0.99102862 21:-0.51952512 
-1 -0 0 0 1:-0.48818499 2:-0.9941299 3:-0.10097028 4:-0.99789782 5:0.90470386 6:-0.99652981 7:0.99992953 8:0.13827184 9:-0.98625308 10:-0.28296378 11:-0.99623775 12:-0.13492324 13:-0.99162212 14:-0.99991177 15:-0.49130613 16:-0.98986746 17:-0.095871811 18:-0.98818931 19:0.87899035 20:-0.9870129 21:-0.52021976 
-1 -0 0 0 1:-0.33850299 2:-0.8932313 3:-0.079897194 4:-0.94143985 5:0.96432367 6:-0.97331848 7:0.99997011 8:0.053030605 9:-0.8726183 10:-0.32436367 11:-0.94803758 12:-0.10384419 13:-0.88113454 14:-0.9923049 15:-0.34286011 16:-0.90965661 17:-0.075273629 18:-0.9094065 19:0.93770692 20:-0.97353359 21:-0.52220645 
-1 -0 0 0 1:-0.28474118 2:-0.79980711 3:-0.063764568 4:-0.96305868 5:0.97897421 6:-0.94673189 7:0.99997946 8:0.13696835 9:-0.85125916 10:-0.19829859 11:-0.93354245 12:-0.10907942 13:-0.92221193 14:-0.99204296 15:-0.29630252 16:-0.86404842 17:-0.05936077 18:-0.91588032 19:0.950562 20:-0.92987258 21:-0.52313869 
-0 -0.97382602810280949 0 0 1:0.11925176 2:-0.87799684 3:0.18734721 4:-0.76493468 5:0.94563949 6:-0.95322686 7:0.99996057 8:-0.12865712 9:-0.78020771 10:-0.30289773 11:-0.89707013 12:-0.061638526 13:-0.51035199 14:-0.92853735 15:0.10920922 16:-0.88076927 17:0.17939245 18:-0.65827794 19:0.91903088 20:-0.91915025 21:-0.51963218 
-1 -0 0 1 1:-0.49252998 2:-0.99209076 3:-0.10162712 4:-0.9976375 5:0.90248342 6:-0.99598655 7:0.9999168 8:0.14177572 9:-0.99017264 10:-0.27890851 11:-0.99817169 12:-0.13627499 13:-0.99546649 14:-0.99995144 15:-0.49569807 16:-0.99042241 17:-0.09657738 18:-0.98994371 19:0.87668295 20:-0.99081262 21:-0.5209298 
-1 -0 0 0 1:-0.47796255 2:-0.97863067 3:-0.099028235 4:-0.97086914 5:0.90983804 6:-0.99163524 7:0.99993419 8:0.102946 9:-0.94351074 10:-0.29006503 11:-0.97718512 12:-0.12945709 13:-0.97232496 14:-0.9990544 15:-0.480623 16:-0.97056678 17:-0.094000145 18:-0.95514478 19:0.88470118 20:-0.98409303 21:-0.51462396 
-1 -0 0 0 1:0.11523635 2:0.13481404 3:0.01147989 4:-0.91391868 5:0.94603458 6:-0.34828553 7:0.99995139 8:0.084003499 9:-0.66179633 10:-0.83622986 11:-0.37364219 12:-0.47352888 13:-0.54342512 14:-0.62764915 15:0.077486794 16:-0.1926041 17:0.019639563 18:-0.74692214 19:0.92902792 20:-0.46621543 21:-0.33777713 
-0 -1 0 0 1:0.10438605 2:-0.97317059 3:0.23049206 4:-0.94937107 5:0.93862312 6:-0.9794036 7:0.99995478 8:0.15496611 9:-0.87757619 10:-0.26904967 11:-0.9513388 12:-0.099538296 13:-0.91323888 14:-0.99465037 15:0.088741914 16:-0.94287145 17:0.23383825 18:-0.9142746 19:0.91067526 20:-0.9386686 21:-0.54209324 
-0 -1 0 0 1:0.1201347 2:-0.92383415 3:0.19071661 4:-0.89448125 5:0.9461757 6:-0.94476446 7:0.99996093 8:0.38137917 9:-0.74880293 10:-0.29956789 11:-0.93332659 12:-0.15160612 13:-0.86722739 14:-0.98542451 15:0.10689255 16:-0.9294544 17:0.1937107 18:-0.84269718 19:0.9181149 20:-0.9228939 21:-0.53174386 
-1 -0 0 0 1:-0.43668942 2:-0.9636779 3:-0.079454431 4:-0.98627451 5:0.93070304 6:-0.97964495 7:0.99994446 8:0.12609794 9:-0.98168013 10:-0.27108633 11:-0.98438081 12:-0.13613419 13:-0.99148871 14:-0.99972463 15:-0.44169831 16:-0.96656195 17:-0.07485866 18:-0.98042911 19:0.90397503 20:-0.98624099 21:-0.52284422 
-1 -0 0 0 1:0.21104418 2:-0.35872998 3:-0.025311771 4:-0.86345908 5:0.93273472 6:-0.69468558 7:0.99995786 8:0.019103922 9:-0.58590065 10:-0.37094529 11:-0.14468477 12:-0.24366331 13:-0.71936701 14:-0.70401223 15:0.20210635 16:-0.16333358 17:-0.025583347 18:-0.73516756 19:0.90140542 20:-0.66270662 21:-0.1973973 
-1 -0 0 0 1:-0.21603161 2:-0.11051748 3:-0.095773236 4:-0.93231682 5:0.97309311 6:-0.88091451 7:0.99997654 8:0.038620437 9:-0.72627128 10:-0.31050813 11:-0.25873497 12:-0.18940451 13:-0.81212914 14:-0.79332527 15:-0.2164472 16:-0.22660544 17:-0.096899996 18:-0.8096344 19:0.93902494 20:-0.92868626 21:-0.46638793 
-1 -0 0 0 1:-0.47484564 2:-0.97740001 3:-0.10260527 4:-0.99364707 5:0.91076078 6:-0.9889789 7:0.99993427 8:0.14489693 9:-0.98507102 10:-0.27963846 11:-0.9809412 12:-0.13738456 13:-0.99100044 14:-0.99971006 15:-0.47768347 16:-0.97591095 17:-0.097348211 18:-0.9874404 19:0.88470993 20:-0.98709806 21:-0.52689754 
-1 -0 0 0 1:-0.041226781 2:-0.28643849 3:-0.035519913 4:-0.89012605 5:0.98906223 6:-0.90234483 7:0.9999917 8:0.086179975 9:-0.064512368 10:-0.19306728 11:-0.3362333 12:-0.17126005 13:-0.17696509 14:-0.61437264 15:-0.047577556 16:-0.31289764 17:-0.036059754 18:-0.67055984 19:0.95956089 20:-0.45028716 21:-0.2527894 
-1 -0 1 0 1:0.21267751 2:-0.29318361 3:0.10303451 4:-0.81592028 5:0.92264065 6:-0.6180823 7:0.99992799 8:0.50986287 9:-0.57418841 10:-0.47966729 11:-0.72433863 12:0.077625811 13:-0.26075969 14:-0.77872476 15:0.2166781 16:-0.48424905 17:0.1295618 18:-0.56024208 19:0.89782894 20:-0.7109733 21:-0.23969985 
-1 -1 0 0 1:-0.48191685 2:-0.99676982 3:-0.089506311 4:-0.99784137 5:0.90941139 6:-0.9981361 7:0.99993136 8:0.13659763 9:-0.98819517 10:-0.28072888 11:-0.99747288 12:-0.13530905 13:-0.99458235 14:-0.999942 15:-0.48508298 16:-0.99233237 17:-0.084862225 18:-0.98882994 19:0.88328528 20:-0.9884824 21:-0.52467399 
-1 -0 0 0 1:-0.41909764 2:-0.9496262 3:-0.077602653 4:-0.98920088 5:0.93792541 6:-0.97485225 7:0.9999514 8:0.12933873 9:-0.97875918 10:-0.26627406 11:-0.98865417 12:-0.13501617 13:-0.98766479 14:-0.99970836 15:-0.4239798 16:-0.9632289 17:-0.073092891 18:-0.98120491 19:0.91095844 20:-0.98124954 21:-0.52734083 
-1 -0 0 0 1:0.12458133 2:-0.52936637 3:-0.0012078988 4:-0.85363623 5:0.9660695 6:-0.86048036 7:0.99997051 8:0.15524116 9:-0.043358727 10:-0.35763947 11:-0.3084295 12:-0.078087668 13:-0.42029305 14:-0.67641466 15:0.10343554 16:-0.55420955 17:-0.0029977505 18:-0.73345687 19:0.93575786 20:-0.57680466 21:-0.45129079 
-1 -0 0 0 1:0.14696378 2:-0.27327311 3:0.084193809 4:-0.56821913 5:0.94209338 6:-0.57665452 7:0.99994802 8:-0.7932589 9:0.036196373 10:-0.15693025 11:-0.60590108 12:-0.76162402 13:-0.61668207 14:-0.4822788 15:0.13305902 16:-0.49553935 17:0.050525754 18:-0.6211149 19:0.92189417 20:-0.67142247 21:-0.47286359 
-1 -0 0 0 1:-0.42727578 2:-0.3264128 3:-0.10493746 4:-0.97378458 5:0.92181967 6:-0.76905787 7:0.99993627 8:0.16376767 9:-0.81554004 10:-0.55832166 11:-0.64786171 12:-0.12732245 13:-0.87246173 14:-0.92675307 15:-0.42365303 16:-0.4624863 17:-0.10188208 18:-0.89247824 19:0.89645849 20:-0.87407511 21:-0.49213905 
-1 -0 0 0 1:0.1219579 2:-0.79682396 3:0.13421288 4:-0.8094747 5:0.95727389 6:-0.91458643 7:0.99996733 8:0.027199928 9:-0.51557194 10:-0.38070049 11:-0.70483282 12:-0.68676789 13:-0.69714776 14:-0.6927837 15:0.089814228 16:-0.69262848 17:0.10592339 18:-0.67843549 19:0.94310661 20:-0.56338409 21:-0.34736034 
-1 -0 0 0 1:-0.22131769 2:-0.12183761 3:-0.10681043 4:-0.92618301 5:0.97104368 6:-0.87920026 7:0.9999771 8:0.15035007 9:-0.79142401 10:-0.071900088 11:-0.43040341 12:-0.19947226 13:-0.8377717 14:-0.86149516 15:-0.22083515 16:-0.25238263 17:-0.10295213 18:-0.86673081 19:0.93710385 20:-0.93285992 21:-0.50201173 
-1 -0 0 0 1:-0.33382212 2:-0.83043986 3:-0.064765802 4:-0.94309855 5:0.96694666 6:-0.93813909 7:0.99997587 8:0.16688888 9:-0.88541581 10:-0.32000649 11:-0.91833142 12:-0.13148472 13:-0.96728622 14:-0.99531682 15:-0.33910701 16:-0.87236545 17:-0.060110668 18:-0.91008978 19:0.93943398 20:-0.9652532 21:-0.53072037 
-1 -0 0 0 1:0.058896673 2:0.42838175 3:-0.03156031 4:-0.81089295 5:0.94019643 6:-0.093539603 7:0.99993748 8:-0.067476679 9:-0.74030373 10:0.44143952 11:-0.11436258 12:-0.90547024 13:0.27387878 14:0.25815675 15:0.021175354 16:0.014421301 17:-0.031443387 18:-0.76064703 19:0.90825598 20:-0.44278121 21:-0.53992522 
-0 -0 1 0 1:0.24581392 2:-0.99451521 3:0.081464105 4:-0.9920176 5:0.92366892 6:-0.99861853 7:0.99994306 8:0.14306726 9:-0.99169063 10:-0.2815174 11:-0.99683237 12:-0.13642988 13:-0.98939132 14:-0.9999193 15:0.22908957 16:-0.98937734 17:0.084785869 18:-0.98770548 19:0.90133025 20:-0.98827816 21:-0.47191768 
-1 -0 0 0 1:-0.48488557 2:-0.99167327 3:-0.1005144 4:-0.9988657 5:0.90636338 6:-0.99551847 7:0.99993489 8:0.13766195 9:-0.98866682 10:-0.27916534 11:-0.99858964 12:-0.13570332 13:-0.99329254 14:-0.99994228 15:-0.48820923 16:-0.99115842 17:-0.09568095 18:-0.98893351 19:0.88045695 20:-0.98894245 21:-0.52108055 
-1 -0 0 0 1:-0.48137248 2:-0.99367708 3:-0.09955991 4:-0.99841576 5:0.90818691 6:-0.99640965 7:0.99992798 8:0.13574856 9:-0.98910694 10:-0.27931403 11:-0.99630921 12:-0.13511474 13:-0.99487213 14:-0.99993802 15:-0.48476288 16:-0.98909523 17:-0.094640451 18:-0.9914262 19:0.88210884 20:-0.98819992 21:-0.5231822 
-1 -0 0 0 1:0.10819393 2:-0.43258139 3:-0.017492738 4:-0.91507343 5:0.96876367 6:-0.86602689 7:0.99997314 8:0.026865081 9:-0.20479282 10:-0.0091649388 11:-0.42850415 12:-0.17006882 13:-0.20493039 14:-0.66380269 15:0.083141946 16:-0.34201834 17:-0.01243489 18:-0.74286723 19:0.93177059 20:-0.61384148 21:-0.45394795 
-1 -0 0 0 1:-0.48735092 2:-0.99724166 3:-0.10022058 4:-0.99838597 5:0.90522527 6:-0.99848251 7:0.99992259 8:0.1405679 9:-0.98745836 10:-0.28109385 11:-0.99786335 12:-0.13673966 13:-0.9933423 14:-0.99993228 15:-0.49031784 16:-0.99194538 17:-0.095316467 18:-0.98843968 19:0.87941862 20:-0.98970069 21:-0.52210733 
-1 -0 0 0 1:-0.47593811 2:-0.99342546 3:-0.088391647 4:-0.99777661 5:0.91237536 6:-0.99625091 7:0.9999329 8:0.13528218 9:-0.99028766 10:-0.27735398 11:-0.98279803 12:-0.13474301 13:-0.99288929 14:-0.99977656 15:-0.48001615 16:-0.98394754 17:-0.083735531 18:-0.99031687 19:0.88598074 20:-0.98993019 21:-0.52265554 
-1 -0 0 0 1:-0.48312787 2:-0.99557437 3:-0.10058086 4:-0.99885432 5:0.90719395 6:-0.99762324 7:0.99993445 8:0.13721948 9:-0.98834031 10:-0.28039995 11:-0.99838907 12:-0.13567797 13:-0.99408532 14:-0.99994501 15:-0.48611128 16:-0.99346127 17:-0.095565202 18:-0.98952125 19:0.88133621 20:-0.99040166 21:-0.52305396 
-0 -0 1 0 1:0.24637045 2:-0.99644157 3:0.080859768 4:-0.99174065 5:0.92349699 6:-0.99943871 7:0.99994398 8:0.14171593 9:-0.98642455 10:-0.2812065 11:-0.99626652 12:-0.13608913 13:-0.98371091 14:-0.99985328 15:0.22967774 16:-0.989535 17:0.084194817 18:-0.98273641 19:0.9011537 20:-0.98688492 21:-0.47164521 
-1 -0 0 1 1:-0.49117938 2:-0.99672461 3:-0.10173726 4:-0.99751759 5:0.90312768 6:-0.99794617 7:0.99992444 8:0.13467229 9:-0.98889137 10:-0.28043599 11:-0.9979897 12:-0.13494014 13:-0.99555297 14:-0.99995152 15:-0.49432834 16:-0.99300024 17:-0.096773166 18:-0.98874567 19:0.87743985 20:-0.99120897 21:-0.51944715 
-0.54120619304800244 -0 0 0 1:-0.43122078 2:-0.98669584 3:-0.077130879 4:-0.99482654 5:0.9332415 6:-0.99309092 7:0.99994538 8:0.12889626 9:-0.97796672 10:-0.27603827 11:-0.96980795 12:-0.13244221 13:-0.99164995 14:-0.99944041 15:-0.43500836 16:-0.96941263 17:-0.072342993 18:-0.98264085 19:0.90652891 20:-0.98526983 21:-0.52955381 
-1 -0 0 0 1:-0.39591565 2:-0.9545931 3:-0.092310118 4:-0.98377029 5:0.94464743 6:-0.98321265 7:0.99996089 8:0.17663518 9:-0.9429216 10:-0.26503495 11:-0.95974068 12:-0.13764364 13:-0.96775853 14:-0.99845388 15:-0.40284429 16:-0.95050904 17:-0.08630661 18:-0.96942457 19:0.91749784 20:-0.96864954 21:-0.52189532 
-1 -0 0 0 1:-0.30916246 2:-0.87539526 3:-0.095247123 4:-0.9493011 5:0.97001666 6:-0.96575852 7:0.99997164 8:0.13568877 9:-0.7158932 10:-0.27223532 11:-0.7892515 12:-0.1339573 13:-0.76304492 14:-0.96362431 15:-0.31846365 16:-0.73003961 17:-0.090867566 18:-0.76750385 19:0.94065061 20:-0.84820554 21:-0.47818766 
-0 -0 1 0 1:0.24729735 2:-0.99673035 3:0.076868697 4:-0.99449825 5:0.92354481 6:-0.99913136 7:0.99994076 8:0.13833163 9:-0.98379761 10:-0.28113891 11:-0.99746878 12:-0.13844625 13:-0.98711082 14:-0.99987021 15:0.23033393 16:-0.98956813 17:0.080590628 18:-0.98379072 19:0.90145261 20:-0.98559434 21:-0.46916042 
-1 -0 0 0 1:-0.050424833 2:-0.5662639 3:-0.072799353 4:-0.95211875 5:0.99292694 6:-0.97121395 7:0.99999363 8:0.037843122 9:-0.83266447 10:-0.24151884 11:-0.52011246 12:-0.15954486 13:-0.70247086 14:-0.89539889 15:-0.068789418 16:-0.53157463 17:-0.070196734 18:-0.90809167 19:0.96352544 20:-0.89145446 21:-0.46987351 
-0 -0 1 0 1:0.24536622 2:-0.99439923 3:0.079579219 4:-0.99567997 5:0.92408293 6:-0.99733345 7:0.99993601 8:0.14142892 9:-0.98505662 10:-0.28173368 11:-0.99688304 12:-0.13643552 13:-0.98480531 14:-0.99986054 15:0.22854141 16:-0.99084691 17:0.08301148 18:-0.98499486 19:0.90203296 20:-0.9864579 21:-0.46835838 
-1 -0.45794231405017627 1 0 1:0.28913696 2:-0.51879741 3:0.13388571 4:-0.64192764 5:0.88507889 6:-0.66363316 7:0.9999002 8:-0.76126952 9:0.091777627 10:-0.26971204 11:-0.57639654 12:-0.54057582 13:-0.16110207 14:-0.51578431 15:0.27360423 16:-0.58774114 17:0.12846466 18:-0.46694597 19:0.86742007 20:-0.65347839 21:-0.30156352 
-1 -0 0 0 1:0.022866483 2:-0.55622992 3:0.0086027002 4:-0.87379529 5:0.98847831 6:-0.92168946 7:0.99998756 8:-0.011055785 9:-0.37881208 10:-0.24705204 11:-0.67411378 12:0.069760299 13:-0.4542252 14:-0.82751371 15:0.013439926 16:-0.60377194 17:0.029405475 18:-0.645829 19:0.95708917 20:-0.38410236 21:-0.34523509 
-1 -1 0 0 1:-0.48176016 2:-0.99742335 3:-0.088868201 4:-0.99777937 5:0.90957464 6:-0.99862225 7:0.99993098 8:0.13293828 9:-0.99007345 10:-0.28127859 11:-0.99740595 12:-0.13500773 13:-0.99357189 14:-0.99994477 15:-0.4849536 16:-0.99128865 17:-0.083999042 18:-0.99015899 19:0.88343211 20:-0.9905182 21:-0.52516418 
-0 -0 1 0 1:0.24582485 2:-0.99455119 3:0.081415871 4:-0.99131852 5:0.92366939 6:-0.99875083 7:0.99994363 8:0.13485167 9:-0.99020108 10:-0.28264837 11:-0.99766688 12:-0.13390661 13:-0.98748409 14:-0.99991016 15:0.22925095 16:-0.99085289 17:0.084447246 18:-0.98586425 19:0.90121313 20:-0.9881697 21:-0.47305208 
-0 -1 -0.047481158760005332 0 1:0.56915348 2:-0.99681587 3:0.72589994 4:-0.99782759 5:0.062553188 6:-0.99372895 7:0.9991125 8:0.13775762 9:-0.9852622 10:-0.28308544 11:-0.99234564 12:-0.13675092 13:-0.99221806 14:-0.99987617 15:0.55292013 16:-0.98759474 17:0.73133705 18:-0.99453846 19:0.055912725 20:-0.98717289 21:-0.31470045 
-0 -1 -0 0 1:0.55913059 2:-0.99281178 3:0.73464248 4:-0.99279427 5:0.059424382 6:-0.98649861 7:0.99910275 8:0.14661897 9:-0.98523231 10:-0.28056666 11:-0.99235195 12:-0.13678753 13:-0.99390617 14:-0.99987855 15:0.54241573 16:-0.98817266 17:0.74004891 18:-0.9907492 19:0.052862402 20:-0.98545982 21:-0.32174873 
-0 -1 -0 0 1:0.58023639 2:-0.9883493 3:0.71811568 4:-0.99358539 5:0.059842905 6:-0.9879822 7:0.99913295 8:0.13140758 9:-0.96837907 10:-0.28536541 11:-0.98208845 12:-0.13783233 13:-0.98086735 14:-0.99955066 15:0.56384464 16:-0.97886903 17:0.72425058 18:-0.98545526 19:0.053725933 20:-0.97801099 21:-0.3019502 
-0 -0 -0.3905506949123404 0 1:0.95360585 2:-0.99873565 3:0.042781591 4:-0.99785183 5:-0.0097993951 6:-0.99376479 7:0.9991588 8:0.13699226 9:-0.99364965 10:-0.28088207 11:-0.9961675 12:-0.13562728 13:-0.9965934 14:-0.99995944 15:0.94819422 16:-0.99248755 17:0.046709771 18:-0.99622242 19:-0.0089674439 20:-0.99254353 21:-0.011045922 
-0 -1 -0 0 1:0.56456509 2:-0.99122062 3:0.73006601 4:-0.99616998 5:0.06072382 6:-0.9906638 7:0.99911702 8:0.13605949 9:-0.98555423 10:-0.27956636 11:-0.98696 12:-0.13808296 13:-0.98930222 14:-0.99979411 15:0.54797069 16:-0.98176772 17:0.73572561 18:-0.99371658 19:0.054563241 20:-0.98535787 21:-0.31376966 
-0 -0 -1 0 1:0.95372392 2:-0.99925326 3:0.041153606 4:-0.99773966 5:-0.0099886617 6:-0.99612186 7:0.99924841 8:0.13150324 9:-0.99411362 10:-0.28242759 11:-0.99521866 12:-0.13572303 13:-0.99467934 14:-0.99994693 15:0.94824223 16:-0.99119246 17:0.045653264 18:-0.99581305 19:-0.0083853473 20:-0.99151003 21:-0.0084048331 
-0 -0 -0 0.25879702473403587 1:0.9723812 2:-0.99950185 3:0.023819843 4:-0.99780072 5:-0.092783928 6:-0.99622511 7:0.9991398 8:0.13592794 9:-0.99339663 10:-0.28132365 11:-0.99563157 12:-0.13577935 13:-0.99554584 14:-0.99995149 15:0.96860283 16:-0.99136773 17:0.027844111 18:-0.99336942 19:-0.092121602 20:-0.9923712 21:0.019678373 
-1 -0 -1 0 1:0.62971631 2:-0.25126177 3:0.58380577 4:-0.70381349 5:0.22030541 6:-0.32374955 7:0.99927657 8:0.10125983 9:-0.85358265 10:-0.28763186 11:-0.94104634 12:-0.12865167 13:-0.84980435 14:-0.99102457 15:0.72325386 16:-0.94026524 17:0.52538154 18:-0.89867581 19:0.13805128 20:-0.94497029 21:-0.22945054 
-0 -0 -0 1 1:0.97218259 2:-0.99683466 3:0.020484691 4:-0.99784585 5:-0.091411579 6:-0.97971272 7:0.99910656 8:0.13750648 9:-0.97544148 10:-0.28296829 11:-0.98346405 12:-0.13569487 13:-0.99483377 14:-0.99972855 15:0.96851347 16:-0.9834725 17:0.02437414 18:-0.98978515 19:-0.090668983 20:-0.98395118 21:0.02225597 
-0 -1 -0.048304132680937695 0 1:0.57211736 2:-0.98320155 3:0.72303552 4:-0.98907974 5:0.064124878 6:-0.9882207 7:0.99913709 8:0.12681545 9:-0.95643 10:-0.28301335 11:-0.98629732 12:-0.14113286 13:-0.98537486 14:-0.99953635 15:0.55500473 16:-0.9812424 17:0.72890758 18:-0.98324913 19:0.058239364 20:-0.97933484 21:-0.31384021 
-0 -1 -0 0 1:0.55872366 2:-0.99508851 3:0.73595898 4:-0.99732033 5:0.056448062 6:-0.99782429 7:0.99910074 8:0.1394677 9:-0.98823524 10:-0.27911578 11:-0.99450918 12:-0.13707478 13:-0.99670209 14:-0.99992276 15:0.54262646 16:-0.99054929 17:0.7409712 18:-0.9961214 19:0.049911716 20:-0.98869289 21:-0.3207666 
-1 -1 -0 0 1:0.5544725 2:-0.92740706 3:0.74167452 4:-0.96240299 5:0.048391587 6:-0.9642115 7:0.99910912 8:0.063817304 9:-0.88448844 10:-0.33208672 11:-0.90499252 12:-0.098924374 13:-0.86971249 14:-0.98917692 15:0.53636729 16:-0.94150968 17:0.74797763 18:-0.96361994 19:0.040358695 20:-0.96741945 21:-0.33119172 
-1 -1 -0 0 1:0.54826814 2:-0.97739422 3:0.74415174 4:-0.98714416 5:0.05515174 6:-0.98968054 7:0.99911713 8:0.13639433 9:-0.97391434 10:-0.2821347 11:-0.98503134 12:-0.13723249 13:-0.97664252 14:-0.99959201 15:0.53133114 16:-0.97494603 17:0.74991825 18:-0.98156681 19:0.048279051 20:-0.98402148 21:-0.32174181 
-1 -0 -1 0 1:0.74856223 2:-0.40407864 3:0.49745998 4:-0.22966821 5:0.085890826 6:-0.71476191 7:0.99919905 8:-0.35353947 9:-0.3224294 10:-0.4245786 11:-0.72601389 12:0.052578959 13:-0.34062452 14:-0.79073151 15:0.73320343 16:-0.48766708 17:0.491358 18:0.046546581 19:0.073027774 20:-0.82874936 21:-0.20505375 
-0 -0 -0 0.24661725015694402 1:0.99196192 2:-0.99987644 3:0.027326257 4:-0.99712191 5:-0.21655398 6:-0.99753086 7:0.99896865 8:0.13314158 9:-0.99361639 10:-0.28088207 11:-0.99605624 12:-0.13392069 13:-0.99663931 14:-0.99995868 15:0.98970497 16:-0.99175019 17:0.031724125 18:-0.99579149 19:-0.21749787 20:-0.99114888 21:0.044784106 
-0 -1 -0 0 1:0.55835927 2:-0.99374901 3:0.73598218 4:-0.9946309 5:0.057188016 6:-0.98854291 7:0.99908436 8:0.13995801 9:-0.98581848 10:-0.28277454 11:-0.99255548 12:-0.13574556 13:-0.99328374 14:-0.99988737 15:0.54194226 16:-0.98672809 17:0.7414071 18:-0.99258614 19:0.050425639 20:-0.98684303 21:-0.31935452 
-1 -0 -0 0 1:0.60986108 2:-0.74675003 3:0.68697713 4:-0.79029781 5:0.070385031 6:-0.94927 7:0.99911077 8:0.38637788 9:-0.55142721 10:-0.19709102 11:-0.78057739 12:-0.22956002 13:-0.59580953 14:-0.91562891 15:0.57739877 16:-0.75592305 17:0.70895217 18:-0.74111285 19:0.053568613 20:-0.86054157 21:-0.29191132 
-0 -0 -1 0 1:0.7234224 2:-0.95507754 3:0.54345049 4:-0.95065691 5:0.13249982 6:-0.92260802 7:0.99920573 8:0.15324406 9:-0.94250073 10:-0.28911429 11:-0.95272164 12:-0.14382228 13:-0.94920605 14:-0.99789882 15:0.71311223 16:-0.94979379 17:0.54661096 18:-0.92684124 19:0.12336252 20:-0.96492887 21:-0.23758733 
-0 -0 -1 0 1:0.70718719 2:-0.84433401 3:0.56754693 4:-0.85436179 5:0.12206895 6:-0.95955741 7:0.99922581 8:0.2565309 9:-0.85133884 10:-0.24514156 11:-0.92486597 12:-0.18887789 13:-0.89245656 14:-0.98960548 15:0.68945599 16:-0.84639449 17:0.57621283 18:-0.81152866 19:0.11631968 20:-0.95514131 21:-0.25380122 
-0.24943891267421694 -1 -0 0 1:0.5527989 2:-0.96483035 3:0.74034277 4:-0.97905437 5:0.056484775 6:-0.99496753 7:0.99911794 8:0.15284943 9:-0.98180889 10:-0.27410075 11:-0.98958773 12:-0.14200586 13:-0.98219917 14:-0.99969055 15:0.53569242 16:-0.96961999 17:0.74595574 18:-0.97549514 19:0.04994318 20:-0.98587644 21:-0.32361087 
-0 -0 -0 1 1:0.97229568 2:-0.99865058 3:0.02120528 4:-0.99608887 5:-0.092056576 6:-0.99138723 7:0.99909946 8:0.13675309 9:-0.98340463 10:-0.28011157 11:-0.99326895 12:-0.13646368 13:-0.9951653 14:-0.99989006 15:0.96842144 16:-0.98958465 17:0.025053851 18:-0.99192432 19:-0.091212622 20:-0.98871338 21:0.01863469 
-1 -0 -0.26555606839663859 0 1:0.76582484 2:-0.17054328 3:0.45744123 4:0.037927279 5:0.050354594 6:-0.77084968 7:0.99914367 8:0.99999996 9:-0.36227316 10:-0.074765816 11:-0.7534838 12:-0.36208812 13:-0.52322013 14:-0.80736883 15:0.7383471 16:-0.33988389 17:0.47995115 18:0.22768088 19:0.037173766 20:-0.81998278 21:-0.16031522 
-0 -0 -0 1 1:0.99196825 2:-0.99951268 3:0.026035184 4:-0.9988744 5:-0.21633758 6:-0.9938808 7:0.99895405 8:0.13100098 9:-0.99957532 10:-0.28015212 11:-0.99754574 12:-0.13488382 13:-0.99765215 14:-0.99998603 15:0.98967563 16:-0.99406074 17:0.030305599 18:-0.9970574 19:-0.21719721 20:-0.99440745 21:0.044204361 
-0 -0.30275141271118694 -0 0 1:0.58709577 2:-0.95258015 3:0.71149422 4:-0.96327225 5:0.062731535 6:-0.9711811 7:0.99915425 8:0.1865489 9:-0.91577707 10:-0.26494033 11:-0.95966299 12:-0.14539651 13:-0.95361534 14:-0.99768715 15:0.56869806 16:-0.94286567 17:0.71970194 18:-0.94776891 19:0.055365593 20:-0.96035429 21:-0.2989016 
-0 -0 -1 0 1:0.72287423 2:-0.9747682 3:0.54827794 4:-0.97227755 5:0.12485804 6:-0.98386476 7:0.9991937 8:0.13457662 9:-0.94918154 10:-0.28212119 11:-0.9749438 12:-0.14298588 13:-0.95329076 14:-0.99874907 15:0.70911507 16:-0.96417799 17:0.55497681 18:-0.96131666 19:0.11851522 20:-0.97826486 21:-0.23339865 
-0 -1 -0 0 1:0.56746521 2:-0.98846526 3:0.72778516 4:-0.99137131 5:0.060860358 6:-0.99011974 7:0.99912173 8:0.14079511 9:-0.98785538 10:-0.28114792 11:-0.9880511 12:-0.13807452 13:-0.99088979 14:-0.99982708 15:0.55085152 16:-0.9830726 17:0.7334673 18:-0.99030865 19:0.054383193 20:-0.98722905 21:-0.31489623 
-1 -1 -1 0 1:0.56942141 2:-0.99607273 3:0.72517044 4:-0.9968994 5:0.064057546 6:-0.99173418 7:0.99909291 8:0.14413158 9:-0.98170017 10:-0.27946723 11:-0.97893168 12:-0.13553153 13:-0.98868986 14:-0.99964896 15:0.5525947 16:-0.9761121 17:0.73107846 18:-0.9929632 19:0.057660763 20:-0.98431557 21:-0.31297302 
-0 -0 -0 0.27502333323788181 1:0.98839009 2:-0.96093467 3:0.17245302 4:-0.83430165 5:-0.36627929 6:-0.87047349 7:0.99884538 8:-1 9:0.12148811 10:-0.34407232 11:-0.89057869 12:-0.16298338 13:-0.58709617 14:-0.79455659 15:0.98976368 16:-0.89207811 17:0.1635153 18:-0.65579875 19:-0.37429336 20:-0.78069691 21:0.11235047 
-1 -1 -1 0.7155986877784869 1:0.40292884 2:-0.030379369 3:0.66385509 4:-0.55991236 5:0.38124708 6:-0.16153356 7:0.99939951 8:0.67827649 9:-0.077820723 10:-0.2204314 11:-0.67482872 12:-0.24857186 13:-0.46609967 14:-0.80172348 15:0.70683689 16:-0.66576759 17:0.50832383 18:-0.29060712 19:0.15776806 20:-0.75053804 21:-0.23928143 
-0.42305338745251303 -0 -0 0 1:0.68079329 2:-0.19009985 3:0.59771632 4:-0.15359028 5:0.025706502 6:-0.84646204 7:0.9991015 8:-0.43959389 9:-0.4643903 10:-0.47325545 11:-0.84787816 12:0.11921474 13:-0.5571967 14:-0.84739476 15:0.67595205 16:-0.38680865 17:0.5856335 18:0.057673556 19:0.015555785 20:-0.89942467 21:-0.22052396 
-0 -0 -1 0 1:0.95219936 2:-0.97362858 3:0.040953404 4:-0.99532382 5:-0.0041893363 6:-0.86849697 7:0.9992137 8:0.13555723 9:-0.95577498 10:-0.3323796 11:-0.92136714 12:-0.13220847 13:-0.97891807 14:-0.99643016 15:0.94619496 16:-0.9504511 17:0.045313409 18:-0.97908146 19:-0.0037827583 20:-0.91977288 21:-0.020769081 
-0 -1 -1 0 1:0.5624309 2:-0.99213052 3:0.731465 4:-0.99523129 5:0.061404256 6:-0.99469328 7:0.9991103 8:0.1348995 9:-0.98679212 10:-0.2811344 11:-0.99224628 12:-0.13827728 13:-0.99177562 14:-0.99987412 15:0.54616749 16:-0.98552756 17:0.73681537 18:-0.99426575 19:0.055134849 20:-0.98617549 21:-0.31545951 
-0 -0 -0 -0.49603629590734855 1:-0.28647995 2:-0.97022781 3:-0.99617883 4:-0.99752317 5:-0.38985165 6:-0.92905592 7:0.99858029 8:0.094873909 9:-0.90934008 10:-0.26527376 11:-0.95852402 12:-0.1251512 13:-0.95300984 14:-0.99759539 15:-0.29816439 16:-0.96259051 17:-0.99442194 18:-0.96827369 19:-0.39436083 20:-0.94169194 21:-0.27904354 
-0 -0.15308999782991078 -0 -0 1:-0.99767025 2:-0.99877256 3:-0.57956489 4:-0.9985899 5:-0.67113114 6:-0.99876416 7:0.9985336 8:0.1355931 9:-0.99599734 10:-0.28092263 11:-0.99971084 12:-0.13467824 13:-0.99861976 14:-0.99999228 15:-0.99810078 16:-0.99834329 17:-0.57352355 18:-0.99666569 19:-0.67155068 20:-0.99765182 21:-0.36050329 
-0 -1 -0.3493213986369208 -0 1:-0.9985678 2:-0.99884557 3:-0.57850652 4:-0.99877769 5:-0.67064993 6:-0.99922349 7:0.99843034 8:0.13417002 9:-0.9916022 10:-0.28178775 11:-0.99813552 12:-0.13486974 13:-0.99577648 14:-0.99996333 15:-0.99892769 16:-0.99752879 17:-0.57240794 18:-0.99541622 19:-0.67122205 20:-0.99609607 21:-0.36168549 
-0.74349357873795763 -1 -1 -0 1:-1 2:-0.99856179 3:-0.57688429 4:-0.99874539 5:-0.669487 6:-0.99567338 7:0.9984695 8:0.1357964 9:-0.96264226 10:-0.28163906 11:-0.98542951 12:-0.1344276 13:-0.991237 14:-0.99965146 15:-1 16:-0.98625873 17:-0.57102636 18:-0.98153254 19:-0.67015924 20:-0.98733737 21:-0.363371 
-1 -0.31546298364793662 -0 -0 1:-0.95708988 2:-0.76734935 3:-0.6202473 4:-0.81501564 5:-0.69937468 6:-0.79653318 7:0.99838462 8:-0.032581345 9:-0.65033732 10:-0.29056067 11:-0.86339274 12:-0.22022166 13:-0.77017337 14:-0.96317395 15:-0.95502687 16:-0.81393801 17:-0.61772444 18:-0.75922987 19:-0.69956124 20:-0.8138785 21:-0.33716987 
-0.36695879898430206 -0 -0 -0 1:-0.93108376 2:-0.7116704 3:-0.65102423 4:-0.79104161 5:-0.68314116 6:-0.89341422 7:0.99837973 8:0.22696912 9:-0.73446996 10:-0.29093015 11:-0.86037239 12:-0.0063630984 13:-0.60482862 14:-0.93705656 15:-0.93766312 16:-0.79100645 17:-0.64042702 18:-0.73726065 19:-0.68732848 20:-0.85617662 21:-0.3192801 
-1 -0.31643615204803782 -1 -1 1:-0.36703258 2:-0.011826825 3:-0.95309139 4:-0.71013045 5:-0.22959265 6:-0.41023308 7:0.99880156 8:0.01313656 9:-0.85949099 10:-0.30165862 11:-0.93168539 12:-0.11511161 13:-0.87628163 14:-0.99149304 15:-0.20225506 16:-0.89537839 17:-1 18:-0.94086895 19:-0.29629241 20:-0.89317825 21:-0.27434319 
-0.071389704415727978 -0 -1 -1 1:-0.2412877 2:-0.95041185 3:-1 4:-0.99788416 5:-0.33842356 6:-0.90865817 7:0.9986484 8:0.071913307 9:-0.95180301 10:-0.26564324 11:-0.96245254 12:-0.11743212 13:-0.95669097 14:-0.99811149 15:-0.25077056 16:-0.9612466 17:-0.99780819 18:-0.98181802 19:-0.34544549 20:-0.95168888 21:-0.30075524 
-0.30217511787140872 -0 -0 -0 1:-0.89818224 2:-0.84238948 3:-0.68421591 4:-0.85422733 5:-0.68866286 6:-0.64771352 7:0.99834227 8:-0.047410066 9:-0.59186389 10:-0.36428112 11:-0.71223556 12:-0.19354144 13:-0.78802202 14:-0.9396723 15:-0.89744205 16:-0.81800729 17:-0.68257892 18:-0.8075054 19:-0.68728478 20:-0.73524758 21:-0.30546741 
-1 -0 -0 -0 1:-0.35059797 2:-0.83991803 3:-0.98489478 4:-0.97261996 5:-0.4448948 6:-0.74758612 7:0.99854428 8:0.030644017 9:-0.60772343 10:-0.27771445 11:-0.73165224 12:-0.10674764 13:-0.75096876 14:-0.94546047 15:-0.35974904 16:-0.76892606 17:-0.98239895 18:-0.82206517 19:-0.4497107 20:-0.68952669 21:-0.23157696 
-0 -0 -0.98569436931340237 -1 1:-0.26514594 2:-0.88723326 3:-0.99821127 4:-0.99183964 5:-0.36710309 6:-0.86249992 7:0.99859949 8:0.082568462 9:-0.92800397 10:-0.26377781 11:-0.95636801 12:-0.11611698 13:-0.94540531 14:-0.99736226 15:-0.27587255 16:-0.91594786 17:-0.99627022 18:-0.98064302 19:-0.3730138 20:-0.92740984 21:-0.28896246 
-0 -1 -0 -0 1:-0.99788301 2:-0.99958567 3:-0.57930644 4:-0.99949457 5:-0.67105942 6:-0.99769043 7:0.99847889 8:0.13686072 9:-0.99922913 10:-0.28175171 11:-0.99973961 12:-0.13532314 13:-0.99863752 14:-1 15:-0.99827816 16:-0.99831631 17:-0.57328097 18:-0.99715565 19:-0.6713584 20:-0.9984224 21:-0.36107588 
-1 -0 -1 -1 1:-0.23141247 2:-0.95696172 3:-0.99974421 4:-0.99496897 5:-0.31635658 6:-0.87655867 7:0.99869782 8:0.069246529 9:-0.90086071 10:-0.27236148 11:-0.95128878 12:-0.10984259 13:-0.89552762 14:-0.9946405 15:-0.23360421 16:-0.91383631 17:-0.99946436 18:-0.9564155 19:-0.3273096 20:-0.94131469 21:-0.27917646 
-0 -1 -0 -0 1:-0.9981977 2:-0.99808572 3:-0.57896741 4:-0.99807741 5:-0.67071703 6:-0.9980447 7:0.99842467 8:0.13646608 9:-0.99589262 10:-0.28180127 11:-0.99856699 12:-0.13496548 13:-0.99753246 14:-0.99998387 15:-0.99860359 16:-0.99749387 17:-0.57285369 18:-0.99591067 19:-0.67124302 20:-0.9978138 21:-0.36136727 
