svm_type c_svc
kernel_type rbf
gamma 0.041666666666666664
nr_class 5
total_sv 176
rho -0.67202443745204954 0.25744391225201452 -0.45795003791533728 -0.30082800174218682 0.23877773423924722 0.054099221929203488 -0.038234667019437722 -0.2100051911793582 -0.31910047943434477 -0.071623614949517647
label 3 2 4 0 1
nr_sv 56 26 58 25 11
SV
0 1 0 0 1:-0.61583804 2:-0.74109507 3:-0.05282545 4:-0.91343884 5:0.83474706 6:-0.78419033 7:0.88582128 8:0.10050505 9:-0.76946701 10:-0.4144439 11:-0.51397333 12:-0.11498215 13:-0.86927937 14:-0.90377486 15:-0.62998601 16:-0.49811901 17:-0.047971035 18:-0.85007496 19:0.81247416 20:-0.86889853 21:-0.26764172 22:0.17654725 23:0.23605813 24:0.9694657 
0 1 0 0 1:-0.42732334 2:-0.52237697 3:0.0242648 4:-0.94071471 5:0.93419347 6:-0.7357069 7:0.95473258 8:0.14645879 9:-0.73693554 10:-0.3098195 11:-0.47368456 12:-0.14516278 13:-0.91044881 14:-0.89631056 15:-0.40574344 16:-0.69638502 17:0.02862451 18:-0.90809643 19:0.91429408 20:-0.84741526 21:-0.59212473 22:0.4044576 23:-0.44325124 24:0.68321242 
0 1 0 0 1:-0.33377395 2:-0.5612773 3:-0.057252487 4:-0.95973877 5:0.96446182 6:-0.84193057 7:0.97338756 8:0.18497125 9:-0.77223538 10:-0.11546671 11:-0.27582852 12:-0.14305603 13:-0.91600701 14:-0.80666643 15:-0.34499829 16:-0.31761081 17:-0.055530114 18:-0.87953995 19:0.93374456 20:-0.84376154 21:-0.35173239 22:-0.09538599 23:-0.34990469 24:0.87333779 
0 1 0 0 1:-0.17800469 2:-0.45033173 3:-0.089022491 4:-0.90340086 5:0.98706557 6:-0.9213718 7:0.98922827 8:0.10369246 9:-0.56135567 10:-0.023272208 11:-0.21286101 12:-0.11722216 13:-0.9016395 14:-0.75043331 15:-0.19750183 16:-0.24844504 17:-0.082492348 18:-0.80757101 19:0.95380358 20:-0.86199317 21:-0.36239122 22:-0.30762886 23:-0.35770996 24:0.78962888 
0 1 0 0 1:-0.14413605 2:-0.45196665 3:-0.10811742 4:-0.89202589 5:0.98654074 6:-0.93122533 7:0.99264903 8:0.29390617 9:-0.65805336 10:-0.15197052 11:-0.21714293 12:-0.13192118 13:-0.8321229 14:-0.76830694 15:-0.18600264 16:-0.14661352 17:-0.10725421 18:-0.79291577 19:0.95664342 20:-0.86215509 21:-0.19666421 22:-0.27162613 23:-0.33685025 24:0.81736004 
0 1 0 0.8415412689858025 1:-0.64039321 2:-0.80415196 3:-0.059198075 4:-0.9726243 5:0.81790723 6:-0.81921163 7:0.86495911 8:0.14638689 9:-0.8396324 10:-0.28627404 11:-0.57736197 12:-0.15274196 13:-0.96280813 14:-0.9352857 15:-0.65838612 16:-0.54387424 17:-0.054536438 18:-0.9221505 19:0.79744083 20:-0.85613712 21:-0.22271144 22:0.074462802 23:0.28184533 24:0.99388481 
0 0 0.013828024180034738 0 1:-0.43378238 2:0.063850893 3:0.13351595 4:-0.34637595 5:0.88400592 6:-0.41506924 7:0.91308927 8:-0.62796048 9:-0.3294079 10:-0.56800203 11:-0.33545561 12:-0.1253259 13:-0.82458611 14:-0.75430446 15:-0.44483731 16:-0.025830997 17:0.12217658 18:-0.163035 19:0.84878358 20:-0.62914063 21:-0.33177123 22:0.23607654 23:-0.66465286 24:0.68327854 
0 1 0 0 1:-0.11992886 2:-0.44717744 3:-0.0534652 4:-0.96867885 5:0.99413933 6:-0.94375785 7:0.9999998 8:0.10535806 9:-0.81962334 10:-0.41017112 11:-0.017580521 12:-0.13481335 13:-0.88166768 14:-0.66038031 15:-0.13676969 16:-0.066142912 17:-0.050624532 18:-0.92517299 19:0.96185096 20:-0.86036716 21:-0.19408105 22:-0.20400046 23:-0.014204369 24:0.93198766 
0 1 0 0 1:-0.33620113 2:-0.27416777 3:-0.076644187 4:-0.90894563 5:0.95486117 6:-0.72336935 7:0.96766712 8:0.13297823 9:-0.63373437 10:-0.1910353 11:-0.27270106 12:-0.12328437 13:-0.78047272 14:-0.79388389 15:-0.36473929 16:-0.18451067 17:-0.071906681 18:-0.81750891 19:0.92157381 20:-0.75788665 21:-0.28175459 22:-0.29361432 23:0.00072280066 24:0.89451377 
0 1 0 0 1:-0.59271259 2:-0.61400342 3:-0.057159365 4:-0.95488909 5:0.84768886 6:-0.67951551 7:0.89924202 8:0.049734267 9:-0.77474576 10:-0.21981559 11:-0.43855266 12:-0.11701234 13:-0.91303776 14:-0.88379207 15:-0.6175837 16:-0.41217248 17:-0.053728691 18:-0.91120206 19:0.81940764 20:-0.76469035 21:-0.22044042 22:-0.017128338 23:0.22006005 24:0.9955961 
0.32688619888172532 0 0 0 1:-0.026222325 2:-0.84686064 3:0.90548157 4:-0.96097563 5:0.203279 6:-0.84503337 7:0.1693356 8:-0.080074545 9:-0.031966358 10:0.13008267 11:0.42442678 12:-0.037055209 13:-0.71923862 14:-0.157733 15:-0.44111678 16:-0.069412823 17:0.049781066 18:0.23971301 19:0.84164681 20:-0.10380118 21:-0.041854123 22:0.96409611 23:0.77076785 24:-0.45147342 
0 1 0 0 1:-0.3967663 2:-0.48864865 3:-0.025845599 4:-0.87141328 5:0.94429415 6:-0.71949309 7:0.95770842 8:0.14461345 9:-0.63095453 10:-0.2552896 11:-0.15473887 12:-0.15383362 13:-0.77884873 14:-0.73282098 15:-0.42034528 16:-0.11625128 17:-0.019250476 18:-0.7412645 19:0.90868784 20:-0.73667041 21:-0.16935253 22:-0.15996056 23:0.25854343 24:0.97604712 
0 0.66962959511498632 0 0 1:-0.51235221 2:-0.79972278 3:-0.010232044 4:-0.95668443 5:0.89970082 6:-0.86379227 7:0.9326692 8:0.16306684 9:-0.70327652 10:-0.39207278 11:-0.52048707 12:-0.12489491 13:-0.90247884 14:-0.90667877 15:-0.54234807 16:-0.45352391 17:-0.0074691981 18:-0.84666991 19:0.86470349 20:-0.82521623 21:-0.29901643 22:0.29206819 23:-0.22698961 24:0.84109045 
0 1 0 0 1:-0.24596828 2:-0.52378834 3:-0.097600725 4:-0.90692243 5:0.97847162 6:-0.85014854 7:0.97910241 8:0.048212462 9:-0.47585954 10:-0.32478778 11:-0.36661328 12:-0.13075014 13:-0.91768224 14:-0.83657557 15:-0.26723052 16:-0.37378897 17:-0.10055459 18:-0.74336195 19:0.95150757 20:-0.84665249 21:-0.30588617 22:-0.092282708 23:-0.34985763 24:0.87388732 
1 0 0.75814898302107325 0.60911249255137345 1:-0.092655422 2:-0.90016349 3:0.92638462 4:-0.92169066 5:0.14718615 6:-0.63438452 7:0.17589631 8:0.16462459 9:-0.032822709 10:-0.32798559 11:-0.17622531 12:-0.18362863 13:-0.61314695 14:-0.65284806 15:-0.040469642 16:-0.63662822 17:0.74345768 18:-0.56907261 19:0.48347023 20:-0.40838197 21:-0.56070404 22:-0.86480203 23:-0.61872782 24:-0.7776422 
1 0 0 0 1:-0.60842758 2:-0.63027431 3:-0.059502243 4:-0.9588449 5:0.83736206 6:-0.66778532 7:0.88153689 8:0.12383541 9:-0.85605733 10:-0.24563294 11:-0.65663732 12:-0.12632682 13:-0.94290998 14:-0.95577037 15:-0.84198132 16:-0.65572831 17:-0.049419069 18:-0.93142489 19:0.62080919 20:-0.72877936 21:-0.30278451 22:0.8820836 23:0.14514004 24:0.069350085 
0 1 0 0 1:-0.53271075 2:-0.71639965 3:-0.03512711 4:-0.90229615 5:0.88658483 6:-0.78104527 7:0.91544368 8:0.18116075 9:-0.50242691 10:-0.27209166 11:-0.35461115 12:-0.14669676 13:-0.80066292 14:-0.82663159 15:-0.56339349 16:-0.25348343 17:-0.026844032 18:-0.66089294 19:0.85202911 20:-0.7360363 21:-0.10425698 22:-0.028507933 23:0.27921191 24:0.99803811 
0 1 0 0 1:-0.4318671 2:-0.41629593 3:-0.07106394 4:-0.94361034 5:0.9262694 6:-0.69573614 7:0.94791944 8:0.10121204 9:-0.7778327 10:-0.18525395 11:-0.24771603 12:-0.12486372 13:-0.86370268 14:-0.79527681 15:-0.42993053 16:-0.3244707 17:-0.07033921 18:-0.88649085 19:0.89995322 20:-0.77743316 21:-0.38967786 22:-0.074883082 23:0.015832469 24:0.96858459 
1 0 1 0 1:-0.07076137 2:-0.76949399 3:0.86932086 4:-0.77361742 5:0.29022493 6:-0.22792878 7:0.24027473 8:0.21963726 9:-0.78214255 10:-0.34420951 11:-0.41101681 12:-0.11211833 13:-0.8550032 14:-0.86960965 15:-0.51486576 16:-0.32930477 17:-0.052656211 18:-0.87785352 19:0.86990404 20:-0.75164449 21:-0.29586373 22:0.96694325 23:0.70168631 24:-0.40723939 
0 1 0 0 1:-0.41695448 2:-0.42264741 3:-0.060649942 4:-0.89436504 5:0.9331322 6:-0.70178353 7:0.95153024 8:0.18240695 9:-0.65945202 10:-0.39172048 11:-0.24507206 12:-0.13370185 13:-0.87449996 14:-0.78766533 15:-0.42322955 16:-0.26545555 17:-0.060015816 18:-0.81165641 19:0.90508732 20:-0.75619406 21:-0.31347293 22:0.020298294 23:0.0048091759 24:0.97116998 
0 1 0 0 1:-0.31405881 2:-0.44153571 3:-0.077830467 4:-0.97154836 5:0.9652463 6:-0.80142824 7:0.97517316 8:0.14806447 9:-0.8251422 10:-0.27850535 11:-0.44040436 12:-0.13164614 13:-0.90978374 14:-0.88766415 15:-0.332117 16:-0.40507605 17:-0.0737512 18:-0.92125371 19:0.94066756 20:-0.8457395 21:-0.34670394 22:-0.21370034 23:0.011003163 24:0.93269724 
0 1 1 0 1:-0.15227234 2:-0.36455022 3:-0.073334785 4:-0.96750084 5:0.98913315 6:-0.87501824 7:0.99174257 8:0.14089881 9:-0.81400168 10:-0.49905037 11:-0.50115114 12:-0.14953789 13:-0.85237677 14:-0.89134838 15:-0.17826016 16:-0.22690018 17:-0.071494188 18:-0.91204078 19:0.96355242 20:-0.85621668 21:-0.26412057 22:0.01053155 23:0.091371824 24:0.98383778 
0 1 1 0 1:-0.22865231 2:-0.7490178 3:-0.080122946 4:-0.97332363 5:0.98698336 6:-0.9477952 7:0.99097551 8:0.16088598 9:-0.92425361 10:-0.32405607 11:-0.77327089 12:-0.14586597 13:-0.9416344 14:-0.97957465 15:-0.23493467 16:-0.81912232 17:-0.078511486 18:-0.96495501 19:0.9678769 20:-0.96448544 21:-0.43158861 22:0.090383279 23:-0.55670945 24:0.78847973 
0 1 0 0 1:-0.36811848 2:-0.6151715 3:-0.054818036 4:-0.96104907 5:0.95527564 6:-0.84938381 7:0.96805027 8:0.1429838 9:-0.6810921 10:-0.42069499 11:-0.41715765 12:-0.14263639 13:-0.92485694 14:-0.86714819 15:-0.38275857 16:-0.34786172 17:-0.052344687 18:-0.86395243 19:0.92602068 20:-0.80401073 21:-0.31820318 22:0.099032874 23:-0.24736853 24:0.90531678 
1 0 0 0 1:-0.62438066 2:-0.61264042 3:-0.06368432 4:-0.94691245 5:0.82563469 6:-0.65208076 7:0.86425812 8:0.098084546 9:-0.8590895 10:-0.40098419 11:-0.61995522 12:-0.1246936 13:-0.94093654 14:-0.94246636 15:-0.80451047 16:-0.54024005 17:-0.054767927 18:-0.93981231 19:0.65502197 20:-0.61348122 21:-0.29778079 22:0.88702679 23:0.17431565 24:0.058618828 
0 1 0 0 1:-0.46050485 2:-0.1428958 3:-0.037315719 4:-0.82823783 5:0.90689759 6:-0.47544102 7:0.92711428 8:0.19950629 9:-0.61097692 10:-0.23155896 11:-0.64008896 12:-0.16682853 13:-0.80638116 14:-0.93143741 15:-0.32910353 16:-0.76260838 17:0.011137291 18:-0.82410462 19:0.94502175 20:-0.8925668 21:-0.52381384 22:0.98378032 23:0.65776652 24:-0.56883239 
0 0.62927589701101516 0.18108382649810276 0.23728103502442627 1:-0.11336173 2:-0.77039363 3:0.9092394 4:-0.98083559 5:0.19963494 6:-0.91111946 7:0.21246738 8:-0.029807019 9:0.99999997 10:-0.17430551 11:-0.38621573 12:-0.080596527 13:-0.29533646 14:-0.41749315 15:-0.16679198 16:0.041077805 17:0.51556281 18:0.99999999 19:0.52563837 20:0.99999999 21:0.32836514 22:-0.92920359 23:-0.21171508 24:-0.31802648 
0.65381907611344958 0 0.40573781945758908 0 1:-0.088469989 2:-0.25016627 3:0.69331995 4:0.37240341 5:0.48014668 6:0.58198411 7:0.48298457 8:0.17613999 9:-0.87660636 10:-0.35560961 11:-0.40125659 12:-0.14242089 13:-0.8181703 14:-0.86584914 15:-0.46650209 16:-0.20967241 17:-0.036949482 18:-0.96651461 19:0.88667206 20:-0.71120135 21:-0.29879699 22:0.98347707 23:0.69184156 24:-0.63612489 
0 1 0 0 1:-0.50291716 2:-0.75696119 3:-0.022710998 4:-0.96424359 5:0.90374583 6:-0.84706467 7:0.94018066 8:0.15282161 9:-0.75211031 10:-0.15482506 11:-0.6209203 12:-0.11222041 13:-0.88796211 14:-0.93665276 15:-0.53005197 16:-0.57339574 17:-0.020290942 18:-0.90617859 19:0.87355527 20:-0.84861844 21:-0.34019341 22:0.044959243 23:-0.24902573 24:0.91197767 
0 1 0 0 1:-0.54889661 2:-0.5410837 3:0.010673113 4:-0.91491137 5:0.87535586 6:-0.62711036 7:0.91852837 8:0.2188464 9:-0.66605844 10:-0.44249249 11:-0.59152586 12:-0.14233016 13:-0.75634238 14:-0.91001701 15:-0.54853239 16:-0.64179081 17:0.015971457 18:-0.85923889 19:0.84797569 20:-0.71988421 21:-0.54526047 22:0.49241511 23:-0.15542383 24:0.70626711 
0 1 0 0 1:-0.51917722 2:-0.60063299 3:-0.16154564 4:-0.94074219 5:0.8726887 6:-0.76015813 7:0.89378892 8:0.18229911 9:-0.8882124 10:-0.30937235 11:-0.57165924 12:-0.14177441 13:-0.81985341 14:-0.92715398 15:-0.58653941 16:-0.49333392 17:-0.14160437 18:-0.95243038 19:0.82370063 20:-0.76984501 21:-0.29060481 22:0.92153792 23:0.58732306 24:-0.083978121 
0 1 0 0 1:-0.43106091 2:-0.56629999 3:-0.077028114 4:-0.95614266 5:0.9292641 6:-0.78410889 7:0.94711013 8:0.16218012 9:-0.90546725 10:-0.22927352 11:-0.53191458 12:-0.12627295 13:-0.9483252 14:-0.92207632 15:-0.44873522 16:-0.47579204 17:-0.07371426 18:-0.92908709 19:0.90590745 20:-0.82917438 21:-0.31727774 22:-0.14413854 23:0.020967383 24:0.95622808 
0 1 0 0 1:-0.54513172 2:-0.59501238 3:-0.041698581 4:-0.92149143 5:0.87714074 6:-0.65720276 7:0.91409053 8:0.051052367 9:-0.67190594 10:-0.17736331 11:-0.47931154 12:-0.172576 13:-0.85652422 14:-0.88822823 15:-0.57199775 16:-0.38328992 17:-0.039564808 18:-0.89034243 19:0.8514468 20:-0.75517387 21:-0.1779189 22:0.039269199 23:0.22104389 24:0.99448614 
0 1 0 0 1:-0.49944803 2:-0.49327628 3:-0.046738717 4:-0.94522151 5:0.89968757 6:-0.71505634 7:0.922556 8:0.17404301 9:-0.84109805 10:-0.11052094 11:-0.58275669 12:-0.13546551 13:-0.94444954 14:-0.92835293 15:-0.52369225 16:-0.50146269 17:-0.046489756 18:-0.91823141 19:0.87253055 20:-0.81319848 21:-0.33504778 22:-0.11835423 23:-0.099824277 24:0.93954661 
0 1 0 0 1:-0.60233527 2:-0.53472577 3:-0.024252233 4:-0.92175799 5:0.84167604 6:-0.59617433 7:0.87999132 8:0.23727583 9:-0.8365338 10:-0.17547985 11:-0.56007041 12:-0.12442706 13:-0.92160087 14:-0.92550573 15:-0.61964969 16:-0.44905218 17:-0.020861044 18:-0.88748824 19:0.80938774 20:-0.68428494 21:-0.35901296 22:0.12980998 23:0.022006641 24:0.9593563 
0.45757925861792581 0.41928572175510809 0.03313860709046975 0 1:-0.050647476 2:-0.71789168 3:0.90706153 4:-0.96551133 5:0.20080999 6:-0.86028957 7:0.19816011 8:-0.59705703 9:0.93166024 10:0.24344234 11:0.35673241 12:-0.026955301 13:-0.28018351 14:0.16460072 15:-0.28342755 16:-0.18650287 17:0.16944283 18:0.55965483 19:0.81205797 20:0.38771094 21:-0.1866048 22:0.98323923 23:0.70575222 24:-0.73899775 
0 1 0 0 1:-0.34078731 2:-0.55862094 3:-0.083359057 4:-0.98178018 5:0.95969186 6:-0.83722011 7:0.97224285 8:0.13827459 9:-0.87264686 10:-0.22590408 11:-0.58435278 12:-0.13424059 13:-0.93795368 14:-0.93691547 15:-0.36350823 16:-0.49524404 17:-0.080255037 18:-0.93626583 19:0.93545651 20:-0.86619721 21:-0.34276939 22:-0.21173942 23:-0.0083182686 24:0.93016245 
0 0 0 1 1:-0.70102607 2:-0.6073651 3:-0.14182567 4:-0.94477929 5:0.7525323 6:-0.60002426 7:0.80840296 8:0.14125829 9:-0.7956621 10:-0.28594432 11:-0.61465166 12:-0.12233449 13:-0.86365199 14:-0.94000793 15:-0.61638915 16:-0.55214143 17:-0.13683546 18:-0.92011857 19:0.80585017 20:-0.76649046 21:-0.31034878 22:0.47478399 23:-0.53898801 24:0.56756651 
0 0.2645405983104348 0 0 1:-0.51706343 2:-0.62577804 3:-0.059069628 4:-0.9229039 5:0.89192169 6:-0.74001723 7:0.92342212 8:0.15529005 9:-0.83728892 10:-0.41112414 11:-0.51704607 12:-0.12750637 13:-0.85930305 14:-0.90704948 15:-0.45712641 16:-0.25927274 17:-0.06068196 18:-0.92425272 19:0.89609565 20:-0.71946065 21:-0.24660567 22:0.94775623 23:0.78575634 24:-0.32665617 
0 0 0 0.27802995061432406 1:-0.63363017 2:-0.41974544 3:-0.11120717 4:-0.95421411 5:0.8068753 6:-0.46953779 7:0.86316275 8:0.11672966 9:-0.73791711 10:-1 11:-0.8685588 12:-0.18903301 13:-0.82598374 14:-0.82442863 15:-0.78233686 16:-0.67049213 17:-0.083474942 18:-0.92382934 19:0.68538941 20:-0.69954845 21:-0.2540475 22:0.57890239 23:-0.06210679 24:0.63240764 
1 0 1 1 1:-0.094852213 2:-0.9070615 3:0.94146629 4:-0.96150623 5:0.099125326 6:-0.79170569 7:0.097860942 8:0.1803579 9:-0.39695177 10:-0.25980628 11:-0.23637514 12:-0.19382494 13:-0.73586311 14:-0.75108933 15:-0.083000613 16:-0.74267911 17:0.81656643 18:-0.73787518 19:0.37216091 20:-0.59435311 21:-0.59341125 22:-0.86037641 23:-0.63547068 24:-0.72359385 
0 1 0 0 1:-0.19444904 2:-0.1512141 3:-0.041023096 4:-0.95218249 5:0.98249325 6:-0.85583543 7:0.97987406 8:0.14336725 9:-0.72847146 10:-0.14583235 11:-0.31071898 12:-0.10262521 13:-0.82851578 14:-0.81800175 15:-0.23504103 16:-0.12213405 17:-0.037886517 18:-0.85771175 19:0.95085357 20:-0.82459045 21:-0.28629873 22:-0.28136948 23:-0.31526215 24:0.8197852 
0 0 0 0.27820665590998905 1:-0.35563857 2:0.29445934 3:0.28643167 4:1 5:0.678177 6:0.99999999 7:0.70390691 8:0.22762974 9:-0.85575352 10:-0.19303167 11:-0.45125229 12:-0.13477366 13:-0.81791493 14:-0.8841966 15:-0.48193104 16:-0.2876625 17:-0.044117001 18:-0.94375825 19:0.88337057 20:-0.72278509 21:-0.30921759 22:0.98935164 23:0.62638838 24:-0.65423531 
0 1 0 0 1:-0.42706191 2:-0.36576063 3:-0.04932374 4:-0.96554977 5:0.92894479 6:-0.65770315 7:0.94024717 8:0.36710861 9:-0.77512283 10:-0.68516926 11:-0.85264641 12:-0.1126032 13:-0.75188363 14:-0.92113076 15:-0.41985396 16:-0.3422278 17:-0.02198524 18:-0.77043757 19:0.90327221 20:-0.71121552 21:-0.43398028 22:0.89266269 23:0.85403151 24:-0.084026118 
1 0.38101140617438178 0 0 1:-0.037811244 2:-0.6866036 3:0.76006028 4:-0.67084753 5:0.49867142 6:-0.28847831 7:0.48933268 8:0.041166624 9:-0.76643486 10:-0.23620211 11:-0.34985118 12:-0.11102101 13:-0.88978785 14:-0.84613718 15:-0.42086945 16:-0.23559385 17:-0.054740837 18:-0.86859171 19:0.90329144 20:-0.75268006 21:-0.33719101 22:0.96878264 23:0.76299288 24:-0.49578503 
0.2917640183054056 0 0 0 1:-0.6320473 2:-0.62840206 3:-0.060071564 4:-0.95733991 5:0.82099809 6:-0.66663012 7:0.86451885 8:0.23994797 9:-0.80637164 10:-0.19942278 11:-0.52914911 12:-0.14679317 13:-0.91640468 14:-0.91609683 15:-0.82763806 16:-0.59922975 17:-0.049210975 18:-0.92264948 19:0.63838684 20:-0.72349555 21:-0.26592993 22:0.8645122 23:-0.04382455 24:0.069060895 
0 0.12115355504177862 0.69536544065576256 0 1:-0.55439257 2:-0.19718206 3:-0.088699891 4:-0.93363732 5:0.85488138 6:-0.37180054 7:0.90133718 8:0.14636293 9:-0.91901333 10:0.077332349 11:-0.69744946 12:-0.11358427 13:-0.95359756 14:-0.92918574 15:-0.37967175 16:-0.95586143 17:-0.075571092 18:-0.96021035 19:0.92217709 20:-0.94427752 21:-0.60620879 22:0.35551951 23:-0.73182913 24:0.56371369 
0 0 0 0.21820968897336687 1:-0.83044113 2:-0.32743624 3:-0.14033474 4:-0.89433365 5:0.60965115 6:-0.06636321 7:0.6922345 8:0.14371475 9:-0.67910939 10:-0.2353891 11:-0.47215776 12:-0.14700583 13:-0.85635653 14:-0.88963814 15:-0.64279611 16:-0.37504489 17:-0.10979689 18:-0.87636916 19:0.78079695 20:-0.66088721 21:-0.32316706 22:0.59758546 23:-0.50573017 24:0.42667057 
0 1 0 0 1:-0.24373619 2:-0.48009072 3:-0.099137978 4:-0.93716521 5:0.97798973 6:-0.85903839 7:0.98459697 8:0.21249556 9:-0.83720543 10:-0.16096775 11:-0.49250601 12:-0.12560945 13:-0.93349391 14:-0.90345768 15:-0.27129199 16:-0.35847458 17:-0.09595561 18:-0.88352995 19:0.95004743 20:-0.85668687 21:-0.33514728 22:-0.061212127 23:-0.64827808 24:0.74646528 
0 1 0 0 1:-0.35422494 2:-0.45697535 3:0.062104376 4:-0.78921133 5:0.95497769 6:-0.75831842 7:0.96976326 8:0.12565678 9:-0.3996277 10:-0.3557406 11:-0.37131152 12:-0.056514969 13:-0.78195388 14:-0.81604006 15:-0.35900812 16:-0.53830236 17:0.067263359 18:-0.66744285 19:0.91477671 20:-0.74748573 21:-0.64101219 22:0.40635199 23:-0.44193717 24:0.68218562 
0 1 0 0 1:-0.63451485 2:-0.74320255 3:-0.056467418 4:-0.97063247 5:0.82160862 6:-0.76251848 7:0.87147575 8:0.14493698 9:-0.85403569 10:-0.35419589 11:-0.46724531 12:-0.12273429 13:-0.94239004 14:-0.89773509 15:-0.64608417 16:-0.5215118 17:-0.052615577 18:-0.94027438 19:0.79622899 20:-0.82796665 21:-0.33492923 22:0.17242252 23:0.30047293 24:0.97333585 
0 1 0 0 1:-0.41278604 2:-0.55999382 3:-0.083088419 4:-0.96415558 5:0.93560203 6:-0.78449214 7:0.95180214 8:0.15354058 9:-0.85139945 10:-0.19507321 11:-0.44947105 12:-0.12376924 13:-0.93166833 14:-0.8905357 15:-0.45502424 16:-0.38207517 17:-0.078506561 18:-0.91413023 19:0.90300991 20:-0.81072464 21:-0.24946382 22:-0.054432945 23:0.045279062 24:0.9753232 
1 0 1 0 1:-0.088848378 2:-0.84103199 3:0.91035443 4:-0.95141013 5:0.19663685 6:-0.79381562 7:0.20593496 8:0.50004491 9:0.13659875 10:-0.16830284 11:-0.34598019 12:-0.062804017 13:-0.582264 14:-0.69156904 15:-0.0094863732 16:-0.46451832 17:0.80029176 18:-0.3536245 19:0.35670812 20:0.02046525 21:-0.31082313 22:-0.86051161 23:-0.52223158 24:-0.30944348 
1 1 0 0 1:-0.62859631 2:-0.58479572 3:-0.12305697 4:-0.94205121 5:0.81269139 6:-0.61386983 7:0.84217565 8:0.13303814 9:-0.90686228 10:-0.31942648 11:-0.70487563 12:-0.12535709 13:-0.88141768 14:-0.96455592 15:-0.61158661 16:-0.64443965 17:-0.091833147 18:-0.95528017 19:0.82134691 20:-0.83175772 21:-0.32082233 22:0.92321176 23:0.48173608 24:-0.067659152 
0 1 0.96531318671196353 0 1:-0.1244971 2:-0.55360789 3:-0.060091536 4:-0.95754986 5:0.99543006 6:-0.96520388 7:0.99783399 8:0.17531318 9:-0.84253538 10:-0.3939743 11:-0.33756977 12:-0.1399824 13:-0.89112901 14:-0.84065021 15:-0.13813529 16:-0.28241163 17:-0.0560485 18:-0.92033568 19:0.97183588 20:-0.92083148 21:-0.25317441 22:-0.25631533 23:0.051351309 24:0.92112411 
0.38892770825882589 0 0 0 1:-0.61528556 2:-0.63785741 3:-0.09711191 4:-0.90476434 5:0.82775603 6:-0.68469957 7:0.85525126 8:0.13484753 9:-0.88261259 10:-0.34429532 11:-0.6678753 12:-0.14253431 13:-0.86041607 14:-0.95415091 15:-0.55507616 16:-0.56255328 17:-0.10030956 18:-0.9645355 19:0.84953026 20:-0.80091329 21:-0.35257457 22:0.97144228 23:0.29472134 24:-0.31382665 
-0 0 0 1 1:-0.58570848 2:-0.99837646 3:0.91510434 4:-0.99964343 5:-0.36550178 6:-0.99439182 7:-0.37954189 8:0.1371602 9:-0.99534934 10:-0.27721358 11:-0.99054642 12:-0.13875464 13:-0.99495691 14:-0.9999093 15:-0.58641272 16:-0.9855808 17:0.91506963 18:-0.99659592 19:-0.36831144 20:-0.99079272 21:-0.4805005 22:0.74759747 23:-0.62961378 24:0.01281812 
-0 1 0 0 1:-0.37074309 2:-0.99596961 3:0.90002566 4:-0.99908685 5:0.1314158 6:-0.99408595 7:0.12923274 8:0.13620158 9:-0.96291858 10:-0.278817 11:-0.98930751 12:-0.13965065 13:-0.99504927 14:-0.99971895 15:-0.37376452 16:-0.98376166 17:0.89593615 18:-0.97710135 19:0.11844368 20:-0.96827642 21:-0.56679829 22:0.98074631 23:0.25373115 24:-0.39466211 
-1 0.49346672681558834 0.11725533177581061 0.37425931684553559 1:-0.44405165 2:-0.80503212 3:0.91065071 4:-0.84294782 5:-0.018597181 6:0.23374581 7:-0.023893901 8:-0.46589418 9:0.69633738 10:-0.37357697 11:-0.57194285 12:-0.18772303 13:-0.72690766 14:-0.66118895 15:-0.45259163 16:-0.62872557 17:0.90066488 18:-0.30956269 19:-0.030909097 20:-0.22669628 21:-0.33183576 22:0.99864236 23:0.26669706 24:-0.67443893 
-0 0 0.11279474646261763 0 1:-0.30658309 2:-0.99028698 3:0.98056289 4:-0.99867086 5:-0.16792602 6:-0.99859906 7:-0.18366527 8:0.13496736 9:-0.99735483 10:-0.27701936 11:-0.99291721 12:-0.14020073 13:-0.99587924 14:-0.99993718 15:-0.31203272 16:-0.98482989 17:0.97867227 18:-0.99478201 19:-0.17382938 20:-0.98871215 21:-0.5010476 22:0.94657992 23:-0.15164453 24:-0.3957707 
-1 0 0 0 1:-0.32740226 2:-0.94086629 3:0.91667525 4:-0.98784717 5:0.10867632 6:-0.92598356 7:0.084679988 8:0.094609557 9:-0.78184662 10:-0.27597149 11:-0.92703729 12:-0.12665006 13:-0.89146297 14:-0.99053244 15:-0.32851934 16:-0.85147835 17:0.91251095 18:-0.83864968 19:0.096253029 20:-0.86183 21:-0.54498287 22:0.99299238 23:0.19623637 24:-0.57175192 
-1 0 0 0 1:-0.46784199 2:-0.9015933 3:0.90522581 4:-0.98453512 5:0.011060659 6:-0.7608364 7:-0.021058833 8:0.065371718 9:-0.65699745 10:-0.22094476 11:-0.79443301 12:-0.12311425 13:-0.88390278 14:-0.97006389 15:-0.4732991 16:-0.83582006 17:0.90152511 18:-0.86579214 19:0.0025207042 20:-0.81704262 21:-0.49843095 22:0.96420522 23:0.19581632 24:-0.28494529 
-0 0 0.59714588178154693 0 1:-0.25818199 2:-0.97487009 3:0.93114796 4:-0.99564189 5:0.099787641 6:-0.97124305 7:0.074402748 8:0.12375153 9:-0.88427337 10:-0.26566442 11:-0.93944264 12:-0.13781894 13:-0.93829817 14:-0.99616837 15:-0.2639453 16:-0.91812049 17:0.92737053 18:-0.88955246 19:0.087249115 20:-0.93347323 21:-0.54270195 22:0.99599657 23:0.32819417 24:-0.56603302 
-0 0 1 0 1:-0.30566237 2:-0.99272206 3:0.98076081 4:-0.99920775 5:-0.16820459 6:-0.99845025 7:-0.19391825 8:0.13518305 9:-0.99497122 10:-0.27723164 11:-0.99383692 12:-0.13731423 13:-0.99381459 14:-0.99993624 15:-0.31104974 16:-0.9869944 17:0.97903058 18:-0.99592987 19:-0.17410567 20:-0.98710057 21:-0.49826718 22:0.94555036 23:-0.15790455 24:-0.39469353 
-0 0 0 0.59681620290473003 1:-0.58593538 2:-0.99749663 3:0.91496359 4:-0.99911278 5:-0.364609 6:-0.98813942 7:-0.38911075 8:0.1337571 9:-0.98716827 10:-0.27841953 11:-0.98244337 12:-0.13870644 13:-0.98631635 14:-0.99972273 15:-0.58646473 16:-0.97456041 17:0.91488616 18:-0.99236478 19:-0.36747383 20:-0.9854169 21:-0.48224363 22:0.74731131 23:-0.63262052 24:0.010466793 
-1 0.25324836814792651 0 0 1:-0.37168867 2:-0.98346502 3:0.89808299 4:-0.98746905 5:0.13666906 6:-0.92645646 7:0.1266482 8:0.19001598 9:-0.883436 10:-0.26861833 11:-0.94884485 12:-0.1411903 13:-0.96994636 14:-0.99714993 15:-0.37536236 16:-0.93713539 17:0.893226 18:-0.90485893 19:0.1224289 20:-0.920487 21:-0.57668823 22:0.98242383 23:0.24715088 24:-0.41182392 
-0 0 0 1 1:-0.58647684 2:-0.99690866 3:0.91479369 4:-0.99913812 5:-0.36611791 6:-0.99429098 7:-0.37939441 8:0.14077898 9:-0.98859573 10:-0.27694709 11:-0.99128048 12:-0.139231 13:-0.98933923 14:-0.99986294 15:-0.58731835 16:-0.98550565 17:0.91483321 18:-0.99432125 19:-0.36892173 20:-0.9843133 21:-0.47796996 22:0.74550246 23:-0.63810064 24:0.010037455 
-1 0 0 0 1:-0.42688782 2:-0.28008997 3:0.92551962 4:-0.9397687 5:-0.069298358 6:-0.20531162 7:-0.05763382 8:-0.20822974 9:-0.53863826 10:-0.34820677 11:-0.8322571 12:0.0066760859 13:-0.67435374 14:-0.9244796 15:-0.42255616 16:-0.45663801 17:0.92025103 18:-0.81456999 19:-0.068900309 20:-0.51884378 21:-0.50890795 22:0.95838865 23:-0.15914839 24:-0.54087318 
-0.10680882466850047 0 0 0 1:-0.39564127 2:-0.94308398 3:0.90164896 4:-0.99319686 5:0.1050908 6:-0.95884975 7:0.089971566 8:0.1661464 9:-0.83429887 10:-0.28901115 11:-0.93135794 12:-0.1229668 13:-0.92484194 14:-0.99389517 15:-0.39838174 16:-0.91387986 17:0.8927655 18:-0.88051536 19:0.10066843 20:-0.91308586 21:-0.59438521 22:0.98211888 23:0.20288399 24:-0.4240328 
-1 0 0 0 1:-0.28567316 2:-0.89439292 3:0.91998905 4:-0.97796201 5:0.12274609 6:-0.91904539 7:0.13521606 8:0.095927656 9:-0.82486034 10:-0.27464358 11:-0.89230157 12:-0.1553279 13:-0.91455428 14:-0.99067525 15:-0.29312666 16:-0.86220924 17:0.91462021 18:-0.89185084 19:0.11306301 20:-0.89492541 21:-0.54308566 22:0.99710581 23:0.31611025 24:-0.59175115 
-0.74126309931527812 1 1 0 1:-0.5264454 2:-0.75535433 3:0.92168631 4:-0.90351901 5:-0.19120731 6:-0.62446415 7:-0.18246914 8:0.35649192 9:-0.79715995 10:-0.25563287 11:-0.89692765 12:-0.086108661 13:-0.74471637 14:-0.97250429 15:-0.52811318 16:-0.78488588 17:0.92022026 18:-0.84419914 19:-0.19912217 20:-0.76566636 21:-0.48558692 22:0.76448606 23:0.0025261487 24:0.34386183 
-0 0 1 0 1:-0.49374888 2:-0.94733154 3:0.94495912 4:-0.98498315 5:-0.27588173 6:-0.98270397 7:-0.28762483 8:0.13863407 9:-0.90696791 10:-0.28514035 11:-0.86237136 12:-0.13206296 13:-0.90962374 14:-0.99009474 15:-0.48563639 16:-0.90794936 17:0.94660131 18:-0.96821228 19:-0.28258104 20:-0.96467001 21:-0.5076562 22:0.80462932 23:-0.070605892 24:0.22898171 
-0 0 1 0 1:-0.31071349 2:-0.98581732 3:0.97958779 4:-0.99805303 5:-0.16612321 6:-0.99358252 7:-0.1932994 8:0.13739985 9:-0.97974666 10:-0.27793624 11:-0.98416273 12:-0.13591067 13:-0.98126737 14:-0.99966764 15:-0.31608469 16:-0.97878419 17:0.9778633 18:-0.98723872 19:-0.17215065 20:-0.97988623 21:-0.49803986 22:0.94472467 23:-0.13462102 24:-0.3607755 
-0 0 0.95572126890682452 0 1:-0.49279649 2:-0.99578964 3:0.9439988 4:-0.99815868 5:-0.26165253 6:-0.9808932 7:-0.23117968 8:0.12073189 9:-0.96825083 10:-0.27836533 11:-0.98736883 12:-0.13957409 13:-0.99221107 14:-0.99971629 15:-0.49558625 16:-0.98048639 17:0.94253426 18:-0.98359024 19:-0.26573083 20:-0.97565849 21:-0.49635127 22:0.81693 23:0.026034715 24:0.22837592 
-0 0 1 0 1:-0.44836934 2:-0.84998154 3:0.95794518 4:-0.96770249 5:-0.26174334 6:-0.93475575 7:-0.27653115 8:0.082674766 9:-0.87624334 10:-0.24285518 11:-0.82509679 12:-0.16123133 13:-0.90081854 14:-0.98417466 15:-0.45285921 16:-0.81101196 17:0.95494105 18:-0.9401199 19:-0.26646528 20:-0.9191195 21:-0.50107599 22:0.81027878 23:0.1933348 24:0.27821262 
-1 1 0 0 1:-0.37028976 2:-0.9906068 3:0.89742939 4:-0.99482664 5:0.1398953 6:-0.97247207 7:0.10425419 8:0.11114571 9:-0.88204509 10:-0.26477464 11:-0.95457576 12:-0.13560161 13:-0.97528208 14:-0.99749777 15:-0.37346709 16:-0.9368893 17:0.89400666 18:-0.90350058 19:0.12646483 20:-0.92964119 21:-0.54946105 22:0.97996579 23:0.24609386 24:-0.38967866 
-0 0.38645783793600869 1 0 1:-0.46694439 2:-0.67454329 3:0.94914547 4:-0.89673124 5:-0.2472747 6:-0.78881329 7:-0.25858156 8:0.24084668 9:-0.74177706 10:-0.22090411 11:-0.80948342 12:-0.094030936 13:-0.72439085 14:-0.96013515 15:-0.46873814 16:-0.70715389 17:0.94872164 18:-0.85325594 19:-0.25701021 20:-0.85118671 21:-0.46575428 22:0.74906837 23:-0.02273616 24:0.36909901 
-1 0 0 0 1:-0.31730405 2:-0.91381795 3:0.91566734 4:-0.98944818 5:0.1185321 6:-0.93143357 7:0.12715534 8:0.10912063 9:-0.76430625 10:-0.28062367 11:-0.91520036 12:-0.12676348 13:-0.88916935 14:-0.98908999 15:-0.31573391 16:-0.83963679 17:0.91239644 18:-0.82821832 19:0.10551749 20:-0.84868585 21:-0.53673463 22:0.9926323 23:0.19258184 24:-0.56776223 
-0.27090433619355364 0 0 0 1:-0.390147 2:-0.46551568 3:0.96327832 4:-0.89019933 5:-0.43041224 6:0.70520483 7:-0.44022094 8:0.17152664 9:-0.90267353 10:-0.26415585 11:-0.93702988 12:-0.15946484 13:-0.9565238 14:-0.99646317 15:-0.48677409 16:-0.7847593 17:0.92736068 18:-0.85426188 19:-0.15639861 20:-0.69468375 21:-0.50145701 22:0.90863591 23:-0.38733559 24:-0.43786362 
-1 0 0 0 1:-0.43254913 2:-0.8051098 3:0.90221502 4:-0.98702629 5:0.062920059 6:-0.68915763 7:0.034980237 8:-0.038063126 9:-0.76276525 10:-0.29406983 11:-0.91657476 12:-0.099097902 13:-0.89992654 14:-0.98734455 15:-0.43496147 16:-0.84092436 17:0.89608021 18:-0.85181032 19:0.058535919 20:-0.81057106 21:-0.54625484 22:0.97462692 23:0.10557929 24:-0.40372483 
-0 1 0 0 1:-0.37010433 2:-0.99908383 3:0.89971354 4:-0.99857091 5:0.13290127 6:-0.99260244 7:0.10483832 8:0.13936502 9:-0.97121363 10:-0.27839695 11:-0.98859776 12:-0.13892477 13:-0.99506572 14:-0.99977293 15:-0.37356979 16:-0.98378773 17:0.89539068 18:-0.98034082 19:0.1200035 20:-0.9737585 21:-0.56866799 22:0.98073757 23:0.25570245 24:-0.39410156 
-0 0 0 1 1:-0.5857172 2:-0.99713859 3:0.91506808 4:-0.9993518 5:-0.36478872 6:-0.99139595 7:-0.35607781 8:0.13858614 9:-0.99028436 10:-0.27583147 11:-0.99207714 12:-0.13884254 13:-0.99514644 14:-0.99990806 15:-0.58672482 16:-0.98502236 17:0.91492187 18:-0.99697881 19:-0.36756126 20:-0.98593616 21:-0.47998769 22:0.74557823 23:-0.63629242 24:0.01175683 
-0 -0 1 0 1:0.24456673 2:-0.9964497 3:0.074261415 4:-0.99197487 5:0.92501419 6:-0.99825748 7:0.94367558 8:0.15011352 9:-0.9804162 10:-0.2757863 11:-0.99625576 12:-0.13122366 13:-0.97132916 14:-0.99963853 15:0.22786441 16:-0.99048239 17:0.077512875 18:-0.98112304 19:0.90376008 20:-0.98413682 21:-0.48136562 22:0.40983188 23:0.065967855 24:0.82746122 
-1 -0.82210843347900064 1 0.84084741813176223 1:0.48419404 2:0.99999999 3:0.053727183 4:-0.69334431 5:0.65381448 6:0.83388382 7:0.64407529 8:-0.050501191 9:-0.7735122 10:0.27173031 11:0.089460014 12:-0.30684353 13:-0.12971119 14:-0.30325831 15:0.47297134 16:0.55986505 17:0.052252327 18:-0.63274455 19:0.61799973 20:-0.0074023525 21:-0.19968424 22:-0.36569682 23:-0.85723302 24:0.46407565 
-0.69270278275069297 -0 0 0 1:0.1068091 2:-0.31880061 3:0.017903555 4:-0.85656446 5:0.96592264 6:-0.81012525 7:0.97388703 8:0.57928664 9:-0.57858936 10:-0.53107364 11:-0.71046546 12:0.24239352 13:-0.1669482 14:-0.657465 15:0.10281764 16:-0.47022519 17:0.033418043 18:-0.71678288 19:0.93472032 20:-0.87414332 21:-0.49895011 22:0.033006964 23:0.16951576 24:0.9910863 
-0 -0.010090989216670773 0 0.057876692944317333 1:-0.024957585 2:-0.59859278 3:-0.053426832 4:-0.71830732 5:0.99058003 6:-0.95326153 7:0.99286017 8:0.45145498 9:-0.62541557 10:-0.45520243 11:-0.53903112 12:0.99999999 13:0.99999998 14:1 15:-0.037392655 16:-0.50359693 17:-0.050551885 18:-0.65621624 19:0.96416446 20:-0.88974443 21:-0.42320578 22:0.043399241 23:0.29156578 24:0.99738985 
-0.067020800718747428 -0 0 0 1:-0.15551253 2:-0.99414298 3:-0.14853484 4:-0.99437518 5:0.98434991 6:-0.99870574 7:0.98940603 8:0.14436181 9:-0.98157309 10:-0.27557854 11:-0.99515477 12:-0.13952589 13:-0.98960497 14:-0.99986345 15:-0.16542038 16:-0.98861739 17:-0.1437247 18:-0.98054474 19:0.95942207 20:-0.98898422 21:-0.51406082 22:0.094090005 23:0.15086589 24:0.98259049 
-1 -0 0 0 1:-0.13854467 2:-0.99152517 3:-0.15478613 4:-0.99860016 5:0.9838282 6:-0.99967687 7:0.98826636 8:0.13859812 9:-0.9881915 10:-0.2735912 11:-0.99657117 12:-0.13929905 13:-0.9939293 14:-0.99992673 15:-0.14882705 16:-0.99209349 17:-0.14974463 18:-0.98809975 19:0.95858796 20:-0.98952901 21:-0.51914925 22:0.11027744 23:0.11635916 24:0.97613497 
-1 -0 0 0 1:0.17775473 2:-0.72908806 3:-0.0071333539 4:-0.89917493 5:0.95272784 6:-0.88572886 7:0.96307837 8:0.1438825 9:-0.74130538 10:-0.24506384 11:-0.70323111 12:-0.098062959 13:-0.72619913 14:-0.94388378 15:0.16535769 16:-0.71644744 17:-0.011813298 18:-0.76277572 19:0.92873636 20:-0.87640066 21:-0.44458656 22:0.31408366 23:-0.028296413 24:0.87669038 
-1 -0 0 0 1:-0.1842671 2:-0.86961312 3:-0.074420179 4:-0.97969206 5:0.99388749 6:-0.98384653 7:0.98984849 8:0.15561359 9:-0.96667706 10:-0.29562808 11:-0.89869967 12:-0.14165815 13:-0.97299925 14:-0.99563518 15:-0.19422695 16:-0.87469188 17:-0.069632431 18:-0.9699171 19:0.96676474 20:-0.98651093 21:-0.53832142 22:0.070537559 23:0.414671 24:0.99477634 
-0 -0 0.41943893695829826 0 1:0.24572723 2:-0.99282762 3:0.078552246 4:-0.9945798 5:0.92404162 6:-0.99715854 7:0.93944216 8:0.13876588 9:-0.98206233 10:-0.27677546 11:-0.99660915 12:-0.14033683 13:-0.98636096 14:-0.99985448 15:0.22890607 16:-0.9879069 17:0.081973949 18:-0.98174505 19:0.90280705 20:-0.98666562 21:-0.48166277 22:0.41960366 23:0.095490106 24:0.82385778 
-1 -0 0 0 1:-0.13353005 2:-0.97517589 3:-0.15563061 4:-0.99469373 5:0.98381483 6:-0.99897876 7:0.98825867 8:0.14917887 9:-0.98366196 10:-0.26945843 11:-0.98433181 12:-0.13956275 13:-0.96100114 14:-0.9993566 15:-0.14344533 16:-0.97040287 17:-0.15028641 18:-0.98522812 19:0.95845156 20:-0.9883577 21:-0.52153142 22:0.1153898 23:0.10361422 24:0.9736644 
-1 -0 0 0 1:-0.37000476 2:-0.83966382 3:-0.10597598 4:-0.94408328 5:0.95084807 6:-0.95106817 7:0.96572735 8:0.20275361 9:-0.91925989 10:-0.22638285 11:-0.90713314 12:-0.13736243 13:-0.95530772 14:-0.99452184 15:-0.37793119 16:-0.86963115 17:-0.10117395 18:-0.9166706 19:0.92380335 20:-0.95781384 21:-0.53419735 22:0.030679109 23:0.65322662 24:0.97847631 
-1 -0 0 0 1:0.069016966 2:0.05978998 3:-0.039876694 4:-0.84264472 5:0.96066007 6:-0.73026044 7:0.97117551 8:0.12521342 9:-0.79864495 10:-0.079626841 11:-0.48186279 12:-0.023929867 13:-0.48395337 14:-0.82009022 15:0.041802572 16:-0.14893822 17:-0.042423935 18:-0.80606576 19:0.93228967 20:-0.78627138 21:-0.461338 22:0.41997116 23:0.14620095 24:0.82963901 
-0 -0.98991257457251924 0 1 1:-0.49557606 2:-0.98756712 3:-0.10131719 4:-0.99839673 5:0.90103441 6:-0.99251608 7:0.9205848 8:0.13713623 9:-0.98891566 10:-0.27336085 11:-0.99533569 12:-0.13868092 13:-0.99448612 14:-0.99992449 15:-0.49870991 16:-0.9859981 17:-0.096317617 18:-0.98905369 19:0.87593873 20:-0.99002359 21:-0.53380706 22:-0.057713616 23:0.94002954 24:0.91628444 
-1 -0 0 0 1:-0.17729717 2:-0.91050848 3:-0.062846065 4:-0.84590561 5:0.99507065 6:-0.97388334 7:0.99349261 8:0.34534799 9:-0.59772613 10:-0.26458042 11:-0.93489633 12:-0.15511524 13:-0.86055152 14:-0.97742368 15:-0.18756748 16:-0.92419637 17:-0.051407652 18:-0.73575646 19:0.96760411 20:-0.97412382 21:-0.53811727 22:0.092603319 23:0.16196713 24:0.98385737 
-1 -0 0 0 1:-0.16718748 2:0.18797064 3:-0.082340796 4:-0.86288112 5:0.96739924 6:-0.76989514 7:0.97471194 8:0.15744694 9:-0.58075718 10:-0.63882359 11:-0.64926217 12:-0.19140913 13:-0.60020319 14:-0.86363004 15:-0.1616485 16:-0.15923229 17:-0.072320405 18:-0.73899377 19:0.93939978 20:-0.84693889 21:-0.51925357 22:-0.047617801 23:0.94019693 24:0.91717659 
-1 -0 0 0 1:-0.20719512 2:-0.83852613 3:-0.076959337 4:-0.99445986 5:0.99096788 6:-0.98044145 7:0.98616683 8:0.13315797 9:-0.98146579 10:-0.31837861 11:-0.9036821 12:-0.14557109 13:-0.97981244 14:-0.99575288 15:-0.21315435 16:-0.85457816 17:-0.07220466 18:-0.98583013 19:0.96383047 20:-0.985819 21:-0.54379398 22:0.064361866 23:0.41914891 24:0.99537443 
-1 -0 0 0 1:-0.03484604 2:-0.79497137 3:0.0015115139 4:-0.81142191 5:0.99740526 6:-0.96252603 7:0.99913986 8:0.13600986 9:-0.70912795 10:-0.31646805 11:-0.80391806 12:0.017861973 13:-0.574142 14:-0.91745363 15:-0.042030142 16:-0.81207143 17:-0.02889295 18:-0.75678288 19:0.98043083 20:-0.62399012 21:-0.31816685 22:0.0081730267 23:0.12261445 24:0.98747526 
-0.72517318993826407 -0 0 0 1:0.079897302 2:-0.74200746 3:0.1052681 4:-0.63389455 5:0.96864262 6:-0.85719212 7:0.97580421 8:0.45962719 9:-0.70872953 10:-0.30743017 11:-0.77916702 12:-0.38042087 13:-0.54566317 14:-0.87767639 15:0.071718333 16:-0.80096299 17:0.10791788 18:-0.57429933 19:0.94439047 20:-0.84816774 21:-0.47581831 22:0.23589095 23:0.0094039585 24:0.92269565 
-1 -0 0 0 1:0.15739199 2:-0.78161255 3:0.017168076 4:-0.79076388 5:0.95874127 6:-0.9055329 7:0.96755575 8:0.34484471 9:-0.76730742 10:-0.22578664 11:-0.73191561 12:-0.18587998 13:-0.75030044 14:-0.95058958 15:0.14324927 16:-0.76755135 17:0.018640961 18:-0.69820637 19:0.9323736 20:-0.90117455 21:-0.50077242 22:0.35857881 23:-0.16394598 24:0.81752059 
-1 -0 0 0 1:0.055890558 2:-0.44661593 3:0.028464433 4:-0.81874014 5:0.97969162 6:-0.89428191 7:0.98029578 8:0.41936525 9:-0.18491682 10:-0.12282438 11:-0.48244751 12:0.35595651 13:-0.019814333 14:-0.434592 15:0.037608728 16:-0.56039697 17:0.048516499 18:-0.61241285 19:1 20:-0.58389712 21:0.238528 22:-0.18931922 23:0.23968363 24:0.96622621 
-1 -0 0 0 1:-0.48208196 2:-0.97528976 3:-0.092398013 4:-0.97511403 5:0.90889034 6:-0.98973791 7:0.92830725 8:0.10382427 9:-0.94389038 10:-0.28538425 11:-0.97768876 12:-0.13256483 13:-0.97249814 14:-0.99908249 15:-0.48466541 16:-0.96837123 17:-0.08828448 18:-0.9546376 19:0.88394414 20:-0.9851251 21:-0.5329054 22:-0.057670564 23:0.92653881 24:0.92006464 
-1 -0 0 0 1:-0.144418 2:-0.99186324 3:-0.15397093 4:-0.9974129 5:0.9837523 6:-0.99916941 7:0.98531067 8:0.1390295 9:-0.98482087 10:-0.2739164 11:-0.99372166 12:-0.13945783 13:-0.99285301 14:-0.99988634 15:-0.15457023 16:-0.98798751 17:-0.14862905 18:-0.98501415 19:0.95868763 20:-0.98835596 21:-0.5175587 22:0.10396122 23:0.12692101 24:0.97847055 
-0 -1 0 0 1:0.11324051 2:-0.94350805 3:0.21929082 4:-0.92024843 5:0.93978329 6:-0.97834963 7:0.95611132 8:0.24232055 9:-0.93376694 10:-0.25850548 11:-0.97108425 12:-0.14504369 13:-0.93031202 14:-0.99723682 15:0.097186499 16:-0.94841215 17:0.2221783 18:-0.89384957 19:0.91343197 20:-0.97519268 21:-0.54895403 22:0.34735459 23:0.19233994 24:0.88613901 
-0 -0 0 0.35780809793764878 1:-0.49048312 2:-0.9961205 3:-0.10116344 4:-0.99776007 5:0.90356138 6:-0.99747799 7:0.92347669 8:0.13495538 9:-0.9882718 10:-0.27770138 11:-0.997395 12:-0.13791251 13:-0.99339995 14:-0.99993758 15:-0.493783 16:-0.99175444 17:-0.096065196 18:-0.98855317 19:0.87859147 20:-0.99102667 21:-0.53158345 22:-0.057629406 23:0.93604408 24:0.91741857 
-0 -0.74663019915188023 0 0 1:0.11963258 2:-0.87662026 3:0.1865428 4:-0.76404865 5:0.94571464 6:-0.953598 7:0.96141326 8:-0.13168412 9:-0.78061862 10:-0.29931821 11:-0.89667349 12:-0.066104494 13:-0.50892143 14:-0.92785699 15:0.10968117 16:-0.87943063 17:0.17837775 18:-0.65470249 19:0.92014513 20:-0.9184852 21:-0.52849323 22:0.35823013 23:0.30734611 24:0.88502418 
-0 -0 0 1 1:-0.49254727 2:-0.99210043 3:-0.10163438 4:-0.99763576 5:0.90247715 6:-0.99597051 7:0.91795044 8:0.14135415 9:-0.99011086 10:-0.27473843 11:-0.99822812 12:-0.13894745 13:-0.99545664 14:-0.99995184 15:-0.49569295 16:-0.99044142 17:-0.096582351 18:-0.98990618 19:0.87742161 20:-0.9908533 21:-0.53349942 22:-0.05734342 23:0.93651471 24:0.91731519 
-1 -0 0 0 1:-0.16399615 2:-0.91180119 3:-0.11050575 4:-0.77798865 5:0.98916247 6:-0.96039017 7:0.99063032 8:0.30521785 9:-0.59286845 10:-0.24729508 11:-0.95057544 12:-0.1535841 13:-0.86685165 14:-0.97863202 15:-0.17549294 16:-0.92224632 17:-0.10153965 18:-0.67049988 19:0.9625382 20:-0.97465016 21:-0.5236629 22:0.093680772 23:0.15401942 24:0.98295454 
-0 -0 1 0 1:0.24455656 2:-0.98720255 3:0.07595742 4:-0.98940459 5:0.92483132 6:-0.991911 7:0.94290328 8:0.12178637 9:-0.97493771 10:-0.27300855 11:-0.98731768 12:-0.13775089 13:-0.97957264 14:-0.99965569 15:0.22811115 16:-0.98469554 17:0.07905695 18:-0.98336818 19:0.9033981 20:-0.98819193 21:-0.48257193 22:0.40447074 23:0.056494424 24:0.83020492 
-1 -0 0 0 1:0.11870691 2:0.14429426 3:0.01184115 4:-0.91342776 5:0.94421103 6:-0.33280936 7:0.94962956 8:0.082698732 9:-0.66218556 10:-0.83650518 11:-0.3713657 12:-0.4810882 13:-0.55214799 14:-0.62700495 15:0.080821585 16:-0.17672923 17:0.02043007 18:-0.74597005 19:0.92811734 20:-0.45856409 21:-0.35072316 22:0.092235845 23:0.12055349 24:0.97980121 
-0 -1 0 0 1:0.10436919 2:-0.97339011 3:0.23047697 4:-0.9494989 5:0.93862895 6:-0.97940056 7:0.95575802 8:0.15385213 9:-0.87782111 10:-0.26519469 11:-0.9510885 12:-0.10131523 13:-0.91293916 14:-0.99459623 15:0.088581073 16:-0.94217396 17:0.23397189 18:-0.9139176 19:0.91151019 20:-0.93865822 21:-0.55313874 22:0.34731087 23:0.25807864 24:0.89036135 
-0 -0.08109147898296043 0 0 1:0.12027372 2:-0.92577975 3:0.19129061 4:-0.8984835 5:0.94600849 6:-0.94661705 7:0.96166309 8:0.37813271 9:-0.75058555 10:-0.29469765 11:-0.93365133 12:-0.15273913 13:-0.87393721 14:-0.98603615 15:0.10704699 16:-0.92974069 17:0.1942544 18:-0.84499235 19:0.91854859 20:-0.92459344 21:-0.54644526 22:0.26021683 23:0.08965694 24:0.92363428 
-1 -0 0 0 1:-0.092211006 2:-0.92529064 3:-0.11602426 4:-0.98263915 5:0.99197715 6:-0.9936946 7:0.99506471 8:0.10384823 9:-0.90186092 10:-0.28953508 11:-0.80941002 12:-0.12690526 13:-0.93937651 14:-0.98491365 15:-0.099844681 16:-0.76353261 17:-0.1099311 18:-0.94867336 19:0.96549521 20:-0.96690839 21:-0.50595302 22:0.1374488 23:0.17114006 24:0.97563545 
-1 -0 0 0 1:0.21168968 2:-0.36696227 3:-0.025415539 4:-0.86356148 5:0.93258975 6:-0.69624387 7:0.95879245 8:0.00975991 9:-0.59363633 10:-0.36537016 11:-0.14264951 12:-0.2455579 13:-0.72241083 14:-0.7054987 15:0.20151929 16:-0.16107361 17:-0.025989495 18:-0.73400303 19:0.90285602 20:-0.6630309 21:-0.2118476 22:0.0084157125 23:0.32982931 24:0.99978144 
-1 -0 0 0 1:-0.21572612 2:-0.11730919 3:-0.095967917 4:-0.9321601 5:0.97315302 6:-0.881466 7:0.97734521 8:0.038170944 9:-0.72612454 10:-0.30762439 11:-0.25704257 12:-0.19224275 13:-0.81302137 14:-0.79369693 15:-0.21629002 16:-0.22520999 17:-0.097095812 18:-0.8091611 19:0.9398789 20:-0.92881238 21:-0.47940009 22:-0.00334308 23:0.70947389 24:0.97075362 
-1 -0 0 0 1:-0.47485158 2:-0.97750234 3:-0.10260669 4:-0.99364717 5:0.91076077 6:-0.98898416 7:0.93581796 8:0.14408621 9:-0.98499551 10:-0.27525785 11:-0.98125866 12:-0.14014118 13:-0.99119361 14:-0.99971749 15:-0.4775858 16:-0.97611118 17:-0.097360546 18:-0.98737883 19:0.8855774 20:-0.98731232 21:-0.53825319 22:-0.055376371 23:0.8932778 24:0.92919092 
-0 -0 0 0.030114975968941565 1:-0.13932308 2:-0.99739665 3:-0.15555148 4:-0.99504973 5:0.98362332 6:-0.99858705 7:0.98565844 8:0.1332778 9:-0.98829337 10:-0.27706904 11:-0.99711039 12:-0.13810816 13:-0.99392749 14:-0.99993807 15:-0.14917517 16:-0.9919961 17:-0.15094147 18:-0.98808135 19:0.95852501 20:-0.9907896 21:-0.51614779 22:0.10592132 23:0.12032704 24:0.97739884 
-1 -0 0 0 1:-0.041841695 2:-0.29396533 3:-0.035640117 4:-0.89064406 5:0.98918717 6:-0.90304691 7:0.99227038 8:0.10629271 9:-0.070457873 10:-0.19347431 11:-0.3363163 12:-0.17944916 13:-0.18694559 14:-0.61863812 15:-0.046303179 16:-0.30721025 17:-0.035851144 18:-0.66931382 19:0.95990819 20:-0.44963995 21:-0.27324273 22:-0.10528642 23:0.28703978 24:0.98959353 
-0 -0 1 0 1:0.21421085 2:-0.29749815 3:0.10371456 4:-0.8119254 5:0.92186328 6:-0.61686407 7:0.92881749 8:0.50710273 9:-0.5716007 10:-0.47662053 11:-0.72405854 12:0.072628878 13:-0.25627714 14:-0.77713929 15:0.2178867 16:-0.48477302 17:0.13058527 18:-0.55507137 19:0.89729874 20:-0.70611369 21:-0.26586645 22:0.17052439 23:0.38423502 24:0.97438938 
-1 -0 0 0 1:0.12521088 2:-0.53444704 3:-0.0013901766 4:-0.85413138 5:0.96593556 6:-0.86139524 7:0.97083007 8:0.1337571 9:-0.037095061 10:-0.35154008 11:-0.30513743 12:-0.077063546 13:-0.41799466 14:-0.67350121 15:0.10324044 16:-0.55246492 17:-0.0034144585 18:-0.73272474 19:0.93662987 20:-0.57707554 21:-0.4647348 22:0.0084220888 23:0.235529 24:0.99664942 
-0 -0 1 0 1:0.2373847 2:-0.99773524 3:0.08640034 4:-0.99751111 5:0.92669851 6:-0.99932052 7:0.94350882 8:0.14106656 9:-0.988474 10:-0.27772396 11:-0.99613665 12:-0.1391913 13:-0.9900879 14:-0.9999085 15:0.22108889 16:-0.98561927 17:0.089051582 18:-0.98943978 19:0.90453298 20:-0.99073977 21:-0.49252987 22:0.39896977 23:0.055018186 24:0.83418845 
-0 -0 0.058729384947035466 0 1:0.2420396 2:-0.99648269 3:0.079515068 4:-0.98843404 5:0.92552502 6:-0.9990064 7:0.94715342 8:0.14523655 9:-0.98256344 10:-0.27803561 11:-0.99528311 12:-0.1390552 13:-0.97797102 14:-0.99976518 15:0.22573972 16:-0.98690102 17:0.082481253 18:-0.97743436 19:0.90409232 20:-0.98669169 21:-0.4819761 22:0.40625536 23:0.063271616 24:0.82984675 
-1 -0 0 0 1:-0.42532792 2:-0.31924757 3:-0.10489064 4:-0.97344142 5:0.92230584 6:-0.76692469 7:0.93748236 8:0.16618235 9:-0.81367262 10:-0.55829116 11:-0.64655767 12:-0.13086356 13:-0.87116665 14:-0.92603536 15:-0.42188528 16:-0.45650158 17:-0.10166401 18:-0.89070074 19:0.89737744 20:-0.8742611 21:-0.50968363 22:-0.061975036 23:0.94763064 24:0.91366181 
-1 -0 0 0 1:-0.22263083 2:-0.12599415 3:-0.10680842 4:-0.92638867 5:0.97082192 6:-0.87940951 7:0.97779324 8:0.14717775 9:-0.7943428 10:-0.060670331 11:-0.43727306 12:-0.20204494 13:-0.83877293 14:-0.86424068 15:-0.22251602 16:-0.25107515 17:-0.10291257 18:-0.8664009 19:0.93777525 20:-0.93299981 21:-0.51380793 22:0.25895043 23:0.46573187 24:0.93812398 
-0 -0 1 0 1:0.24311668 2:-0.99432201 3:0.076443747 4:-0.99324937 5:0.92540651 6:-0.99821494 7:0.9446317 8:0.14232475 9:-0.9820924 10:-0.27764718 11:-0.99407069 12:-0.13933875 13:-0.97927378 14:-0.99977003 15:0.22675738 16:-0.98626985 17:0.079534703 18:-0.97889585 19:0.9039909 20:-0.98450121 21:-0.48173109 22:0.40546935 23:0.059636995 24:0.82991024 
-1 -0 0 0 1:-0.15089249 2:-0.98792989 3:-0.14919624 4:-0.99559127 5:0.984473 6:-0.99896802 7:0.98803817 8:0.14160579 9:-0.98475714 10:-0.27478812 11:-0.9806849 12:-0.14062888 13:-0.98891019 14:-0.99969156 15:-0.16068952 16:-0.9759638 17:-0.14412857 18:-0.98558594 19:0.95918775 20:-0.98727181 21:-0.51959493 22:0.099414721 23:0.14233369 24:0.98086182 
-1 -0 0 0 1:-0.33353522 2:-0.83141742 3:-0.064684921 4:-0.94323832 5:0.96703321 6:-0.93821875 7:0.97636797 8:0.16594269 9:-0.88514947 10:-0.3160209 11:-0.91816079 12:-0.13405912 13:-0.96744909 14:-0.99532319 15:-0.33883998 16:-0.87220534 17:-0.060052755 18:-0.90982614 19:0.94032656 20:-0.96530465 21:-0.54242209 22:-0.0040498422 23:0.7060758 24:0.97131252 
-1 -0 0 0.33602839264534407 1:0.054611381 2:0.39315573 3:-0.032361742 4:-0.81476566 5:0.94289773 6:-0.12573381 7:0.94081585 8:-0.066342348 9:-0.74060897 10:0.44035157 11:-0.11442506 12:-0.91892287 13:0.25922728 14:0.25376735 15:0.016795056 16:-0.0044248634 17:-0.031901067 18:-0.76265409 19:0.91160113 20:-0.45637685 21:-0.55695469 22:-0.4701854 23:-0.89002091 24:0.3197466 
-1 -0 0 0 1:0.10621105 2:-0.42589268 3:-0.017629263 4:-0.9156145 5:0.96904947 6:-0.86617498 7:0.97438739 8:0.019465911 9:-0.20740812 10:-0.0017999084 11:-0.42934902 12:-0.17666474 13:-0.21459144 14:-0.66670958 15:0.082007298 16:-0.34128262 17:-0.012337841 18:-0.74212265 19:0.93194518 20:-0.61199911 21:-0.48000877 22:-0.19186635 23:0.14868302 24:0.95849992 
-1 -0 0 0 1:-0.096064828 2:-0.97627077 3:-0.1154419 4:-0.99720007 5:0.99222583 6:-0.99948399 7:0.99142875 8:0.13237909 9:-0.98808095 10:-0.28850528 11:-0.88800108 12:-0.13833783 13:-0.9626645 14:-0.9948669 15:-0.10437013 16:-0.85027289 17:-0.11046796 18:-0.98806992 19:0.966429 20:-0.97527319 21:-0.51310433 22:0.13757346 23:0.16888259 24:0.97541058 
-1 -0 0 0 1:-0.39604837 2:-0.95537563 3:-0.092228858 4:-0.98449516 5:0.94461434 6:-0.9833271 7:0.96157895 8:0.17555283 9:-0.94336363 10:-0.26131034 11:-0.95976735 12:-0.14039354 13:-0.96791716 14:-0.99847259 15:-0.40294321 16:-0.95067205 17:-0.086190003 18:-0.96984943 19:0.91822159 20:-0.96878938 21:-0.53462941 22:-0.012005992 23:0.73444801 24:0.96634846 
-1 -0 0 0 1:-0.30928079 2:-0.87562617 3:-0.095295469 4:-0.94964172 5:0.96997907 6:-0.96570912 7:0.97207996 8:0.13602184 9:-0.71593564 10:-0.26645936 11:-0.78805198 12:-0.13635017 13:-0.76451381 14:-0.96358733 15:-0.31890692 16:-0.72990946 17:-0.090982304 18:-0.76706494 19:0.94164156 20:-0.84875247 21:-0.48736209 22:0.03742448 23:0.63945897 24:0.97993842 
-0 -0 1 0 1:0.24728552 2:-0.99681677 3:0.076870825 4:-0.99461113 5:0.92355 6:-0.99914265 7:0.94167759 8:0.13780726 9:-0.98375025 10:-0.27691547 11:-0.99739632 12:-0.14112509 13:-0.98727223 14:-0.99987107 15:0.23040389 16:-0.98951828 17:0.0805764 18:-0.98372522 19:0.90221075 20:-0.98561662 21:-0.48294112 22:0.41939152 23:0.08925743 24:0.82318875 
-1 -0 0 0 1:-0.11175317 2:-0.84402499 3:-0.13709409 4:-0.96167873 5:0.98775353 6:-0.98848741 7:0.98762079 8:0.12413498 9:-0.8704544 10:-0.2600818 11:-0.81252858 12:-0.077162786 13:-0.35006777 14:-0.88371116 15:-0.12794169 16:-0.78011743 17:-0.13478778 18:-0.92303566 19:0.96207306 20:-0.97114233 21:-0.49316892 22:0.14775633 23:0.13546982 24:0.96969397 
-1 -0 0 0 1:-0.05087557 2:-0.57160208 3:-0.073039248 4:-0.95225402 5:0.99297235 6:-0.97182114 7:0.99423161 8:0.038746112 9:-0.83332086 10:-0.24176666 11:-0.52306982 12:-0.16135609 13:-0.70513975 14:-0.89720756 15:-0.068885421 16:-0.53076669 17:-0.070552229 18:-0.90885214 19:0.96483421 20:-0.89430368 21:-0.47658669 22:0.2583988 23:0.19273462 24:0.93505374 
-0 -0.4833392574964922 1 0 1:0.24536494 2:-0.99443964 3:0.079577162 4:-0.99578121 5:0.92408388 6:-0.9973313 7:0.93779736 8:0.14080294 9:-0.98495992 10:-0.27767879 11:-0.99693071 12:-0.13904102 13:-0.98498006 14:-0.99986219 15:0.22856196 16:-0.99095477 17:0.082992251 18:-0.98492539 19:0.90283153 20:-0.98649197 21:-0.48192551 22:0.41944931 23:0.093167118 24:0.82367127 
-0 -0 1 0 1:0.2884063 2:-0.51542633 3:0.13332237 4:-0.63925588 5:0.88533133 6:-0.66177814 7:0.90229978 8:-0.76876943 9:0.08903059 10:-0.26350545 11:-0.57548268 12:-0.55367596 13:-0.17784319 14:-0.51665133 15:0.27250572 16:-0.58219526 17:0.12754637 18:-0.46410188 19:0.86878839 20:-0.65252445 21:-0.31831186 22:0.19241809 23:0.69548041 24:0.940139 
-1 -0 0 0 1:0.022800862 2:-0.55852225 3:0.0080830288 4:-0.87621003 5:0.98850111 6:-0.9216715 7:0.98788271 8:-0.007579087 9:-0.37806722 10:-0.24247126 11:-0.67394959 12:0.06576423 13:-0.46254829 14:-0.83004622 15:0.013007506 16:-0.60322374 17:0.028558019 18:-0.6445493 19:0.95790072 20:-0.38441962 21:-0.36326702 22:0.13376086 23:-0.010230974 24:0.95311766 
-1 -0 0 0 1:-0.14516789 2:-0.99368016 3:-0.153875 4:-0.99611083 5:0.98373795 6:-0.99880748 7:0.98448146 8:0.14075501 9:-0.98283257 10:-0.27818918 11:-0.99279045 12:-0.1381195 13:-0.99201032 14:-0.99987028 15:-0.15492501 16:-0.98638674 17:-0.14877311 18:-0.98403145 19:0.95877856 20:-0.98822475 21:-0.5156052 22:0.10043315 23:0.12964152 24:0.97938976 
-0 -1 -0 0 1:0.55911273 2:-0.99279678 3:0.73464818 4:-0.9927463 5:0.059454629 6:-0.98640038 7:0.11544843 8:0.14607534 9:-0.98515412 10:-0.27650897 11:-0.99239562 12:-0.13949186 13:-0.99393344 14:-0.99987956 15:0.54246396 16:-0.98815176 17:0.7400226 18:-0.99065655 19:0.053330117 20:-0.98546254 21:-0.33903187 22:0.28941873 23:-0.5546782 24:0.71329095 
-0 -0 -0.74295228545025216 0 1:0.95371985 2:-0.99925585 3:0.04114193 4:-0.9977394 5:-0.0099310068 6:-0.99611521 7:0.26091384 8:0.13076142 9:-0.99424635 10:-0.2784105 11:-0.99526085 12:-0.13846259 13:-0.99465092 14:-0.99994774 15:0.94831944 16:-0.99120695 17:0.045641365 18:-0.99572888 19:-0.0079013842 20:-0.99143489 21:-0.033424783 22:0.22294295 23:-0.7186578 24:0.65748625 
-0 -0 -0.47215257072805755 0 1:0.96295427 2:-0.99870597 3:0.10809795 4:-0.99057709 5:-0.075245268 6:-0.99309068 7:0.16980875 8:0.1221818 9:-0.98568404 10:-0.27782784 11:-0.99504509 12:-0.1362169 13:-0.99291222 14:-0.99990147 15:0.95802922 16:-0.99020252 17:0.11400799 18:-0.9879759 19:-0.07573237 20:-0.9912195 21:-0.033918897 22:0.082306765 23:0.25788492 24:0.99187255 
-1 -0 -1 0 1:0.63172366 2:-0.2647428 3:0.58277415 4:-0.70872573 5:0.21914957 6:-0.32752405 7:0.2875807 8:0.10492668 9:-0.85752836 10:-0.28361823 11:-0.94090313 12:-0.13289658 13:-0.85501071 14:-0.99146813 15:0.72322324 16:-0.94016074 17:0.52532626 18:-0.89846129 19:0.13857264 20:-0.94508717 21:-0.25057748 22:0.29745342 23:-0.28449059 24:0.82012169 
-0.68321174414229979 -0 -0.74498366371037961 0 1:0.57206929 2:-0.98341097 3:0.72305284 4:-0.98911837 5:0.064191569 6:-0.98834387 7:0.15044696 8:0.12686704 9:-0.95637077 10:-0.27917833 11:-0.98654675 12:-0.14357776 13:-0.98589941 14:-0.99954764 15:0.555068 16:-0.98122794 17:0.72889639 18:-0.98319289 19:0.058738759 20:-0.97935616 21:-0.33081599 22:0.28847716 23:-0.55033033 24:0.71603131 
-0 -0 -0 1 1:0.99266909 2:-0.99942636 3:0.02795719 4:-0.99772041 5:-0.2224208 6:-0.99351442 7:-0.079504685 8:0.13513512 9:-0.99524863 10:-0.27604376 11:-0.99805838 12:-0.13826127 13:-0.9955383 14:-0.99997241 15:0.99075568 16:-0.99355675 17:0.032505634 18:-0.99406671 19:-0.22286914 20:-0.99152787 21:0.023587867 22:-0.028530044 23:0.52454057 24:0.9926904 
-0 -0 -0 0.63490103213667082 1:0.6451518 2:-0.99680384 3:0.71288295 4:-0.99744245 5:-0.10926073 6:-0.99497747 7:-0.049363018 8:0.14061122 9:-0.99405219 10:-0.27674836 11:-0.99417379 12:-0.13825276 13:-0.99539609 14:-0.99994058 15:0.63138311 16:-0.99120259 17:0.72170918 18:-0.99594341 19:-0.11243525 20:-0.99122282 21:-0.23792028 22:0.17569401 23:-0.99650502 24:0.47133134 
-0 -1 -0 0 1:0.55870391 2:-0.99498388 3:0.73595755 4:-0.99724066 5:0.056503704 6:-0.99782578 7:0.11618917 8:0.13973648 9:-0.98742885 10:-0.27500944 11:-0.99448527 12:-0.1397669 13:-0.99670105 14:-0.99991971 15:0.54265336 16:-0.99040377 17:0.74094732 18:-0.9960491 19:0.050429072 20:-0.98869676 21:-0.33802454 22:0.28723898 23:-0.56052815 24:0.71163646 
-1 -1 -0 0 1:0.5548093 2:-0.92395439 3:0.74143322 4:-0.96026462 5:0.048320495 6:-0.96270789 7:0.12312862 8:0.059608029 9:-0.88043278 10:-0.3302891 11:-0.90184648 12:-0.10016687 13:-0.86811182 14:-0.98860783 15:0.53679413 16:-0.93858063 17:0.7476654 18:-0.96018542 19:0.040580557 20:-0.96545093 21:-0.34902969 22:0.28716841 23:-0.57688656 24:0.70329116 
-1 -1 -0 0 1:0.54825244 2:-0.9776487 3:0.74415142 4:-0.98728174 5:0.055194905 6:-0.98970879 7:0.13271144 8:0.13524296 9:-0.97437258 10:-0.27793173 11:-0.98496911 12:-0.13994553 13:-0.97679435 14:-0.99959606 15:0.53139906 16:-0.97489065 17:0.7498867 18:-0.98153687 19:0.04873636 20:-0.98408834 21:-0.33892139 22:0.28837837 23:-0.56860306 24:0.70684092 
-1 -0 -1 0 1:0.74966407 2:-0.40270299 3:0.49529468 4:-0.22221023 5:0.085339141 6:-0.7132741 7:0.21438119 8:-0.36171641 9:-0.32174125 10:-0.42191449 11:-0.72558224 12:0.05122683 13:-0.34485725 14:-0.79078225 15:0.73451086 16:-0.48283366 17:0.48882868 18:0.061616461 19:0.072913504 20:-0.82819171 21:-0.22257067 22:0.2922109 23:-0.2613859 24:0.83051821 
-0 -1 -0 0 1:0.55835667 2:-0.9937888 3:0.73597534 4:-0.99467825 5:0.057221534 6:-0.98869362 7:0.095298677 8:0.13956872 9:-0.98579965 10:-0.27862278 11:-0.99253541 12:-0.13838887 13:-0.99332846 14:-0.99988801 15:0.54200915 16:-0.98672276 17:0.74137951 18:-0.99259071 19:0.050827769 20:-0.98699868 21:-0.33682893 22:0.28998595 23:-0.55775096 24:0.71140256 
-0.46007409450450887 -0 -0 0 1:0.60887932 2:-0.75727849 3:0.68806393 4:-0.80004698 5:0.070343375 6:-0.94922385 7:0.12476858 8:0.38007391 9:-0.55442861 10:-0.19503256 11:-0.78110878 12:-0.22873512 13:-0.60914349 14:-0.91902295 15:0.57658106 16:-0.75952249 17:0.70978998 18:-0.74686481 19:0.054143254 20:-0.86082928 21:-0.31003127 22:0.25003636 23:-0.29001701 24:0.84306999 
-0 -0 -0 0.25873880088234757 1:0.99247945 2:-0.99977493 3:0.02735631 4:-0.9985142 5:-0.22072654 6:-0.99626297 7:-0.037382706 8:0.13270263 9:-0.99464865 10:-0.27678901 11:-0.99724484 12:-0.13753539 13:-0.99708995 14:-0.99997189 15:0.99056228 16:-0.99378757 17:0.031955233 18:-0.99653728 19:-0.22102954 20:-0.98978298 21:0.023856833 22:-0.026510182 23:0.52407838 24:0.99281886 
-0 -0 -1 0 1:0.72351329 2:-0.9561445 3:0.54341985 4:-0.95084746 5:0.13236089 6:-0.9241034 7:0.21610213 8:0.15270179 9:-0.9424137 10:-0.28488742 11:-0.95268673 12:-0.1464359 13:-0.94934074 14:-0.9979038 15:0.71315736 16:-0.94966274 17:0.5466412 18:-0.92645187 19:0.12371942 20:-0.96483119 21:-0.25741562 22:0.30493698 23:-0.26811878 24:0.82110699 
-0 -0 -1 0 1:0.70670497 2:-0.8419634 3:0.56805909 4:-0.85209396 5:0.12210054 6:-0.95965045 7:0.23786779 8:0.25779025 9:-0.85122576 10:-0.24119756 11:-0.92443454 12:-0.19226827 13:-0.89361115 14:-0.98959987 15:0.68881088 16:-0.84234182 17:0.57684795 18:-0.80646464 19:0.11681217 20:-0.95516178 21:-0.27358716 22:0.29300418 23:-0.28131586 24:0.82368285 
-1 -1 -0 0 1:0.55272378 2:-0.96496994 3:0.74038419 4:-0.97905164 5:0.056534293 6:-0.99494157 7:0.13288596 8:0.15254601 9:-0.9817893 10:-0.27021724 11:-0.98929507 12:-0.14473463 13:-0.98230377 14:-0.99968946 15:0.53568845 16:-0.96956287 17:0.74596495 18:-0.97535013 19:0.050394099 20:-0.98584745 21:-0.34096661 22:0.28763952 23:-0.56056747 24:0.7113785 
-0.86041886305467141 -0 -0.51807980201664439 0.24398687774471917 1:0.76412041 2:-0.17629886 3:0.46020721 4:0.032537603 5:0.050871165 6:-0.77338383 7:0.1587905 8:0.99999996 9:-0.36152462 10:-0.071591664 11:-0.75214422 12:-0.36656965 13:-0.52665712 14:-0.80785898 15:0.73688713 16:-0.339056 17:0.48272949 18:0.22654384 19:0.037961042 20:-0.82001984 21:-0.18063055 22:0.10234725 23:0.39684341 24:0.99040837 
-0 -0 -0 0.25429522474977539 1:0.98967264 2:-0.96679162 3:0.094844228 4:-0.92120397 5:-0.24394256 6:-0.57233644 7:0.01844191 8:0.14546422 9:-0.83111447 10:-0.23145508 11:-0.6944407 12:-0.12133358 13:-0.94079854 14:-0.96298546 15:0.9907517 16:-0.84644441 17:0.097126584 18:-0.90578438 19:-0.2528746 20:-0.7418093 21:0.07579179 22:-0.0084696378 23:-0.65339074 24:0.74727535 
-0 -0 -1 0 1:0.96443144 2:-0.9994742 3:0.10404754 4:-0.99495477 5:-0.080182958 6:-0.99498325 7:0.19484186 8:0.12867643 9:-0.98768584 10:-0.27647284 11:-0.99599218 12:-0.13647493 13:-0.99623044 14:-0.99993505 15:0.9595417 16:-0.99245773 17:0.10926002 18:-0.99172447 19:-0.080004385 20:-0.98955868 21:-0.032063983 22:0.077074313 23:0.27598814 24:0.99333458 
-0 -0 -1 0 1:0.72283901 2:-0.97502304 3:0.54831614 4:-0.97255368 5:0.12488739 6:-0.98412735 7:0.20729636 8:0.13393685 9:-0.9492258 10:-0.27781881 11:-0.97490112 12:-0.14575539 13:-0.95352992 14:-0.99875185 15:0.70917208 16:-0.96413029 17:0.55495138 18:-0.96124079 19:0.11901725 20:-0.97829069 21:-0.25295097 22:0.29268158 23:-0.26170929 24:0.83015362 
-0 -0 -0 0.48094502832651642 1:0.98837868 2:-0.96116982 3:0.17249488 4:-0.83474336 5:-0.36626639 6:-0.87105116 7:-0.13610486 8:-1 9:0.12460775 10:-0.34069553 11:-0.89065492 12:-0.16531439 13:-0.58951094 14:-0.79469948 15:0.98968469 16:-0.891246 17:0.16307613 18:-0.656038 19:-0.37367112 20:-0.77970514 21:0.080161799 22:-0.0098911184 23:-0.44194099 24:0.8469281 
-1 -1 -1 0.24418849462214254 1:0.40414574 2:-0.029091641 3:0.66425191 4:-0.5641014 5:0.37906144 6:-0.16358616 7:0.40750898 8:0.67381832 9:-0.077609904 10:-0.22164936 11:-0.68047228 12:-0.25171368 13:-0.46932466 14:-0.80397764 15:0.70604557 16:-0.66836121 17:0.50995861 18:-0.29640132 19:0.15824586 20:-0.75063547 21:-0.25967721 22:0.27574238 23:0.21129361 24:0.92811254 
-0.048911185913515051 -0 -0 0.41523916524317095 1:0.95229861 2:-0.97335513 3:0.040907827 4:-0.99503877 5:-0.0045618527 6:-0.86628494 7:0.22370946 8:0.13596193 9:-0.95560505 10:-0.32906508 11:-0.92104303 12:-0.13472262 13:-0.97884599 14:-0.99640505 15:0.94648818 16:-0.9498624 17:0.045262118 18:-0.97901351 19:-0.0038479572 20:-0.91868196 21:-0.043987764 22:0.22759605 23:-0.76417862 24:0.62616329 
-0 -0.7829172289267996 -0 0 1:0.56240468 2:-0.99216225 3:0.73146832 4:-0.99520427 5:0.061460619 6:-0.99471339 7:0.12577833 8:0.13482357 9:-0.98693825 10:-0.27676191 11:-0.99224538 12:-0.14102868 13:-0.99188468 14:-0.99987555 15:0.54616248 16:-0.985657 17:0.73681624 18:-0.99425342 19:0.055620876 20:-0.98624122 21:-0.33302317 22:0.28865784 23:-0.55326642 24:0.71445399 
-0.98893273165043216 -1 -1 -0.84805552433163434 1:-0.9976676 2:-0.99878341 3:-0.57957159 4:-0.99859478 5:-0.67103469 6:-0.99877004 7:-0.45007273 8:0.13520701 9:-0.99592462 10:-0.27675287 11:-0.99971973 12:-0.13735392 13:-0.99862686 14:-0.9999924 15:-0.99807939 16:-0.99837417 17:-0.5735394 18:-0.99662455 19:-0.67134931 20:-0.99765853 21:-0.37669455 22:-0.67459288 23:-0.74413615 24:0.094102752 
-0 -0.5413253374672905 -0 -0 1:-0.99856555 2:-0.99887699 3:-0.57851321 4:-0.99880945 5:-0.67055074 6:-0.99923871 7:-0.54596183 8:0.13324185 9:-0.99109933 10:-0.27780526 11:-0.99796459 12:-0.13756658 13:-0.99582206 14:-0.99996115 15:-0.99890498 16:-0.99752811 17:-0.57241028 18:-0.99536914 19:-0.67102931 20:-0.99612092 21:-0.37800067 22:-0.6746856 23:-0.74274118 24:0.095368467 
-0 -1 -0 -0 1:-1 2:-0.99864301 3:-0.57688846 4:-0.99881233 5:-0.6693858 6:-0.99568845 7:-0.50548696 8:0.13574624 9:-0.96277148 10:-0.27740328 11:-0.98545572 12:-0.13713559 13:-0.99128191 14:-0.99965472 15:-1 16:-0.98626517 17:-0.57102135 18:-0.98146175 19:-0.6699189 20:-0.98735353 21:-0.37949456 22:-0.67498233 23:-0.74255406 24:0.09484403 
-0 -0 -0 -0.082038808256703052 1:-0.56101184 2:-0.97194185 3:-0.86059211 4:-0.98228225 5:-0.9202478 6:-0.87543616 7:-0.79226484 8:0.13309805 9:-0.56479854 10:-0.28523972 11:-0.89098676 12:-0.14194737 13:-0.91285776 14:-0.97731056 15:-0.5664583 16:-0.94311182 17:-0.85796344 18:-0.96352015 19:-0.91814117 20:-0.84265852 21:-0.32184593 22:-0.90943366 23:0.44179489 24:-0.00038930956 
-1 -0.082050472449011619 -0 -0.40335580704799456 1:-0.95646724 2:-0.76722067 3:-0.62086357 4:-0.81441743 5:-0.69961001 6:-0.7964944 7:-0.58947846 8:-0.028932291 9:-0.64640087 10:-0.28455318 11:-0.86070153 12:-0.22329104 13:-0.77132219 14:-0.96285696 15:-0.95461211 16:-0.81369394 17:-0.61829792 18:-0.75774736 19:-0.69982819 20:-0.81330588 21:-0.3512957 22:-0.6739152 23:-0.74311933 24:0.096841679 
-0 -0 -0.44984501890464995 -0 1:-0.93217299 2:-0.72243095 3:-0.65011217 4:-0.79707171 5:-0.68278091 6:-0.89460737 7:-0.59098858 8:0.23275834 9:-0.74050938 10:-0.285452 11:-0.861315 12:-0.011178803 13:-0.61252323 14:-0.93907403 15:-0.93897909 16:-0.80042465 17:-0.63954314 18:-0.7418516 19:-0.68753503 20:-0.85859394 21:-0.33220585 22:-0.82816096 23:-0.24037915 24:0.092029317 
-1 -0.34769970983396353 -1 -0.9595853857424762 1:-0.36465199 2:-0.025785597 3:-0.95406184 4:-0.71435319 5:-0.23074629 6:-0.41409194 7:-0.17991603 8:0.011737061 9:-0.85980281 10:-0.29709601 11:-0.93139617 12:-0.11698115 13:-0.87830711 14:-0.99156541 15:-0.20251494 16:-0.89542111 17:-1 18:-0.9407567 19:-0.29633959 20:-0.89369374 21:-0.29279891 22:-0.99799444 23:0.2500568 24:-0.59530602 
-0 -0 -0.17283055872336409 -0.23925909832653502 1:-0.24148933 2:-0.94940763 3:-1 4:-0.99779511 5:-0.33861072 6:-0.90716534 7:-0.3328897 8:0.070296616 9:-0.95120633 10:-0.26102579 11:-0.96161116 12:-0.11964081 13:-0.95613455 14:-0.9980508 15:-0.25106651 16:-0.96021003 17:-0.99786613 18:-0.98198102 19:-0.34538635 20:-0.95121383 21:-0.31664753 22:-0.99564233 23:0.16028585 24:-0.63093179 
-0.47344836040885024 -0 -0 -0 1:-0.8978062 2:-0.84431879 3:-0.68461658 4:-0.85519193 5:-0.68842963 6:-0.64806229 7:-0.63110541 8:-0.045959736 9:-0.59177553 10:-0.3615626 11:-0.71229931 12:-0.19592034 13:-0.78935955 14:-0.93997697 15:-0.89739909 16:-0.81761674 17:-0.68305063 18:-0.80777625 19:-0.68725 20:-0.73526345 21:-0.31683261 22:-0.71609799 23:-0.60721045 24:0.12645428 
-0 -1 -0 -0 1:-0.99787696 2:-0.9995906 3:-0.5793193 4:-0.99949179 5:-0.67095327 6:-0.99766186 7:-0.4949439 8:0.13641727 9:-0.99916498 10:-0.27761556 11:-0.99973025 12:-0.13799757 13:-0.99860375 14:-1 15:-0.99826611 16:-0.99833536 17:-0.57326728 18:-0.99714851 19:-0.67113947 20:-0.99841701 21:-0.37748644 22:-0.67407132 23:-0.74414911 24:0.095361693 
-1 -0 -1 -1 1:-0.23135502 2:-0.95765373 3:-0.9997921 4:-0.99542873 5:-0.31666945 6:-0.88006113 7:-0.27977425 8:0.069673515 9:-0.9012755 10:-0.26779178 11:-0.95178208 12:-0.11236502 13:-0.89617692 14:-0.99468646 15:-0.23381031 16:-0.91461279 17:-0.99941758 18:-0.9563016 19:-0.32713546 20:-0.94156087 21:-0.29801338 22:-1 23:0.25323253 24:-0.65680014 
